Language model created by QuickLM on Thu Dec 14 23:08:16 EST 2017
Copyright (c) 1996-2010 Carnegie Mellon University and Alexander I. Rudnicky

The model is in standard ARPA format, designed by Doug Paul while he was at MITRE.

The code that was used to produce this language model is available in Open Source.
Please visit http://www.speech.cs.cmu.edu/tools/ for more information

The (fixed) discount mass is 0.5. The backoffs are computed using the ratio method.
This model based on a corpus of 21 sentences and 23 words

\data\
ngram 1=23
ngram 2=42
ngram 3=21

\1-grams:
-0.7782 </s> -0.3010
-0.7782 <s> -0.2218
-2.1004 HOW-MANY-STATIONS-ARE-THERE-IN-BTS-SKYTRAINS -0.2218
-2.1004 HOW-MANY-TEAM-IN-AT-HOME-LEAGUE -0.2218
-2.1004 HOW-MANY-TIME-ROBOCUP-HELD-IN-THAILAND -0.2218
-2.1004 HOW-MUCH-DOES-IPHONE-X-COST-IN-USA -0.2218
-2.1004 NAME-ONE-OF-THE-FAMOUS-THAI-FOOD -0.2218
-2.1004 TELL-ME-THE-NAME-OF-THIS-VENUE -0.2218
-2.1004 WHAT-IS-A-NAME-OF-OUR-GALAXY -0.2218
-2.1004 WHAT-IS-THE-BATMAN-SUPER-POWER -0.2218
-2.1004 WHAT-IS-THE-BIGGEST-AIRPORT-IN-THAILAND -0.2218
-2.1004 WHAT-IS-THE-NAME-OF-YOUR-TEAM -0.2218
-2.1004 WHAT-IS-THE-SYMBOLIC-ANIMAL-OF-THAILAND -0.2218
-2.1004 WHAT-IS-THE-TALLEST-BUILDING-IN-THE-WORLD -0.2218
-2.1004 WHERE-ARE-YOU-FROM -0.2218
-2.1004 WHERE-WILL-NEXT-WORD-ROBOCUP-BE-HELD -0.2218
-2.1004 WHICH-COUNTRY-IS-THE-HOST-OF-ROBOCUP-AP -0.2218
-2.1004 WHICH-OPERATING-SYSTEM-ARE-YOU-USING -0.2218
-2.1004 WHICH-ROBOT-PLATFORM-IS-USED-FOR-EDUCATION-LEAGUE -0.2218
-2.1004 WHO-IS-CURRENT-US-PRESIDENT -0.2218
-2.1004 WHO-IS-THE-LEAD-ACTRESS-OF-WONDER-WOMAN -0.2218
-2.1004 WHO-IS-THE-RICHEST-MAN-IN-THE-WORLD -0.2218
-2.1004 WHO-IS-THE-SINGER-OF-THE-SONG-GRENADE -0.2218

\2-grams:
-1.6232 <s> HOW-MANY-STATIONS-ARE-THERE-IN-BTS-SKYTRAINS 0.0000
-1.6232 <s> HOW-MANY-TEAM-IN-AT-HOME-LEAGUE 0.0000
-1.6232 <s> HOW-MANY-TIME-ROBOCUP-HELD-IN-THAILAND 0.0000
-1.6232 <s> HOW-MUCH-DOES-IPHONE-X-COST-IN-USA 0.0000
-1.6232 <s> NAME-ONE-OF-THE-FAMOUS-THAI-FOOD 0.0000
-1.6232 <s> TELL-ME-THE-NAME-OF-THIS-VENUE 0.0000
-1.6232 <s> WHAT-IS-A-NAME-OF-OUR-GALAXY 0.0000
-1.6232 <s> WHAT-IS-THE-BATMAN-SUPER-POWER 0.0000
-1.6232 <s> WHAT-IS-THE-BIGGEST-AIRPORT-IN-THAILAND 0.0000
-1.6232 <s> WHAT-IS-THE-NAME-OF-YOUR-TEAM 0.0000
-1.6232 <s> WHAT-IS-THE-SYMBOLIC-ANIMAL-OF-THAILAND 0.0000
-1.6232 <s> WHAT-IS-THE-TALLEST-BUILDING-IN-THE-WORLD 0.0000
-1.6232 <s> WHERE-ARE-YOU-FROM 0.0000
-1.6232 <s> WHERE-WILL-NEXT-WORD-ROBOCUP-BE-HELD 0.0000
-1.6232 <s> WHICH-COUNTRY-IS-THE-HOST-OF-ROBOCUP-AP 0.0000
-1.6232 <s> WHICH-OPERATING-SYSTEM-ARE-YOU-USING 0.0000
-1.6232 <s> WHICH-ROBOT-PLATFORM-IS-USED-FOR-EDUCATION-LEAGUE 0.0000
-1.6232 <s> WHO-IS-CURRENT-US-PRESIDENT 0.0000
-1.6232 <s> WHO-IS-THE-LEAD-ACTRESS-OF-WONDER-WOMAN 0.0000
-1.6232 <s> WHO-IS-THE-RICHEST-MAN-IN-THE-WORLD 0.0000
-1.6232 <s> WHO-IS-THE-SINGER-OF-THE-SONG-GRENADE 0.0000
-0.3010 HOW-MANY-STATIONS-ARE-THERE-IN-BTS-SKYTRAINS </s> -0.3010
-0.3010 HOW-MANY-TEAM-IN-AT-HOME-LEAGUE </s> -0.3010
-0.3010 HOW-MANY-TIME-ROBOCUP-HELD-IN-THAILAND </s> -0.3010
-0.3010 HOW-MUCH-DOES-IPHONE-X-COST-IN-USA </s> -0.3010
-0.3010 NAME-ONE-OF-THE-FAMOUS-THAI-FOOD </s> -0.3010
-0.3010 TELL-ME-THE-NAME-OF-THIS-VENUE </s> -0.3010
-0.3010 WHAT-IS-A-NAME-OF-OUR-GALAXY </s> -0.3010
-0.3010 WHAT-IS-THE-BATMAN-SUPER-POWER </s> -0.3010
-0.3010 WHAT-IS-THE-BIGGEST-AIRPORT-IN-THAILAND </s> -0.3010
-0.3010 WHAT-IS-THE-NAME-OF-YOUR-TEAM </s> -0.3010
-0.3010 WHAT-IS-THE-SYMBOLIC-ANIMAL-OF-THAILAND </s> -0.3010
-0.3010 WHAT-IS-THE-TALLEST-BUILDING-IN-THE-WORLD </s> -0.3010
-0.3010 WHERE-ARE-YOU-FROM </s> -0.3010
-0.3010 WHERE-WILL-NEXT-WORD-ROBOCUP-BE-HELD </s> -0.3010
-0.3010 WHICH-COUNTRY-IS-THE-HOST-OF-ROBOCUP-AP </s> -0.3010
-0.3010 WHICH-OPERATING-SYSTEM-ARE-YOU-USING </s> -0.3010
-0.3010 WHICH-ROBOT-PLATFORM-IS-USED-FOR-EDUCATION-LEAGUE </s> -0.3010
-0.3010 WHO-IS-CURRENT-US-PRESIDENT </s> -0.3010
-0.3010 WHO-IS-THE-LEAD-ACTRESS-OF-WONDER-WOMAN </s> -0.3010
-0.3010 WHO-IS-THE-RICHEST-MAN-IN-THE-WORLD </s> -0.3010
-0.3010 WHO-IS-THE-SINGER-OF-THE-SONG-GRENADE </s> -0.3010

\3-grams:
-0.3010 <s> HOW-MANY-STATIONS-ARE-THERE-IN-BTS-SKYTRAINS </s>
-0.3010 <s> HOW-MANY-TEAM-IN-AT-HOME-LEAGUE </s>
-0.3010 <s> HOW-MANY-TIME-ROBOCUP-HELD-IN-THAILAND </s>
-0.3010 <s> HOW-MUCH-DOES-IPHONE-X-COST-IN-USA </s>
-0.3010 <s> NAME-ONE-OF-THE-FAMOUS-THAI-FOOD </s>
-0.3010 <s> TELL-ME-THE-NAME-OF-THIS-VENUE </s>
-0.3010 <s> WHAT-IS-A-NAME-OF-OUR-GALAXY </s>
-0.3010 <s> WHAT-IS-THE-BATMAN-SUPER-POWER </s>
-0.3010 <s> WHAT-IS-THE-BIGGEST-AIRPORT-IN-THAILAND </s>
-0.3010 <s> WHAT-IS-THE-NAME-OF-YOUR-TEAM </s>
-0.3010 <s> WHAT-IS-THE-SYMBOLIC-ANIMAL-OF-THAILAND </s>
-0.3010 <s> WHAT-IS-THE-TALLEST-BUILDING-IN-THE-WORLD </s>
-0.3010 <s> WHERE-ARE-YOU-FROM </s>
-0.3010 <s> WHERE-WILL-NEXT-WORD-ROBOCUP-BE-HELD </s>
-0.3010 <s> WHICH-COUNTRY-IS-THE-HOST-OF-ROBOCUP-AP </s>
-0.3010 <s> WHICH-OPERATING-SYSTEM-ARE-YOU-USING </s>
-0.3010 <s> WHICH-ROBOT-PLATFORM-IS-USED-FOR-EDUCATION-LEAGUE </s>
-0.3010 <s> WHO-IS-CURRENT-US-PRESIDENT </s>
-0.3010 <s> WHO-IS-THE-LEAD-ACTRESS-OF-WONDER-WOMAN </s>
-0.3010 <s> WHO-IS-THE-RICHEST-MAN-IN-THE-WORLD </s>
-0.3010 <s> WHO-IS-THE-SINGER-OF-THE-SONG-GRENADE </s>

\end\
