Language model created by QuickLM on Thu Dec 14 03:50:26 EST 2017
Copyright (c) 1996-2010 Carnegie Mellon University and Alexander I. Rudnicky

The model is in standard ARPA format, designed by Doug Paul while he was at MITRE.

The code that was used to produce this language model is available in Open Source.
Please visit http://www.speech.cs.cmu.edu/tools/ for more information

The (fixed) discount mass is 0.5. The backoffs are computed using the ratio method.
This model based on a corpus of 1236 sentences and 1238 words

\data\
ngram 1=1238
ngram 2=2472
ngram 3=1236

\1-grams:
-0.7782 </s> -0.3010
-0.7782 <s> -0.2218
-3.8702 ANSWER-A-QUESTION-TOALICIA-AT-THE-BAR-TABLE -0.2218
-3.8702 ANSWER-A-QUESTION-TOALICIA-AT-THE-KITCHEN-TABLE -0.2218
-3.8702 ANSWER-A-QUESTION-TOALICIA-AT-THE-SHELF -0.2218
-3.8702 ANSWER-A-QUESTION-TOANABELLE-AT-THE-BAR-TABLE -0.2218
-3.8702 ANSWER-A-QUESTION-TOANABELLE-AT-THE-KITCHEN-TABLE -0.2218
-3.8702 ANSWER-A-QUESTION-TOANABELLE-AT-THE-SHELF -0.2218
-3.8702 ANSWER-A-QUESTION-TOARTHUR-AT-THE-BAR-TABLE -0.2218
-3.8702 ANSWER-A-QUESTION-TOARTHUR-AT-THE-KITCHEN-TABLE -0.2218
-3.8702 ANSWER-A-QUESTION-TOARTHUR-AT-THE-SHELF -0.2218
-3.8702 ANSWER-A-QUESTION-TOBARBARA-AT-THE-BAR-TABLE -0.2218
-3.8702 ANSWER-A-QUESTION-TOBARBARA-AT-THE-KITCHEN-TABLE -0.2218
-3.8702 ANSWER-A-QUESTION-TOBARBARA-AT-THE-SHELF -0.2218
-3.8702 ANSWER-A-QUESTION-TOCLAIRE-AT-THE-BAR-TABLE -0.2218
-3.8702 ANSWER-A-QUESTION-TOCLAIRE-AT-THE-KITCHEN-TABLE -0.2218
-3.8702 ANSWER-A-QUESTION-TOCLAIRE-AT-THE-SHELF -0.2218
-3.8702 ANSWER-A-QUESTION-TOEDWARD-AT-THE-BAR-TABLE -0.2218
-3.8702 ANSWER-A-QUESTION-TOEDWARD-AT-THE-KITCHEN-TABLE -0.2218
-3.8702 ANSWER-A-QUESTION-TOEDWARD-AT-THE-SHELF -0.2218
-3.8702 ANSWER-A-QUESTION-TOFREDDY-AT-THE-BAR-TABLE -0.2218
-3.8702 ANSWER-A-QUESTION-TOFREDDY-AT-THE-KITCHEN-TABLE -0.2218
-3.8702 ANSWER-A-QUESTION-TOFREDDY-AT-THE-SHELF -0.2218
-3.8702 ANSWER-A-QUESTION-TOFREYA-AT-THE-BAR-TABLE -0.2218
-3.8702 ANSWER-A-QUESTION-TOFREYA-AT-THE-KITCHEN-TABLE -0.2218
-3.8702 ANSWER-A-QUESTION-TOFREYA-AT-THE-SHELF -0.2218
-3.8702 ANSWER-A-QUESTION-TOHAYDEN-AT-THE-BAR-TABLE -0.2218
-3.8702 ANSWER-A-QUESTION-TOHAYDEN-AT-THE-KITCHEN-TABLE -0.2218
-3.8702 ANSWER-A-QUESTION-TOHAYDEN-AT-THE-SHELF -0.2218
-3.8702 ANSWER-A-QUESTION-TOJOHN-AT-THE-BAR-TABLE -0.2218
-3.8702 ANSWER-A-QUESTION-TOJOHN-AT-THE-KITCHEN-TABLE -0.2218
-3.8702 ANSWER-A-QUESTION-TOJOHN-AT-THE-SHELF -0.2218
-3.8702 ANSWER-A-QUESTION-TOLILY-AT-THE-BAR-TABLE -0.2218
-3.8702 ANSWER-A-QUESTION-TOLILY-AT-THE-KITCHEN-TABLE -0.2218
-3.8702 ANSWER-A-QUESTION-TOLILY-AT-THE-SHELF -0.2218
-3.8702 ANSWER-A-QUESTION-TOLUCY-AT-THE-BAR-TABLE -0.2218
-3.8702 ANSWER-A-QUESTION-TOLUCY-AT-THE-KITCHEN-TABLE -0.2218
-3.8702 ANSWER-A-QUESTION-TOLUCY-AT-THE-SHELF -0.2218
-3.8702 ANSWER-A-QUESTION-TOMARY-AT-THE-BAR-TABLE -0.2218
-3.8702 ANSWER-A-QUESTION-TOMARY-AT-THE-KITCHEN-TABLE -0.2218
-3.8702 ANSWER-A-QUESTION-TOMARY-AT-THE-SHELF -0.2218
-3.8702 ANSWER-A-QUESTION-TOOSCAR-AT-THE-BAR-TABLE -0.2218
-3.8702 ANSWER-A-QUESTION-TOOSCAR-AT-THE-KITCHEN-TABLE -0.2218
-3.8702 ANSWER-A-QUESTION-TOOSCAR-AT-THE-SHELF -0.2218
-3.8702 ANSWER-A-QUESTION-TOPHILIP-AT-THE-BAR-TABLE -0.2218
-3.8702 ANSWER-A-QUESTION-TOPHILIP-AT-THE-KITCHEN-TABLE -0.2218
-3.8702 ANSWER-A-QUESTION-TOPHILIP-AT-THE-SHELF -0.2218
-3.8702 ANSWER-A-QUESTION-TOPRINCE-AT-THE-BAR-TABLE -0.2218
-3.8702 ANSWER-A-QUESTION-TOPRINCE-AT-THE-KITCHEN-TABLE -0.2218
-3.8702 ANSWER-A-QUESTION-TOPRINCE-AT-THE-SHELF -0.2218
-3.8702 ANSWER-A-QUESTION-TOROBERT-AT-THE-BAR-TABLE -0.2218
-3.8702 ANSWER-A-QUESTION-TOROBERT-AT-THE-KITCHEN-TABLE -0.2218
-3.8702 ANSWER-A-QUESTION-TOROBERT-AT-THE-SHELF -0.2218
-3.8702 ANSWER-A-QUESTION-TOSAMANTHA-AT-THE-BAR-TABLE -0.2218
-3.8702 ANSWER-A-QUESTION-TOSAMANTHA-AT-THE-KITCHEN-TABLE -0.2218
-3.8702 ANSWER-A-QUESTION-TOSAMANTHA-AT-THE-SHELF -0.2218
-3.8702 ANSWER-A-QUESTION-TOSTANLEY-AT-THE-BAR-TABLE -0.2218
-3.8702 ANSWER-A-QUESTION-TOSTANLEY-AT-THE-KITCHEN-TABLE -0.2218
-3.8702 ANSWER-A-QUESTION-TOSTANLEY-AT-THE-SHELF -0.2218
-3.8702 BEDROOM -0.2218
-3.8702 BRING-ME-THE-APPLE-JUICE -0.2218
-3.8702 BRING-ME-THE-APPLE-JUICE-FROM-THE-BAR-TABLE -0.2218
-3.8702 BRING-ME-THE-CANNED-FISH -0.2218
-3.8702 BRING-ME-THE-CEREAL -0.2218
-3.8702 BRING-ME-THE-CEREAL-BOWL -0.2218
-3.8702 BRING-ME-THE-CEREAL-BOWL-FROM-THE-SHELF -0.2218
-3.8702 BRING-ME-THE-CEREAL-FROM-THE-KITCHEN-TABLE -0.2218
-3.8702 BRING-ME-THE-CUP -0.2218
-3.8702 BRING-ME-THE-CUP-FROM-THE-SHELF -0.2218
-3.8702 BRING-ME-THE-DISK -0.2218
-3.8702 BRING-ME-THE-FORK -0.2218
-3.8702 BRING-ME-THE-FORK-FROM-THE-SHELF -0.2218
-3.8702 BRING-ME-THE-GREEN-TEA -0.2218
-3.8702 BRING-ME-THE-GREEN-TEA-FROM-THE-BAR-TABLE -0.2218
-3.8702 BRING-ME-THE-INSTANT-NOODLES -0.2218
-3.8702 BRING-ME-THE-INSTANT-NOODLES-FROM-THE-KITCHEN-TABLE -0.2218
-3.8702 BRING-ME-THE-JELLY -0.2218
-3.8702 BRING-ME-THE-JELLY-FROM-THE-COFFEE-TABLE -0.2218
-3.8702 BRING-ME-THE-KNIFE -0.2218
-3.8702 BRING-ME-THE-MILK-TEA -0.2218
-3.8702 BRING-ME-THE-MILK-TEA-FROM-THE-BAR-TABLE -0.2218
-3.8702 BRING-ME-THE-MIXED-NUTS -0.2218
-3.8702 BRING-ME-THE-ORANGE-JUICE -0.2218
-3.8702 BRING-ME-THE-ORANGE-JUICE-FROM-THE-BAR-TABLE -0.2218
-3.8702 BRING-ME-THE-POTATO-CHIP -0.2218
-3.8702 BRING-ME-THE-POTATO-CHIP-FROM-THE-COFFEE-TABLE -0.2218
-3.8702 BRING-ME-THE-PRIGNLES -0.2218
-3.8702 BRING-ME-THE-PRIGNLES-FROM-THE-COFFEE-TABLE -0.2218
-3.8702 BRING-ME-THE-ROOT-BEER -0.2218
-3.8702 BRING-ME-THE-SHOPPING-BAG -0.2218
-3.8702 BRING-ME-THE-SHOPPING-BAG-FROM-THE-SHELF -0.2218
-3.8702 BRING-ME-THE-SPOON -0.2218
-3.8702 BRING-ME-THE-SPOON-FROM-THE-SHELF -0.2218
-3.8702 BRING-ME-THE-TRAY -0.2218
-3.8702 BRING-ME-THE-TRAY-FROM-THE-SHELF -0.2218
-3.8702 BRING-THE-APPLE-JUICE-TO-ALICIA-AT-THE-BAR-TABLE -0.2218
-3.8702 BRING-THE-APPLE-JUICE-TO-ANABELLE-AT-THE-BAR-TABLE -0.2218
-3.8702 BRING-THE-APPLE-JUICE-TO-ARTHUR-AT-THE-BAR-TABLE -0.2218
-3.8702 BRING-THE-APPLE-JUICE-TO-BARBARA-AT-THE-BAR-TABLE -0.2218
-3.8702 BRING-THE-APPLE-JUICE-TO-CLAIRE-AT-THE-BAR-TABLE -0.2218
-3.8702 BRING-THE-APPLE-JUICE-TO-EDWARD-AT-THE-BAR-TABLE -0.2218
-3.8702 BRING-THE-APPLE-JUICE-TO-FREDDY-AT-THE-BAR-TABLE -0.2218
-3.8702 BRING-THE-APPLE-JUICE-TO-FREYA-AT-THE-BAR-TABLE -0.2218
-3.8702 BRING-THE-APPLE-JUICE-TO-HAYDEN-AT-THE-BAR-TABLE -0.2218
-3.8702 BRING-THE-APPLE-JUICE-TO-JOHN-AT-THE-BAR-TABLE -0.2218
-3.8702 BRING-THE-APPLE-JUICE-TO-LILY-AT-THE-BAR-TABLE -0.2218
-3.8702 BRING-THE-APPLE-JUICE-TO-LUCY-AT-THE-BAR-TABLE -0.2218
-3.8702 BRING-THE-APPLE-JUICE-TO-MARY-AT-THE-BAR-TABLE -0.2218
-3.8702 BRING-THE-APPLE-JUICE-TO-ME -0.2218
-3.8702 BRING-THE-APPLE-JUICE-TO-OSCAR-AT-THE-BAR-TABLE -0.2218
-3.8702 BRING-THE-APPLE-JUICE-TO-PHILIP-AT-THE-BAR-TABLE -0.2218
-3.8702 BRING-THE-APPLE-JUICE-TO-PRINCE-AT-THE-BAR-TABLE -0.2218
-3.8702 BRING-THE-APPLE-JUICE-TO-ROBERT-AT-THE-BAR-TABLE -0.2218
-3.8702 BRING-THE-APPLE-JUICE-TO-SAMANTHA-AT-THE-BAR-TABLE -0.2218
-3.8702 BRING-THE-APPLE-JUICE-TO-STANLEY-AT-THE-BAR-TABLE -0.2218
-3.8702 BRING-THE-CANNED-FISH-TO-ME -0.2218
-3.8702 BRING-THE-CEREAL-BOWL-TO-ALICIA-ON-THE-SHELF -0.2218
-3.8702 BRING-THE-CEREAL-BOWL-TO-ANABELLE-ON-THE-SHELF -0.2218
-3.8702 BRING-THE-CEREAL-BOWL-TO-ARTHUR-ON-THE-SHELF -0.2218
-3.8702 BRING-THE-CEREAL-BOWL-TO-BARBARA-ON-THE-SHELF -0.2218
-3.8702 BRING-THE-CEREAL-BOWL-TO-CLAIRE-ON-THE-SHELF -0.2218
-3.8702 BRING-THE-CEREAL-BOWL-TO-EDWARD-ON-THE-SHELF -0.2218
-3.8702 BRING-THE-CEREAL-BOWL-TO-FREDDY-ON-THE-SHELF -0.2218
-3.8702 BRING-THE-CEREAL-BOWL-TO-FREYA-ON-THE-SHELF -0.2218
-3.8702 BRING-THE-CEREAL-BOWL-TO-HAYDEN-ON-THE-SHELF -0.2218
-3.8702 BRING-THE-CEREAL-BOWL-TO-JOHN-ON-THE-SHELF -0.2218
-3.8702 BRING-THE-CEREAL-BOWL-TO-LILY-ON-THE-SHELF -0.2218
-3.8702 BRING-THE-CEREAL-BOWL-TO-LUCY-ON-THE-SHELF -0.2218
-3.8702 BRING-THE-CEREAL-BOWL-TO-MARY-ON-THE-SHELF -0.2218
-3.8702 BRING-THE-CEREAL-BOWL-TO-ME -0.2218
-3.8702 BRING-THE-CEREAL-BOWL-TO-OSCAR-ON-THE-SHELF -0.2218
-3.8702 BRING-THE-CEREAL-BOWL-TO-PHILIP-ON-THE-SHELF -0.2218
-3.8702 BRING-THE-CEREAL-BOWL-TO-PRINCE-ON-THE-SHELF -0.2218
-3.8702 BRING-THE-CEREAL-BOWL-TO-ROBERT-ON-THE-SHELF -0.2218
-3.8702 BRING-THE-CEREAL-BOWL-TO-SAMANTHA-ON-THE-SHELF -0.2218
-3.8702 BRING-THE-CEREAL-BOWL-TO-STANLEY-ON-THE-SHELF -0.2218
-3.8702 BRING-THE-CEREAL-TO-ALICIA-AT-THE-KITCHEN-TABLE -0.2218
-3.8702 BRING-THE-CEREAL-TO-ANABELLE-AT-THE-KITCHEN-TABLE -0.2218
-3.8702 BRING-THE-CEREAL-TO-ARTHUR-AT-THE-KITCHEN-TABLE -0.2218
-3.8702 BRING-THE-CEREAL-TO-BARBARA-AT-THE-KITCHEN-TABLE -0.2218
-3.8702 BRING-THE-CEREAL-TO-CLAIRE-AT-THE-KITCHEN-TABLE -0.2218
-3.8702 BRING-THE-CEREAL-TO-EDWARD-AT-THE-KITCHEN-TABLE -0.2218
-3.8702 BRING-THE-CEREAL-TO-FREDDY-AT-THE-KITCHEN-TABLE -0.2218
-3.8702 BRING-THE-CEREAL-TO-FREYA-AT-THE-KITCHEN-TABLE -0.2218
-3.8702 BRING-THE-CEREAL-TO-HAYDEN-AT-THE-KITCHEN-TABLE -0.2218
-3.8702 BRING-THE-CEREAL-TO-JOHN-AT-THE-KITCHEN-TABLE -0.2218
-3.8702 BRING-THE-CEREAL-TO-LILY-AT-THE-KITCHEN-TABLE -0.2218
-3.8702 BRING-THE-CEREAL-TO-LUCY-AT-THE-KITCHEN-TABLE -0.2218
-3.8702 BRING-THE-CEREAL-TO-MARY-AT-THE-KITCHEN-TABLE -0.2218
-3.8702 BRING-THE-CEREAL-TO-ME -0.2218
-3.8702 BRING-THE-CEREAL-TO-OSCAR-AT-THE-KITCHEN-TABLE -0.2218
-3.8702 BRING-THE-CEREAL-TO-PHILIP-AT-THE-KITCHEN-TABLE -0.2218
-3.8702 BRING-THE-CEREAL-TO-PRINCE-AT-THE-KITCHEN-TABLE -0.2218
-3.8702 BRING-THE-CEREAL-TO-ROBERT-AT-THE-KITCHEN-TABLE -0.2218
-3.8702 BRING-THE-CEREAL-TO-SAMANTHA-AT-THE-KITCHEN-TABLE -0.2218
-3.8702 BRING-THE-CEREAL-TO-STANLEY-AT-THE-KITCHEN-TABLE -0.2218
-3.8702 BRING-THE-CUP-TO-ALICIA-ON-THE-SHELF -0.2218
-3.8702 BRING-THE-CUP-TO-ANABELLE-ON-THE-SHELF -0.2218
-3.8702 BRING-THE-CUP-TO-ARTHUR-ON-THE-SHELF -0.2218
-3.8702 BRING-THE-CUP-TO-BARBARA-ON-THE-SHELF -0.2218
-3.8702 BRING-THE-CUP-TO-CLAIRE-ON-THE-SHELF -0.2218
-3.8702 BRING-THE-CUP-TO-EDWARD-ON-THE-SHELF -0.2218
-3.8702 BRING-THE-CUP-TO-FREDDY-ON-THE-SHELF -0.2218
-3.8702 BRING-THE-CUP-TO-FREYA-ON-THE-SHELF -0.2218
-3.8702 BRING-THE-CUP-TO-HAYDEN-ON-THE-SHELF -0.2218
-3.8702 BRING-THE-CUP-TO-JOHN-ON-THE-SHELF -0.2218
-3.8702 BRING-THE-CUP-TO-LILY-ON-THE-SHELF -0.2218
-3.8702 BRING-THE-CUP-TO-LUCY-ON-THE-SHELF -0.2218
-3.8702 BRING-THE-CUP-TO-MARY-ON-THE-SHELF -0.2218
-3.8702 BRING-THE-CUP-TO-ME -0.2218
-3.8702 BRING-THE-CUP-TO-OSCAR-ON-THE-SHELF -0.2218
-3.8702 BRING-THE-CUP-TO-PHILIP-ON-THE-SHELF -0.2218
-3.8702 BRING-THE-CUP-TO-PRINCE-ON-THE-SHELF -0.2218
-3.8702 BRING-THE-CUP-TO-ROBERT-ON-THE-SHELF -0.2218
-3.8702 BRING-THE-CUP-TO-SAMANTHA-ON-THE-SHELF -0.2218
-3.8702 BRING-THE-CUP-TO-STANLEY-ON-THE-SHELF -0.2218
-3.8702 BRING-THE-DISK-TO-ME -0.2218
-3.8702 BRING-THE-FORK-TO-ALICIA-ON-THE-SHELF -0.2218
-3.8702 BRING-THE-FORK-TO-ANABELLE-ON-THE-SHELF -0.2218
-3.8702 BRING-THE-FORK-TO-ARTHUR-ON-THE-SHELF -0.2218
-3.8702 BRING-THE-FORK-TO-BARBARA-ON-THE-SHELF -0.2218
-3.8702 BRING-THE-FORK-TO-CLAIRE-ON-THE-SHELF -0.2218
-3.8702 BRING-THE-FORK-TO-EDWARD-ON-THE-SHELF -0.2218
-3.8702 BRING-THE-FORK-TO-FREDDY-ON-THE-SHELF -0.2218
-3.8702 BRING-THE-FORK-TO-FREYA-ON-THE-SHELF -0.2218
-3.8702 BRING-THE-FORK-TO-HAYDEN-ON-THE-SHELF -0.2218
-3.8702 BRING-THE-FORK-TO-JOHN-ON-THE-SHELF -0.2218
-3.8702 BRING-THE-FORK-TO-LILY-ON-THE-SHELF -0.2218
-3.8702 BRING-THE-FORK-TO-LUCY-ON-THE-SHELF -0.2218
-3.8702 BRING-THE-FORK-TO-MARY-ON-THE-SHELF -0.2218
-3.8702 BRING-THE-FORK-TO-ME -0.2218
-3.8702 BRING-THE-FORK-TO-OSCAR-ON-THE-SHELF -0.2218
-3.8702 BRING-THE-FORK-TO-PHILIP-ON-THE-SHELF -0.2218
-3.8702 BRING-THE-FORK-TO-PRINCE-ON-THE-SHELF -0.2218
-3.8702 BRING-THE-FORK-TO-ROBERT-ON-THE-SHELF -0.2218
-3.8702 BRING-THE-FORK-TO-SAMANTHA-ON-THE-SHELF -0.2218
-3.8702 BRING-THE-FORK-TO-STANLEY-ON-THE-SHELF -0.2218
-3.8702 BRING-THE-GREEN-TEA-TO-ALICIA-AT-THE-BAR-TABLE -0.2218
-3.8702 BRING-THE-GREEN-TEA-TO-ANABELLE-AT-THE-BAR-TABLE -0.2218
-3.8702 BRING-THE-GREEN-TEA-TO-ARTHUR-AT-THE-BAR-TABLE -0.2218
-3.8702 BRING-THE-GREEN-TEA-TO-BARBARA-AT-THE-BAR-TABLE -0.2218
-3.8702 BRING-THE-GREEN-TEA-TO-CLAIRE-AT-THE-BAR-TABLE -0.2218
-3.8702 BRING-THE-GREEN-TEA-TO-EDWARD-AT-THE-BAR-TABLE -0.2218
-3.8702 BRING-THE-GREEN-TEA-TO-FREDDY-AT-THE-BAR-TABLE -0.2218
-3.8702 BRING-THE-GREEN-TEA-TO-FREYA-AT-THE-BAR-TABLE -0.2218
-3.8702 BRING-THE-GREEN-TEA-TO-HAYDEN-AT-THE-BAR-TABLE -0.2218
-3.8702 BRING-THE-GREEN-TEA-TO-JOHN-AT-THE-BAR-TABLE -0.2218
-3.8702 BRING-THE-GREEN-TEA-TO-LILY-AT-THE-BAR-TABLE -0.2218
-3.8702 BRING-THE-GREEN-TEA-TO-LUCY-AT-THE-BAR-TABLE -0.2218
-3.8702 BRING-THE-GREEN-TEA-TO-MARY-AT-THE-BAR-TABLE -0.2218
-3.8702 BRING-THE-GREEN-TEA-TO-ME -0.2218
-3.8702 BRING-THE-GREEN-TEA-TO-OSCAR-AT-THE-BAR-TABLE -0.2218
-3.8702 BRING-THE-GREEN-TEA-TO-PHILIP-AT-THE-BAR-TABLE -0.2218
-3.8702 BRING-THE-GREEN-TEA-TO-PRINCE-AT-THE-BAR-TABLE -0.2218
-3.8702 BRING-THE-GREEN-TEA-TO-ROBERT-AT-THE-BAR-TABLE -0.2218
-3.8702 BRING-THE-GREEN-TEA-TO-SAMANTHA-AT-THE-BAR-TABLE -0.2218
-3.8702 BRING-THE-GREEN-TEA-TO-STANLEY-AT-THE-BAR-TABLE -0.2218
-3.8702 BRING-THE-INSTANT-NOODLES-TO-ALICIA-AT-THE-KITCHEN-TABLE -0.2218
-3.8702 BRING-THE-INSTANT-NOODLES-TO-ANABELLE-AT-THE-KITCHEN-TABLE -0.2218
-3.8702 BRING-THE-INSTANT-NOODLES-TO-ARTHUR-AT-THE-KITCHEN-TABLE -0.2218
-3.8702 BRING-THE-INSTANT-NOODLES-TO-BARBARA-AT-THE-KITCHEN-TABLE -0.2218
-3.8702 BRING-THE-INSTANT-NOODLES-TO-CLAIRE-AT-THE-KITCHEN-TABLE -0.2218
-3.8702 BRING-THE-INSTANT-NOODLES-TO-EDWARD-AT-THE-KITCHEN-TABLE -0.2218
-3.8702 BRING-THE-INSTANT-NOODLES-TO-FREDDY-AT-THE-KITCHEN-TABLE -0.2218
-3.8702 BRING-THE-INSTANT-NOODLES-TO-FREYA-AT-THE-KITCHEN-TABLE -0.2218
-3.8702 BRING-THE-INSTANT-NOODLES-TO-HAYDEN-AT-THE-KITCHEN-TABLE -0.2218
-3.8702 BRING-THE-INSTANT-NOODLES-TO-JOHN-AT-THE-KITCHEN-TABLE -0.2218
-3.8702 BRING-THE-INSTANT-NOODLES-TO-LILY-AT-THE-KITCHEN-TABLE -0.2218
-3.8702 BRING-THE-INSTANT-NOODLES-TO-LUCY-AT-THE-KITCHEN-TABLE -0.2218
-3.8702 BRING-THE-INSTANT-NOODLES-TO-MARY-AT-THE-KITCHEN-TABLE -0.2218
-3.8702 BRING-THE-INSTANT-NOODLES-TO-ME -0.2218
-3.8702 BRING-THE-INSTANT-NOODLES-TO-OSCAR-AT-THE-KITCHEN-TABLE -0.2218
-3.8702 BRING-THE-INSTANT-NOODLES-TO-PHILIP-AT-THE-KITCHEN-TABLE -0.2218
-3.8702 BRING-THE-INSTANT-NOODLES-TO-PRINCE-AT-THE-KITCHEN-TABLE -0.2218
-3.8702 BRING-THE-INSTANT-NOODLES-TO-ROBERT-AT-THE-KITCHEN-TABLE -0.2218
-3.8702 BRING-THE-INSTANT-NOODLES-TO-SAMANTHA-AT-THE-KITCHEN-TABLE -0.2218
-3.8702 BRING-THE-INSTANT-NOODLES-TO-STANLEY-AT-THE-KITCHEN-TABLE -0.2218
-3.8702 BRING-THE-JELLY-TO-ALICIA-AT-THE-COFFEE-TABLE -0.2218
-3.8702 BRING-THE-JELLY-TO-ANABELLE-AT-THE-COFFEE-TABLE -0.2218
-3.8702 BRING-THE-JELLY-TO-ARTHUR-AT-THE-COFFEE-TABLE -0.2218
-3.8702 BRING-THE-JELLY-TO-BARBARA-AT-THE-COFFEE-TABLE -0.2218
-3.8702 BRING-THE-JELLY-TO-CLAIRE-AT-THE-COFFEE-TABLE -0.2218
-3.8702 BRING-THE-JELLY-TO-EDWARD-AT-THE-COFFEE-TABLE -0.2218
-3.8702 BRING-THE-JELLY-TO-FREDDY-AT-THE-COFFEE-TABLE -0.2218
-3.8702 BRING-THE-JELLY-TO-FREYA-AT-THE-COFFEE-TABLE -0.2218
-3.8702 BRING-THE-JELLY-TO-HAYDEN-AT-THE-COFFEE-TABLE -0.2218
-3.8702 BRING-THE-JELLY-TO-JOHN-AT-THE-COFFEE-TABLE -0.2218
-3.8702 BRING-THE-JELLY-TO-LILY-AT-THE-COFFEE-TABLE -0.2218
-3.8702 BRING-THE-JELLY-TO-LUCY-AT-THE-COFFEE-TABLE -0.2218
-3.8702 BRING-THE-JELLY-TO-MARY-AT-THE-COFFEE-TABLE -0.2218
-3.8702 BRING-THE-JELLY-TO-ME -0.2218
-3.8702 BRING-THE-JELLY-TO-OSCAR-AT-THE-COFFEE-TABLE -0.2218
-3.8702 BRING-THE-JELLY-TO-PHILIP-AT-THE-COFFEE-TABLE -0.2218
-3.8702 BRING-THE-JELLY-TO-PRINCE-AT-THE-COFFEE-TABLE -0.2218
-3.8702 BRING-THE-JELLY-TO-ROBERT-AT-THE-COFFEE-TABLE -0.2218
-3.8702 BRING-THE-JELLY-TO-SAMANTHA-AT-THE-COFFEE-TABLE -0.2218
-3.8702 BRING-THE-JELLY-TO-STANLEY-AT-THE-COFFEE-TABLE -0.2218
-3.8702 BRING-THE-KNIFE-TO-ME -0.2218
-3.8702 BRING-THE-MILK-TEA-TO-ALICIA-AT-THE-BAR-TABLE -0.2218
-3.8702 BRING-THE-MILK-TEA-TO-ANABELLE-AT-THE-BAR-TABLE -0.2218
-3.8702 BRING-THE-MILK-TEA-TO-ARTHUR-AT-THE-BAR-TABLE -0.2218
-3.8702 BRING-THE-MILK-TEA-TO-BARBARA-AT-THE-BAR-TABLE -0.2218
-3.8702 BRING-THE-MILK-TEA-TO-CLAIRE-AT-THE-BAR-TABLE -0.2218
-3.8702 BRING-THE-MILK-TEA-TO-EDWARD-AT-THE-BAR-TABLE -0.2218
-3.8702 BRING-THE-MILK-TEA-TO-FREDDY-AT-THE-BAR-TABLE -0.2218
-3.8702 BRING-THE-MILK-TEA-TO-FREYA-AT-THE-BAR-TABLE -0.2218
-3.8702 BRING-THE-MILK-TEA-TO-HAYDEN-AT-THE-BAR-TABLE -0.2218
-3.8702 BRING-THE-MILK-TEA-TO-JOHN-AT-THE-BAR-TABLE -0.2218
-3.8702 BRING-THE-MILK-TEA-TO-LILY-AT-THE-BAR-TABLE -0.2218
-3.8702 BRING-THE-MILK-TEA-TO-LUCY-AT-THE-BAR-TABLE -0.2218
-3.8702 BRING-THE-MILK-TEA-TO-MARY-AT-THE-BAR-TABLE -0.2218
-3.8702 BRING-THE-MILK-TEA-TO-ME -0.2218
-3.8702 BRING-THE-MILK-TEA-TO-OSCAR-AT-THE-BAR-TABLE -0.2218
-3.8702 BRING-THE-MILK-TEA-TO-PHILIP-AT-THE-BAR-TABLE -0.2218
-3.8702 BRING-THE-MILK-TEA-TO-PRINCE-AT-THE-BAR-TABLE -0.2218
-3.8702 BRING-THE-MILK-TEA-TO-ROBERT-AT-THE-BAR-TABLE -0.2218
-3.8702 BRING-THE-MILK-TEA-TO-SAMANTHA-AT-THE-BAR-TABLE -0.2218
-3.8702 BRING-THE-MILK-TEA-TO-STANLEY-AT-THE-BAR-TABLE -0.2218
-3.8702 BRING-THE-MIXED-NUTS-TO-ALICIA-AT-THE-KITCHEN-TABLE -0.2218
-3.8702 BRING-THE-MIXED-NUTS-TO-ANABELLE-AT-THE-KITCHEN-TABLE -0.2218
-3.8702 BRING-THE-MIXED-NUTS-TO-ARTHUR-AT-THE-KITCHEN-TABLE -0.2218
-3.8702 BRING-THE-MIXED-NUTS-TO-BARBARA-AT-THE-KITCHEN-TABLE -0.2218
-3.8702 BRING-THE-MIXED-NUTS-TO-CLAIRE-AT-THE-KITCHEN-TABLE -0.2218
-3.8702 BRING-THE-MIXED-NUTS-TO-EDWARD-AT-THE-KITCHEN-TABLE -0.2218
-3.8702 BRING-THE-MIXED-NUTS-TO-FREDDY-AT-THE-KITCHEN-TABLE -0.2218
-3.8702 BRING-THE-MIXED-NUTS-TO-FREYA-AT-THE-KITCHEN-TABLE -0.2218
-3.8702 BRING-THE-MIXED-NUTS-TO-HAYDEN-AT-THE-KITCHEN-TABLE -0.2218
-3.8702 BRING-THE-MIXED-NUTS-TO-JOHN-AT-THE-KITCHEN-TABLE -0.2218
-3.8702 BRING-THE-MIXED-NUTS-TO-LILY-AT-THE-KITCHEN-TABLE -0.2218
-3.8702 BRING-THE-MIXED-NUTS-TO-LUCY-AT-THE-KITCHEN-TABLE -0.2218
-3.8702 BRING-THE-MIXED-NUTS-TO-MARY-AT-THE-KITCHEN-TABLE -0.2218
-3.8702 BRING-THE-MIXED-NUTS-TO-ME -0.2218
-3.8702 BRING-THE-MIXED-NUTS-TO-OSCAR-AT-THE-KITCHEN-TABLE -0.2218
-3.8702 BRING-THE-MIXED-NUTS-TO-PHILIP-AT-THE-KITCHEN-TABLE -0.2218
-3.8702 BRING-THE-MIXED-NUTS-TO-PRINCE-AT-THE-KITCHEN-TABLE -0.2218
-3.8702 BRING-THE-MIXED-NUTS-TO-ROBERT-AT-THE-KITCHEN-TABLE -0.2218
-3.8702 BRING-THE-MIXED-NUTS-TO-SAMANTHA-AT-THE-KITCHEN-TABLE -0.2218
-3.8702 BRING-THE-MIXED-NUTS-TO-STANLEY-AT-THE-KITCHEN-TABLE -0.2218
-3.8702 BRING-THE-ORANGE-JUICE-TO-ALICIA-AT-THE-BAR-TABLE -0.2218
-3.8702 BRING-THE-ORANGE-JUICE-TO-ANABELLE-AT-THE-BAR-TABLE -0.2218
-3.8702 BRING-THE-ORANGE-JUICE-TO-ARTHUR-AT-THE-BAR-TABLE -0.2218
-3.8702 BRING-THE-ORANGE-JUICE-TO-BARBARA-AT-THE-BAR-TABLE -0.2218
-3.8702 BRING-THE-ORANGE-JUICE-TO-CLAIRE-AT-THE-BAR-TABLE -0.2218
-3.8702 BRING-THE-ORANGE-JUICE-TO-EDWARD-AT-THE-BAR-TABLE -0.2218
-3.8702 BRING-THE-ORANGE-JUICE-TO-FREDDY-AT-THE-BAR-TABLE -0.2218
-3.8702 BRING-THE-ORANGE-JUICE-TO-FREYA-AT-THE-BAR-TABLE -0.2218
-3.8702 BRING-THE-ORANGE-JUICE-TO-HAYDEN-AT-THE-BAR-TABLE -0.2218
-3.8702 BRING-THE-ORANGE-JUICE-TO-JOHN-AT-THE-BAR-TABLE -0.2218
-3.8702 BRING-THE-ORANGE-JUICE-TO-LILY-AT-THE-BAR-TABLE -0.2218
-3.8702 BRING-THE-ORANGE-JUICE-TO-LUCY-AT-THE-BAR-TABLE -0.2218
-3.8702 BRING-THE-ORANGE-JUICE-TO-MARY-AT-THE-BAR-TABLE -0.2218
-3.8702 BRING-THE-ORANGE-JUICE-TO-ME -0.2218
-3.8702 BRING-THE-ORANGE-JUICE-TO-OSCAR-AT-THE-BAR-TABLE -0.2218
-3.8702 BRING-THE-ORANGE-JUICE-TO-PHILIP-AT-THE-BAR-TABLE -0.2218
-3.8702 BRING-THE-ORANGE-JUICE-TO-PRINCE-AT-THE-BAR-TABLE -0.2218
-3.8702 BRING-THE-ORANGE-JUICE-TO-ROBERT-AT-THE-BAR-TABLE -0.2218
-3.8702 BRING-THE-ORANGE-JUICE-TO-SAMANTHA-AT-THE-BAR-TABLE -0.2218
-3.8702 BRING-THE-ORANGE-JUICE-TO-STANLEY-AT-THE-BAR-TABLE -0.2218
-3.8702 BRING-THE-POTATO-CHIP-TO-ALICIA-AT-THE-COFFEE-TABLE -0.2218
-3.8702 BRING-THE-POTATO-CHIP-TO-ANABELLE-AT-THE-COFFEE-TABLE -0.2218
-3.8702 BRING-THE-POTATO-CHIP-TO-ARTHUR-AT-THE-COFFEE-TABLE -0.2218
-3.8702 BRING-THE-POTATO-CHIP-TO-BARBARA-AT-THE-COFFEE-TABLE -0.2218
-3.8702 BRING-THE-POTATO-CHIP-TO-CLAIRE-AT-THE-COFFEE-TABLE -0.2218
-3.8702 BRING-THE-POTATO-CHIP-TO-EDWARD-AT-THE-COFFEE-TABLE -0.2218
-3.8702 BRING-THE-POTATO-CHIP-TO-FREDDY-AT-THE-COFFEE-TABLE -0.2218
-3.8702 BRING-THE-POTATO-CHIP-TO-FREYA-AT-THE-COFFEE-TABLE -0.2218
-3.8702 BRING-THE-POTATO-CHIP-TO-HAYDEN-AT-THE-COFFEE-TABLE -0.2218
-3.8702 BRING-THE-POTATO-CHIP-TO-JOHN-AT-THE-COFFEE-TABLE -0.2218
-3.8702 BRING-THE-POTATO-CHIP-TO-LILY-AT-THE-COFFEE-TABLE -0.2218
-3.8702 BRING-THE-POTATO-CHIP-TO-LUCY-AT-THE-COFFEE-TABLE -0.2218
-3.8702 BRING-THE-POTATO-CHIP-TO-MARY-AT-THE-COFFEE-TABLE -0.2218
-3.8702 BRING-THE-POTATO-CHIP-TO-ME -0.2218
-3.8702 BRING-THE-POTATO-CHIP-TO-OSCAR-AT-THE-COFFEE-TABLE -0.2218
-3.8702 BRING-THE-POTATO-CHIP-TO-PHILIP-AT-THE-COFFEE-TABLE -0.2218
-3.8702 BRING-THE-POTATO-CHIP-TO-PRINCE-AT-THE-COFFEE-TABLE -0.2218
-3.8702 BRING-THE-POTATO-CHIP-TO-ROBERT-AT-THE-COFFEE-TABLE -0.2218
-3.8702 BRING-THE-POTATO-CHIP-TO-SAMANTHA-AT-THE-COFFEE-TABLE -0.2218
-3.8702 BRING-THE-POTATO-CHIP-TO-STANLEY-AT-THE-COFFEE-TABLE -0.2218
-3.8702 BRING-THE-PRIGNLES-TO-ALICIA-AT-THE-COFFEE-TABLE -0.2218
-3.8702 BRING-THE-PRIGNLES-TO-ANABELLE-AT-THE-COFFEE-TABLE -0.2218
-3.8702 BRING-THE-PRIGNLES-TO-ARTHUR-AT-THE-COFFEE-TABLE -0.2218
-3.8702 BRING-THE-PRIGNLES-TO-BARBARA-AT-THE-COFFEE-TABLE -0.2218
-3.8702 BRING-THE-PRIGNLES-TO-CLAIRE-AT-THE-COFFEE-TABLE -0.2218
-3.8702 BRING-THE-PRIGNLES-TO-EDWARD-AT-THE-COFFEE-TABLE -0.2218
-3.8702 BRING-THE-PRIGNLES-TO-FREDDY-AT-THE-COFFEE-TABLE -0.2218
-3.8702 BRING-THE-PRIGNLES-TO-FREYA-AT-THE-COFFEE-TABLE -0.2218
-3.8702 BRING-THE-PRIGNLES-TO-HAYDEN-AT-THE-COFFEE-TABLE -0.2218
-3.8702 BRING-THE-PRIGNLES-TO-JOHN-AT-THE-COFFEE-TABLE -0.2218
-3.8702 BRING-THE-PRIGNLES-TO-LILY-AT-THE-COFFEE-TABLE -0.2218
-3.8702 BRING-THE-PRIGNLES-TO-LUCY-AT-THE-COFFEE-TABLE -0.2218
-3.8702 BRING-THE-PRIGNLES-TO-MARY-AT-THE-COFFEE-TABLE -0.2218
-3.8702 BRING-THE-PRIGNLES-TO-ME -0.2218
-3.8702 BRING-THE-PRIGNLES-TO-OSCAR-AT-THE-COFFEE-TABLE -0.2218
-3.8702 BRING-THE-PRIGNLES-TO-PHILIP-AT-THE-COFFEE-TABLE -0.2218
-3.8702 BRING-THE-PRIGNLES-TO-PRINCE-AT-THE-COFFEE-TABLE -0.2218
-3.8702 BRING-THE-PRIGNLES-TO-ROBERT-AT-THE-COFFEE-TABLE -0.2218
-3.8702 BRING-THE-PRIGNLES-TO-SAMANTHA-AT-THE-COFFEE-TABLE -0.2218
-3.8702 BRING-THE-PRIGNLES-TO-STANLEY-AT-THE-COFFEE-TABLE -0.2218
-3.8702 BRING-THE-ROOT-BEER-TO-ME -0.2218
-3.8702 BRING-THE-SHOPPING-BAG-TO-ME -0.2218
-3.8702 BRING-THE-SPOON-TO-ALICIA-ON-THE-SHELF -0.2218
-3.8702 BRING-THE-SPOON-TO-ANABELLE-ON-THE-SHELF -0.2218
-3.8702 BRING-THE-SPOON-TO-ARTHUR-ON-THE-SHELF -0.2218
-3.8702 BRING-THE-SPOON-TO-BARBARA-ON-THE-SHELF -0.2218
-3.8702 BRING-THE-SPOON-TO-CLAIRE-ON-THE-SHELF -0.2218
-3.8702 BRING-THE-SPOON-TO-EDWARD-ON-THE-SHELF -0.2218
-3.8702 BRING-THE-SPOON-TO-FREDDY-ON-THE-SHELF -0.2218
-3.8702 BRING-THE-SPOON-TO-FREYA-ON-THE-SHELF -0.2218
-3.8702 BRING-THE-SPOON-TO-HAYDEN-ON-THE-SHELF -0.2218
-3.8702 BRING-THE-SPOON-TO-JOHN-ON-THE-SHELF -0.2218
-3.8702 BRING-THE-SPOON-TO-LILY-ON-THE-SHELF -0.2218
-3.8702 BRING-THE-SPOON-TO-LUCY-ON-THE-SHELF -0.2218
-3.8702 BRING-THE-SPOON-TO-MARY-ON-THE-SHELF -0.2218
-3.8702 BRING-THE-SPOON-TO-ME -0.2218
-3.8702 BRING-THE-SPOON-TO-OSCAR-ON-THE-SHELF -0.2218
-3.8702 BRING-THE-SPOON-TO-PHILIP-ON-THE-SHELF -0.2218
-3.8702 BRING-THE-SPOON-TO-PRINCE-ON-THE-SHELF -0.2218
-3.8702 BRING-THE-SPOON-TO-ROBERT-ON-THE-SHELF -0.2218
-3.8702 BRING-THE-SPOON-TO-SAMANTHA-ON-THE-SHELF -0.2218
-3.8702 BRING-THE-SPOON-TO-STANLEY-ON-THE-SHELF -0.2218
-3.8702 BRING-THE-TRAY-TO-ALICIA-ON-THE-SHELF -0.2218
-3.8702 BRING-THE-TRAY-TO-ANABELLE-ON-THE-SHELF -0.2218
-3.8702 BRING-THE-TRAY-TO-ARTHUR-ON-THE-SHELF -0.2218
-3.8702 BRING-THE-TRAY-TO-BARBARA-ON-THE-SHELF -0.2218
-3.8702 BRING-THE-TRAY-TO-CLAIRE-ON-THE-SHELF -0.2218
-3.8702 BRING-THE-TRAY-TO-EDWARD-ON-THE-SHELF -0.2218
-3.8702 BRING-THE-TRAY-TO-FREDDY-ON-THE-SHELF -0.2218
-3.8702 BRING-THE-TRAY-TO-FREYA-ON-THE-SHELF -0.2218
-3.8702 BRING-THE-TRAY-TO-HAYDEN-ON-THE-SHELF -0.2218
-3.8702 BRING-THE-TRAY-TO-JOHN-ON-THE-SHELF -0.2218
-3.8702 BRING-THE-TRAY-TO-LILY-ON-THE-SHELF -0.2218
-3.8702 BRING-THE-TRAY-TO-LUCY-ON-THE-SHELF -0.2218
-3.8702 BRING-THE-TRAY-TO-MARY-ON-THE-SHELF -0.2218
-3.8702 BRING-THE-TRAY-TO-ME -0.2218
-3.8702 BRING-THE-TRAY-TO-OSCAR-ON-THE-SHELF -0.2218
-3.8702 BRING-THE-TRAY-TO-PHILIP-ON-THE-SHELF -0.2218
-3.8702 BRING-THE-TRAY-TO-PRINCE-ON-THE-SHELF -0.2218
-3.8702 BRING-THE-TRAY-TO-ROBERT-ON-THE-SHELF -0.2218
-3.8702 BRING-THE-TRAY-TO-SAMANTHA-ON-THE-SHELF -0.2218
-3.8702 BRING-THE-TRAY-TO-STANLEY-ON-THE-SHELF -0.2218
-3.8702 BRINGWHICH-COUNTRY-IS-THE-HOST-OF-ROBOCUP-AP -0.2218
-3.8702 DELIVER-THE-APPLE-JUICE-TO-ALICIA-AT-THE-BAR-TABLE -0.2218
-3.8702 DELIVER-THE-APPLE-JUICE-TO-ANABELLE-AT-THE-BAR-TABLE -0.2218
-3.8702 DELIVER-THE-APPLE-JUICE-TO-ARTHUR-AT-THE-BAR-TABLE -0.2218
-3.8702 DELIVER-THE-APPLE-JUICE-TO-BARBARA-AT-THE-BAR-TABLE -0.2218
-3.8702 DELIVER-THE-APPLE-JUICE-TO-CLAIRE-AT-THE-BAR-TABLE -0.2218
-3.8702 DELIVER-THE-APPLE-JUICE-TO-EDWARD-AT-THE-BAR-TABLE -0.2218
-3.8702 DELIVER-THE-APPLE-JUICE-TO-FREDDY-AT-THE-BAR-TABLE -0.2218
-3.8702 DELIVER-THE-APPLE-JUICE-TO-FREYA-AT-THE-BAR-TABLE -0.2218
-3.8702 DELIVER-THE-APPLE-JUICE-TO-HAYDEN-AT-THE-BAR-TABLE -0.2218
-3.8702 DELIVER-THE-APPLE-JUICE-TO-JOHN-AT-THE-BAR-TABLE -0.2218
-3.8702 DELIVER-THE-APPLE-JUICE-TO-LILY-AT-THE-BAR-TABLE -0.2218
-3.8702 DELIVER-THE-APPLE-JUICE-TO-LUCY-AT-THE-BAR-TABLE -0.2218
-3.8702 DELIVER-THE-APPLE-JUICE-TO-MARY-AT-THE-BAR-TABLE -0.2218
-3.8702 DELIVER-THE-APPLE-JUICE-TO-ME -0.2218
-3.8702 DELIVER-THE-APPLE-JUICE-TO-OSCAR-AT-THE-BAR-TABLE -0.2218
-3.8702 DELIVER-THE-APPLE-JUICE-TO-PHILIP-AT-THE-BAR-TABLE -0.2218
-3.8702 DELIVER-THE-APPLE-JUICE-TO-PRINCE-AT-THE-BAR-TABLE -0.2218
-3.8702 DELIVER-THE-APPLE-JUICE-TO-ROBERT-AT-THE-BAR-TABLE -0.2218
-3.8702 DELIVER-THE-APPLE-JUICE-TO-SAMANTHA-AT-THE-BAR-TABLE -0.2218
-3.8702 DELIVER-THE-APPLE-JUICE-TO-STANLEY-AT-THE-BAR-TABLE -0.2218
-3.8702 DELIVER-THE-CANNED-FISH-TO-ME -0.2218
-3.8702 DELIVER-THE-CEREAL-BOWL-TO-ALICIA-ON-THE-SHELF -0.2218
-3.8702 DELIVER-THE-CEREAL-BOWL-TO-ANABELLE-ON-THE-SHELF -0.2218
-3.8702 DELIVER-THE-CEREAL-BOWL-TO-ARTHUR-ON-THE-SHELF -0.2218
-3.8702 DELIVER-THE-CEREAL-BOWL-TO-BARBARA-ON-THE-SHELF -0.2218
-3.8702 DELIVER-THE-CEREAL-BOWL-TO-CLAIRE-ON-THE-SHELF -0.2218
-3.8702 DELIVER-THE-CEREAL-BOWL-TO-EDWARD-ON-THE-SHELF -0.2218
-3.8702 DELIVER-THE-CEREAL-BOWL-TO-FREDDY-ON-THE-SHELF -0.2218
-3.8702 DELIVER-THE-CEREAL-BOWL-TO-FREYA-ON-THE-SHELF -0.2218
-3.8702 DELIVER-THE-CEREAL-BOWL-TO-HAYDEN-ON-THE-SHELF -0.2218
-3.8702 DELIVER-THE-CEREAL-BOWL-TO-JOHN-ON-THE-SHELF -0.2218
-3.8702 DELIVER-THE-CEREAL-BOWL-TO-LILY-ON-THE-SHELF -0.2218
-3.8702 DELIVER-THE-CEREAL-BOWL-TO-LUCY-ON-THE-SHELF -0.2218
-3.8702 DELIVER-THE-CEREAL-BOWL-TO-MARY-ON-THE-SHELF -0.2218
-3.8702 DELIVER-THE-CEREAL-BOWL-TO-ME -0.2218
-3.8702 DELIVER-THE-CEREAL-BOWL-TO-OSCAR-ON-THE-SHELF -0.2218
-3.8702 DELIVER-THE-CEREAL-BOWL-TO-PHILIP-ON-THE-SHELF -0.2218
-3.8702 DELIVER-THE-CEREAL-BOWL-TO-PRINCE-ON-THE-SHELF -0.2218
-3.8702 DELIVER-THE-CEREAL-BOWL-TO-ROBERT-ON-THE-SHELF -0.2218
-3.8702 DELIVER-THE-CEREAL-BOWL-TO-SAMANTHA-ON-THE-SHELF -0.2218
-3.8702 DELIVER-THE-CEREAL-BOWL-TO-STANLEY-ON-THE-SHELF -0.2218
-3.8702 DELIVER-THE-CEREAL-TO-ME -0.2218
-3.8702 DELIVER-THE-CUP-TO-ALICIA-ON-THE-SHELF -0.2218
-3.8702 DELIVER-THE-CUP-TO-ANABELLE-ON-THE-SHELF -0.2218
-3.8702 DELIVER-THE-CUP-TO-ARTHUR-ON-THE-SHELF -0.2218
-3.8702 DELIVER-THE-CUP-TO-BARBARA-ON-THE-SHELF -0.2218
-3.8702 DELIVER-THE-CUP-TO-CLAIRE-ON-THE-SHELF -0.2218
-3.8702 DELIVER-THE-CUP-TO-EDWARD-ON-THE-SHELF -0.2218
-3.8702 DELIVER-THE-CUP-TO-FREDDY-ON-THE-SHELF -0.2218
-3.8702 DELIVER-THE-CUP-TO-FREYA-ON-THE-SHELF -0.2218
-3.8702 DELIVER-THE-CUP-TO-HAYDEN-ON-THE-SHELF -0.2218
-3.8702 DELIVER-THE-CUP-TO-JOHN-ON-THE-SHELF -0.2218
-3.8702 DELIVER-THE-CUP-TO-LILY-ON-THE-SHELF -0.2218
-3.8702 DELIVER-THE-CUP-TO-LUCY-ON-THE-SHELF -0.2218
-3.8702 DELIVER-THE-CUP-TO-MARY-ON-THE-SHELF -0.2218
-3.8702 DELIVER-THE-CUP-TO-ME -0.2218
-3.8702 DELIVER-THE-CUP-TO-OSCAR-ON-THE-SHELF -0.2218
-3.8702 DELIVER-THE-CUP-TO-PHILIP-ON-THE-SHELF -0.2218
-3.8702 DELIVER-THE-CUP-TO-PRINCE-ON-THE-SHELF -0.2218
-3.8702 DELIVER-THE-CUP-TO-ROBERT-ON-THE-SHELF -0.2218
-3.8702 DELIVER-THE-CUP-TO-SAMANTHA-ON-THE-SHELF -0.2218
-3.8702 DELIVER-THE-CUP-TO-STANLEY-ON-THE-SHELF -0.2218
-3.8702 DELIVER-THE-DISK-TO-ME -0.2218
-3.8702 DELIVER-THE-FORK-TO-ALICIA-ON-THE-SHELF -0.2218
-3.8702 DELIVER-THE-FORK-TO-ANABELLE-ON-THE-SHELF -0.2218
-3.8702 DELIVER-THE-FORK-TO-ARTHUR-ON-THE-SHELF -0.2218
-3.8702 DELIVER-THE-FORK-TO-BARBARA-ON-THE-SHELF -0.2218
-3.8702 DELIVER-THE-FORK-TO-CLAIRE-ON-THE-SHELF -0.2218
-3.8702 DELIVER-THE-FORK-TO-EDWARD-ON-THE-SHELF -0.2218
-3.8702 DELIVER-THE-FORK-TO-FREDDY-ON-THE-SHELF -0.2218
-3.8702 DELIVER-THE-FORK-TO-FREYA-ON-THE-SHELF -0.2218
-3.8702 DELIVER-THE-FORK-TO-HAYDEN-ON-THE-SHELF -0.2218
-3.8702 DELIVER-THE-FORK-TO-JOHN-ON-THE-SHELF -0.2218
-3.8702 DELIVER-THE-FORK-TO-LILY-ON-THE-SHELF -0.2218
-3.8702 DELIVER-THE-FORK-TO-LUCY-ON-THE-SHELF -0.2218
-3.8702 DELIVER-THE-FORK-TO-MARY-ON-THE-SHELF -0.2218
-3.8702 DELIVER-THE-FORK-TO-ME -0.2218
-3.8702 DELIVER-THE-FORK-TO-OSCAR-ON-THE-SHELF -0.2218
-3.8702 DELIVER-THE-FORK-TO-PHILIP-ON-THE-SHELF -0.2218
-3.8702 DELIVER-THE-FORK-TO-PRINCE-ON-THE-SHELF -0.2218
-3.8702 DELIVER-THE-FORK-TO-ROBERT-ON-THE-SHELF -0.2218
-3.8702 DELIVER-THE-FORK-TO-SAMANTHA-ON-THE-SHELF -0.2218
-3.8702 DELIVER-THE-FORK-TO-STANLEY-ON-THE-SHELF -0.2218
-3.8702 DELIVER-THE-GREEN-TEA-TO-ALICIA-AT-THE-BAR-TABLE -0.2218
-3.8702 DELIVER-THE-GREEN-TEA-TO-ANABELLE-AT-THE-BAR-TABLE -0.2218
-3.8702 DELIVER-THE-GREEN-TEA-TO-ARTHUR-AT-THE-BAR-TABLE -0.2218
-3.8702 DELIVER-THE-GREEN-TEA-TO-BARBARA-AT-THE-BAR-TABLE -0.2218
-3.8702 DELIVER-THE-GREEN-TEA-TO-CLAIRE-AT-THE-BAR-TABLE -0.2218
-3.8702 DELIVER-THE-GREEN-TEA-TO-EDWARD-AT-THE-BAR-TABLE -0.2218
-3.8702 DELIVER-THE-GREEN-TEA-TO-FREDDY-AT-THE-BAR-TABLE -0.2218
-3.8702 DELIVER-THE-GREEN-TEA-TO-FREYA-AT-THE-BAR-TABLE -0.2218
-3.8702 DELIVER-THE-GREEN-TEA-TO-HAYDEN-AT-THE-BAR-TABLE -0.2218
-3.8702 DELIVER-THE-GREEN-TEA-TO-JOHN-AT-THE-BAR-TABLE -0.2218
-3.8702 DELIVER-THE-GREEN-TEA-TO-LILY-AT-THE-BAR-TABLE -0.2218
-3.8702 DELIVER-THE-GREEN-TEA-TO-LUCY-AT-THE-BAR-TABLE -0.2218
-3.8702 DELIVER-THE-GREEN-TEA-TO-MARY-AT-THE-BAR-TABLE -0.2218
-3.8702 DELIVER-THE-GREEN-TEA-TO-ME -0.2218
-3.8702 DELIVER-THE-GREEN-TEA-TO-OSCAR-AT-THE-BAR-TABLE -0.2218
-3.8702 DELIVER-THE-GREEN-TEA-TO-PHILIP-AT-THE-BAR-TABLE -0.2218
-3.8702 DELIVER-THE-GREEN-TEA-TO-PRINCE-AT-THE-BAR-TABLE -0.2218
-3.8702 DELIVER-THE-GREEN-TEA-TO-ROBERT-AT-THE-BAR-TABLE -0.2218
-3.8702 DELIVER-THE-GREEN-TEA-TO-SAMANTHA-AT-THE-BAR-TABLE -0.2218
-3.8702 DELIVER-THE-GREEN-TEA-TO-STANLEY-AT-THE-BAR-TABLE -0.2218
-3.8702 DELIVER-THE-INSTANT-NOODLES-TO-ME -0.2218
-3.8702 DELIVER-THE-JELLY-TO-ALICIA-AT-THE-COFFEE-TABLE -0.2218
-3.8702 DELIVER-THE-JELLY-TO-ANABELLE-AT-THE-COFFEE-TABLE -0.2218
-3.8702 DELIVER-THE-JELLY-TO-ARTHUR-AT-THE-COFFEE-TABLE -0.2218
-3.8702 DELIVER-THE-JELLY-TO-BARBARA-AT-THE-COFFEE-TABLE -0.2218
-3.8702 DELIVER-THE-JELLY-TO-CLAIRE-AT-THE-COFFEE-TABLE -0.2218
-3.8702 DELIVER-THE-JELLY-TO-EDWARD-AT-THE-COFFEE-TABLE -0.2218
-3.8702 DELIVER-THE-JELLY-TO-FREDDY-AT-THE-COFFEE-TABLE -0.2218
-3.8702 DELIVER-THE-JELLY-TO-FREYA-AT-THE-COFFEE-TABLE -0.2218
-3.8702 DELIVER-THE-JELLY-TO-HAYDEN-AT-THE-COFFEE-TABLE -0.2218
-3.8702 DELIVER-THE-JELLY-TO-JOHN-AT-THE-COFFEE-TABLE -0.2218
-3.8702 DELIVER-THE-JELLY-TO-LILY-AT-THE-COFFEE-TABLE -0.2218
-3.8702 DELIVER-THE-JELLY-TO-LUCY-AT-THE-COFFEE-TABLE -0.2218
-3.8702 DELIVER-THE-JELLY-TO-MARY-AT-THE-COFFEE-TABLE -0.2218
-3.8702 DELIVER-THE-JELLY-TO-ME -0.2218
-3.8702 DELIVER-THE-JELLY-TO-OSCAR-AT-THE-COFFEE-TABLE -0.2218
-3.8702 DELIVER-THE-JELLY-TO-PHILIP-AT-THE-COFFEE-TABLE -0.2218
-3.8702 DELIVER-THE-JELLY-TO-PRINCE-AT-THE-COFFEE-TABLE -0.2218
-3.8702 DELIVER-THE-JELLY-TO-ROBERT-AT-THE-COFFEE-TABLE -0.2218
-3.8702 DELIVER-THE-JELLY-TO-SAMANTHA-AT-THE-COFFEE-TABLE -0.2218
-3.8702 DELIVER-THE-JELLY-TO-STANLEY-AT-THE-COFFEE-TABLE -0.2218
-3.8702 DELIVER-THE-KNIFE-TO-ME -0.2218
-3.8702 DELIVER-THE-MILK-TEA-TO-ALICIA-AT-THE-BAR-TABLE -0.2218
-3.8702 DELIVER-THE-MILK-TEA-TO-ANABELLE-AT-THE-BAR-TABLE -0.2218
-3.8702 DELIVER-THE-MILK-TEA-TO-ARTHUR-AT-THE-BAR-TABLE -0.2218
-3.8702 DELIVER-THE-MILK-TEA-TO-BARBARA-AT-THE-BAR-TABLE -0.2218
-3.8702 DELIVER-THE-MILK-TEA-TO-CLAIRE-AT-THE-BAR-TABLE -0.2218
-3.8702 DELIVER-THE-MILK-TEA-TO-EDWARD-AT-THE-BAR-TABLE -0.2218
-3.8702 DELIVER-THE-MILK-TEA-TO-FREDDY-AT-THE-BAR-TABLE -0.2218
-3.8702 DELIVER-THE-MILK-TEA-TO-FREYA-AT-THE-BAR-TABLE -0.2218
-3.8702 DELIVER-THE-MILK-TEA-TO-HAYDEN-AT-THE-BAR-TABLE -0.2218
-3.8702 DELIVER-THE-MILK-TEA-TO-JOHN-AT-THE-BAR-TABLE -0.2218
-3.8702 DELIVER-THE-MILK-TEA-TO-LILY-AT-THE-BAR-TABLE -0.2218
-3.8702 DELIVER-THE-MILK-TEA-TO-LUCY-AT-THE-BAR-TABLE -0.2218
-3.8702 DELIVER-THE-MILK-TEA-TO-MARY-AT-THE-BAR-TABLE -0.2218
-3.8702 DELIVER-THE-MILK-TEA-TO-ME -0.2218
-3.8702 DELIVER-THE-MILK-TEA-TO-OSCAR-AT-THE-BAR-TABLE -0.2218
-3.8702 DELIVER-THE-MILK-TEA-TO-PHILIP-AT-THE-BAR-TABLE -0.2218
-3.8702 DELIVER-THE-MILK-TEA-TO-PRINCE-AT-THE-BAR-TABLE -0.2218
-3.8702 DELIVER-THE-MILK-TEA-TO-ROBERT-AT-THE-BAR-TABLE -0.2218
-3.8702 DELIVER-THE-MILK-TEA-TO-SAMANTHA-AT-THE-BAR-TABLE -0.2218
-3.8702 DELIVER-THE-MILK-TEA-TO-STANLEY-AT-THE-BAR-TABLE -0.2218
-3.8702 DELIVER-THE-MIXED-NUTS-TO-ME -0.2218
-3.8702 DELIVER-THE-ORANGE-JUICE-TO-ALICIA-AT-THE-BAR-TABLE -0.2218
-3.8702 DELIVER-THE-ORANGE-JUICE-TO-ANABELLE-AT-THE-BAR-TABLE -0.2218
-3.8702 DELIVER-THE-ORANGE-JUICE-TO-ARTHUR-AT-THE-BAR-TABLE -0.2218
-3.8702 DELIVER-THE-ORANGE-JUICE-TO-BARBARA-AT-THE-BAR-TABLE -0.2218
-3.8702 DELIVER-THE-ORANGE-JUICE-TO-CLAIRE-AT-THE-BAR-TABLE -0.2218
-3.8702 DELIVER-THE-ORANGE-JUICE-TO-EDWARD-AT-THE-BAR-TABLE -0.2218
-3.8702 DELIVER-THE-ORANGE-JUICE-TO-FREDDY-AT-THE-BAR-TABLE -0.2218
-3.8702 DELIVER-THE-ORANGE-JUICE-TO-FREYA-AT-THE-BAR-TABLE -0.2218
-3.8702 DELIVER-THE-ORANGE-JUICE-TO-HAYDEN-AT-THE-BAR-TABLE -0.2218
-3.8702 DELIVER-THE-ORANGE-JUICE-TO-JOHN-AT-THE-BAR-TABLE -0.2218
-3.8702 DELIVER-THE-ORANGE-JUICE-TO-LILY-AT-THE-BAR-TABLE -0.2218
-3.8702 DELIVER-THE-ORANGE-JUICE-TO-LUCY-AT-THE-BAR-TABLE -0.2218
-3.8702 DELIVER-THE-ORANGE-JUICE-TO-MARY-AT-THE-BAR-TABLE -0.2218
-3.8702 DELIVER-THE-ORANGE-JUICE-TO-ME -0.2218
-3.8702 DELIVER-THE-ORANGE-JUICE-TO-OSCAR-AT-THE-BAR-TABLE -0.2218
-3.8702 DELIVER-THE-ORANGE-JUICE-TO-PHILIP-AT-THE-BAR-TABLE -0.2218
-3.8702 DELIVER-THE-ORANGE-JUICE-TO-PRINCE-AT-THE-BAR-TABLE -0.2218
-3.8702 DELIVER-THE-ORANGE-JUICE-TO-ROBERT-AT-THE-BAR-TABLE -0.2218
-3.8702 DELIVER-THE-ORANGE-JUICE-TO-SAMANTHA-AT-THE-BAR-TABLE -0.2218
-3.8702 DELIVER-THE-ORANGE-JUICE-TO-STANLEY-AT-THE-BAR-TABLE -0.2218
-3.8702 DELIVER-THE-POTATO-CHIP-TO-ALICIA-AT-THE-COFFEE-TABLE -0.2218
-3.8702 DELIVER-THE-POTATO-CHIP-TO-ANABELLE-AT-THE-COFFEE-TABLE -0.2218
-3.8702 DELIVER-THE-POTATO-CHIP-TO-ARTHUR-AT-THE-COFFEE-TABLE -0.2218
-3.8702 DELIVER-THE-POTATO-CHIP-TO-BARBARA-AT-THE-COFFEE-TABLE -0.2218
-3.8702 DELIVER-THE-POTATO-CHIP-TO-CLAIRE-AT-THE-COFFEE-TABLE -0.2218
-3.8702 DELIVER-THE-POTATO-CHIP-TO-EDWARD-AT-THE-COFFEE-TABLE -0.2218
-3.8702 DELIVER-THE-POTATO-CHIP-TO-FREDDY-AT-THE-COFFEE-TABLE -0.2218
-3.8702 DELIVER-THE-POTATO-CHIP-TO-FREYA-AT-THE-COFFEE-TABLE -0.2218
-3.8702 DELIVER-THE-POTATO-CHIP-TO-HAYDEN-AT-THE-COFFEE-TABLE -0.2218
-3.8702 DELIVER-THE-POTATO-CHIP-TO-JOHN-AT-THE-COFFEE-TABLE -0.2218
-3.8702 DELIVER-THE-POTATO-CHIP-TO-LILY-AT-THE-COFFEE-TABLE -0.2218
-3.8702 DELIVER-THE-POTATO-CHIP-TO-LUCY-AT-THE-COFFEE-TABLE -0.2218
-3.8702 DELIVER-THE-POTATO-CHIP-TO-MARY-AT-THE-COFFEE-TABLE -0.2218
-3.8702 DELIVER-THE-POTATO-CHIP-TO-ME -0.2218
-3.8702 DELIVER-THE-POTATO-CHIP-TO-OSCAR-AT-THE-COFFEE-TABLE -0.2218
-3.8702 DELIVER-THE-POTATO-CHIP-TO-PHILIP-AT-THE-COFFEE-TABLE -0.2218
-3.8702 DELIVER-THE-POTATO-CHIP-TO-PRINCE-AT-THE-COFFEE-TABLE -0.2218
-3.8702 DELIVER-THE-POTATO-CHIP-TO-ROBERT-AT-THE-COFFEE-TABLE -0.2218
-3.8702 DELIVER-THE-POTATO-CHIP-TO-SAMANTHA-AT-THE-COFFEE-TABLE -0.2218
-3.8702 DELIVER-THE-POTATO-CHIP-TO-STANLEY-AT-THE-COFFEE-TABLE -0.2218
-3.8702 DELIVER-THE-PRIGNLES-TO-ALICIA-AT-THE-COFFEE-TABLE -0.2218
-3.8702 DELIVER-THE-PRIGNLES-TO-ANABELLE-AT-THE-COFFEE-TABLE -0.2218
-3.8702 DELIVER-THE-PRIGNLES-TO-ARTHUR-AT-THE-COFFEE-TABLE -0.2218
-3.8702 DELIVER-THE-PRIGNLES-TO-BARBARA-AT-THE-COFFEE-TABLE -0.2218
-3.8702 DELIVER-THE-PRIGNLES-TO-CLAIRE-AT-THE-COFFEE-TABLE -0.2218
-3.8702 DELIVER-THE-PRIGNLES-TO-EDWARD-AT-THE-COFFEE-TABLE -0.2218
-3.8702 DELIVER-THE-PRIGNLES-TO-FREDDY-AT-THE-COFFEE-TABLE -0.2218
-3.8702 DELIVER-THE-PRIGNLES-TO-FREYA-AT-THE-COFFEE-TABLE -0.2218
-3.8702 DELIVER-THE-PRIGNLES-TO-HAYDEN-AT-THE-COFFEE-TABLE -0.2218
-3.8702 DELIVER-THE-PRIGNLES-TO-JOHN-AT-THE-COFFEE-TABLE -0.2218
-3.8702 DELIVER-THE-PRIGNLES-TO-LILY-AT-THE-COFFEE-TABLE -0.2218
-3.8702 DELIVER-THE-PRIGNLES-TO-LUCY-AT-THE-COFFEE-TABLE -0.2218
-3.8702 DELIVER-THE-PRIGNLES-TO-MARY-AT-THE-COFFEE-TABLE -0.2218
-3.8702 DELIVER-THE-PRIGNLES-TO-ME -0.2218
-3.8702 DELIVER-THE-PRIGNLES-TO-OSCAR-AT-THE-COFFEE-TABLE -0.2218
-3.8702 DELIVER-THE-PRIGNLES-TO-PHILIP-AT-THE-COFFEE-TABLE -0.2218
-3.8702 DELIVER-THE-PRIGNLES-TO-PRINCE-AT-THE-COFFEE-TABLE -0.2218
-3.8702 DELIVER-THE-PRIGNLES-TO-ROBERT-AT-THE-COFFEE-TABLE -0.2218
-3.8702 DELIVER-THE-PRIGNLES-TO-SAMANTHA-AT-THE-COFFEE-TABLE -0.2218
-3.8702 DELIVER-THE-PRIGNLES-TO-STANLEY-AT-THE-COFFEE-TABLE -0.2218
-3.8702 DELIVER-THE-ROOT-BEER-TO-ME -0.2218
-3.8702 DELIVER-THE-SHOPPING-BAG-TO-ME -0.2218
-3.8702 DELIVER-THE-SPOON-TO-ALICIA-ON-THE-SHELF -0.2218
-3.8702 DELIVER-THE-SPOON-TO-ANABELLE-ON-THE-SHELF -0.2218
-3.8702 DELIVER-THE-SPOON-TO-ARTHUR-ON-THE-SHELF -0.2218
-3.8702 DELIVER-THE-SPOON-TO-BARBARA-ON-THE-SHELF -0.2218
-3.8702 DELIVER-THE-SPOON-TO-CLAIRE-ON-THE-SHELF -0.2218
-3.8702 DELIVER-THE-SPOON-TO-EDWARD-ON-THE-SHELF -0.2218
-3.8702 DELIVER-THE-SPOON-TO-FREDDY-ON-THE-SHELF -0.2218
-3.8702 DELIVER-THE-SPOON-TO-FREYA-ON-THE-SHELF -0.2218
-3.8702 DELIVER-THE-SPOON-TO-HAYDEN-ON-THE-SHELF -0.2218
-3.8702 DELIVER-THE-SPOON-TO-JOHN-ON-THE-SHELF -0.2218
-3.8702 DELIVER-THE-SPOON-TO-LILY-ON-THE-SHELF -0.2218
-3.8702 DELIVER-THE-SPOON-TO-LUCY-ON-THE-SHELF -0.2218
-3.8702 DELIVER-THE-SPOON-TO-MARY-ON-THE-SHELF -0.2218
-3.8702 DELIVER-THE-SPOON-TO-ME -0.2218
-3.8702 DELIVER-THE-SPOON-TO-OSCAR-ON-THE-SHELF -0.2218
-3.8702 DELIVER-THE-SPOON-TO-PHILIP-ON-THE-SHELF -0.2218
-3.8702 DELIVER-THE-SPOON-TO-PRINCE-ON-THE-SHELF -0.2218
-3.8702 DELIVER-THE-SPOON-TO-ROBERT-ON-THE-SHELF -0.2218
-3.8702 DELIVER-THE-SPOON-TO-SAMANTHA-ON-THE-SHELF -0.2218
-3.8702 DELIVER-THE-SPOON-TO-STANLEY-ON-THE-SHELF -0.2218
-3.8702 DELIVER-THE-TRAY-TO-ALICIA-ON-THE-SHELF -0.2218
-3.8702 DELIVER-THE-TRAY-TO-ANABELLE-ON-THE-SHELF -0.2218
-3.8702 DELIVER-THE-TRAY-TO-ARTHUR-ON-THE-SHELF -0.2218
-3.8702 DELIVER-THE-TRAY-TO-BARBARA-ON-THE-SHELF -0.2218
-3.8702 DELIVER-THE-TRAY-TO-CLAIRE-ON-THE-SHELF -0.2218
-3.8702 DELIVER-THE-TRAY-TO-EDWARD-ON-THE-SHELF -0.2218
-3.8702 DELIVER-THE-TRAY-TO-FREDDY-ON-THE-SHELF -0.2218
-3.8702 DELIVER-THE-TRAY-TO-FREYA-ON-THE-SHELF -0.2218
-3.8702 DELIVER-THE-TRAY-TO-HAYDEN-ON-THE-SHELF -0.2218
-3.8702 DELIVER-THE-TRAY-TO-JOHN-ON-THE-SHELF -0.2218
-3.8702 DELIVER-THE-TRAY-TO-LILY-ON-THE-SHELF -0.2218
-3.8702 DELIVER-THE-TRAY-TO-LUCY-ON-THE-SHELF -0.2218
-3.8702 DELIVER-THE-TRAY-TO-MARY-ON-THE-SHELF -0.2218
-3.8702 DELIVER-THE-TRAY-TO-ME -0.2218
-3.8702 DELIVER-THE-TRAY-TO-OSCAR-ON-THE-SHELF -0.2218
-3.8702 DELIVER-THE-TRAY-TO-PHILIP-ON-THE-SHELF -0.2218
-3.8702 DELIVER-THE-TRAY-TO-PRINCE-ON-THE-SHELF -0.2218
-3.8702 DELIVER-THE-TRAY-TO-ROBERT-ON-THE-SHELF -0.2218
-3.8702 DELIVER-THE-TRAY-TO-SAMANTHA-ON-THE-SHELF -0.2218
-3.8702 DELIVER-THE-TRAY-TO-STANLEY-ON-THE-SHELF -0.2218
-3.8702 DELIVER-THECEREALTOALICIA-AT-THE-KITCHEN-TABLE -0.2218
-3.8702 DELIVER-THECEREALTOANABELLE-AT-THE-KITCHEN-TABLE -0.2218
-3.8702 DELIVER-THECEREALTOARTHUR-AT-THE-KITCHEN-TABLE -0.2218
-3.8702 DELIVER-THECEREALTOBARBARA-AT-THE-KITCHEN-TABLE -0.2218
-3.8702 DELIVER-THECEREALTOCLAIRE-AT-THE-KITCHEN-TABLE -0.2218
-3.8702 DELIVER-THECEREALTOEDWARD-AT-THE-KITCHEN-TABLE -0.2218
-3.8702 DELIVER-THECEREALTOFREDDY-AT-THE-KITCHEN-TABLE -0.2218
-3.8702 DELIVER-THECEREALTOFREYA-AT-THE-KITCHEN-TABLE -0.2218
-3.8702 DELIVER-THECEREALTOHAYDEN-AT-THE-KITCHEN-TABLE -0.2218
-3.8702 DELIVER-THECEREALTOJOHN-AT-THE-KITCHEN-TABLE -0.2218
-3.8702 DELIVER-THECEREALTOLILY-AT-THE-KITCHEN-TABLE -0.2218
-3.8702 DELIVER-THECEREALTOLUCY-AT-THE-KITCHEN-TABLE -0.2218
-3.8702 DELIVER-THECEREALTOMARY-AT-THE-KITCHEN-TABLE -0.2218
-3.8702 DELIVER-THECEREALTOOSCAR-AT-THE-KITCHEN-TABLE -0.2218
-3.8702 DELIVER-THECEREALTOPHILIP-AT-THE-KITCHEN-TABLE -0.2218
-3.8702 DELIVER-THECEREALTOPRINCE-AT-THE-KITCHEN-TABLE -0.2218
-3.8702 DELIVER-THECEREALTOROBERT-AT-THE-KITCHEN-TABLE -0.2218
-3.8702 DELIVER-THECEREALTOSAMANTHA-AT-THE-KITCHEN-TABLE -0.2218
-3.8702 DELIVER-THECEREALTOSTANLEY-AT-THE-KITCHEN-TABLE -0.2218
-3.8702 DELIVER-THEINSTANT-NOODLESTOALICIA-AT-THE-KITCHEN-TABLE -0.2218
-3.8702 DELIVER-THEINSTANT-NOODLESTOANABELLE-AT-THE-KITCHEN-TABLE -0.2218
-3.8702 DELIVER-THEINSTANT-NOODLESTOARTHUR-AT-THE-KITCHEN-TABLE -0.2218
-3.8702 DELIVER-THEINSTANT-NOODLESTOBARBARA-AT-THE-KITCHEN-TABLE -0.2218
-3.8702 DELIVER-THEINSTANT-NOODLESTOCLAIRE-AT-THE-KITCHEN-TABLE -0.2218
-3.8702 DELIVER-THEINSTANT-NOODLESTOEDWARD-AT-THE-KITCHEN-TABLE -0.2218
-3.8702 DELIVER-THEINSTANT-NOODLESTOFREDDY-AT-THE-KITCHEN-TABLE -0.2218
-3.8702 DELIVER-THEINSTANT-NOODLESTOFREYA-AT-THE-KITCHEN-TABLE -0.2218
-3.8702 DELIVER-THEINSTANT-NOODLESTOHAYDEN-AT-THE-KITCHEN-TABLE -0.2218
-3.8702 DELIVER-THEINSTANT-NOODLESTOJOHN-AT-THE-KITCHEN-TABLE -0.2218
-3.8702 DELIVER-THEINSTANT-NOODLESTOLILY-AT-THE-KITCHEN-TABLE -0.2218
-3.8702 DELIVER-THEINSTANT-NOODLESTOLUCY-AT-THE-KITCHEN-TABLE -0.2218
-3.8702 DELIVER-THEINSTANT-NOODLESTOMARY-AT-THE-KITCHEN-TABLE -0.2218
-3.8702 DELIVER-THEINSTANT-NOODLESTOOSCAR-AT-THE-KITCHEN-TABLE -0.2218
-3.8702 DELIVER-THEINSTANT-NOODLESTOPHILIP-AT-THE-KITCHEN-TABLE -0.2218
-3.8702 DELIVER-THEINSTANT-NOODLESTOPRINCE-AT-THE-KITCHEN-TABLE -0.2218
-3.8702 DELIVER-THEINSTANT-NOODLESTOROBERT-AT-THE-KITCHEN-TABLE -0.2218
-3.8702 DELIVER-THEINSTANT-NOODLESTOSAMANTHA-AT-THE-KITCHEN-TABLE -0.2218
-3.8702 DELIVER-THEINSTANT-NOODLESTOSTANLEY-AT-THE-KITCHEN-TABLE -0.2218
-3.8702 DELIVER-THEMIXED-NUTSTOALICIA-AT-THE-KITCHEN-TABLE -0.2218
-3.8702 DELIVER-THEMIXED-NUTSTOANABELLE-AT-THE-KITCHEN-TABLE -0.2218
-3.8702 DELIVER-THEMIXED-NUTSTOARTHUR-AT-THE-KITCHEN-TABLE -0.2218
-3.8702 DELIVER-THEMIXED-NUTSTOBARBARA-AT-THE-KITCHEN-TABLE -0.2218
-3.8702 DELIVER-THEMIXED-NUTSTOCLAIRE-AT-THE-KITCHEN-TABLE -0.2218
-3.8702 DELIVER-THEMIXED-NUTSTOEDWARD-AT-THE-KITCHEN-TABLE -0.2218
-3.8702 DELIVER-THEMIXED-NUTSTOFREDDY-AT-THE-KITCHEN-TABLE -0.2218
-3.8702 DELIVER-THEMIXED-NUTSTOFREYA-AT-THE-KITCHEN-TABLE -0.2218
-3.8702 DELIVER-THEMIXED-NUTSTOHAYDEN-AT-THE-KITCHEN-TABLE -0.2218
-3.8702 DELIVER-THEMIXED-NUTSTOJOHN-AT-THE-KITCHEN-TABLE -0.2218
-3.8702 DELIVER-THEMIXED-NUTSTOLILY-AT-THE-KITCHEN-TABLE -0.2218
-3.8702 DELIVER-THEMIXED-NUTSTOLUCY-AT-THE-KITCHEN-TABLE -0.2218
-3.8702 DELIVER-THEMIXED-NUTSTOMARY-AT-THE-KITCHEN-TABLE -0.2218
-3.8702 DELIVER-THEMIXED-NUTSTOOSCAR-AT-THE-KITCHEN-TABLE -0.2218
-3.8702 DELIVER-THEMIXED-NUTSTOPHILIP-AT-THE-KITCHEN-TABLE -0.2218
-3.8702 DELIVER-THEMIXED-NUTSTOPRINCE-AT-THE-KITCHEN-TABLE -0.2218
-3.8702 DELIVER-THEMIXED-NUTSTOROBERT-AT-THE-KITCHEN-TABLE -0.2218
-3.8702 DELIVER-THEMIXED-NUTSTOSAMANTHA-AT-THE-KITCHEN-TABLE -0.2218
-3.8702 DELIVER-THEMIXED-NUTSTOSTANLEY-AT-THE-KITCHEN-TABLE -0.2218
-3.8702 DINING-ROOM -0.2218
-3.8702 ENTRANCE-ME-THE-MIXED-NUTS-FROM-THE-KITCHEN-TABLE -0.2218
-3.8702 EXIT -0.2218
-3.8702 FIND-ALICIA-AT-THE-BAR-TABLE -0.2218
-3.8702 FIND-ALICIA-AT-THE-KITCHEN-TABLE -0.2218
-3.8702 FIND-ALICIA-AT-THE-SHELF -0.2218
-3.8702 FIND-ANABELLE-AT-THE-BAR-TABLE -0.2218
-3.8702 FIND-ANABELLE-AT-THE-KITCHEN-TABLE -0.2218
-3.8702 FIND-ANABELLE-AT-THE-SHELF -0.2218
-3.8702 FIND-APPLE-JUICE-IN-THE-BAR-TABLE -0.2218
-3.8702 FIND-ARTHUR-AT-THE-BAR-TABLE -0.2218
-3.8702 FIND-ARTHUR-AT-THE-KITCHEN-TABLE -0.2218
-3.8702 FIND-ARTHUR-AT-THE-SHELF -0.2218
-3.8702 FIND-BARBARA-AT-THE-BAR-TABLE -0.2218
-3.8702 FIND-BARBARA-AT-THE-KITCHEN-TABLE -0.2218
-3.8702 FIND-BARBARA-AT-THE-SHELF -0.2218
-3.8702 FIND-CEREAL-BOWL-AT-THE-SHELF -0.2218
-3.8702 FIND-CEREAL-IN-THE-KITCHEN -0.2218
-3.8702 FIND-CEREAL-IN-THE-KITCHEN-TABLE -0.2218
-3.8702 FIND-CLAIRE-AT-THE-BAR-TABLE -0.2218
-3.8702 FIND-CLAIRE-AT-THE-KITCHEN-TABLE -0.2218
-3.8702 FIND-CLAIRE-AT-THE-SHELF -0.2218
-3.8702 FIND-CUP-AT-THE-SHELF -0.2218
-3.8702 FIND-EDWARD-AT-THE-BAR-TABLE -0.2218
-3.8702 FIND-EDWARD-AT-THE-KITCHEN-TABLE -0.2218
-3.8702 FIND-EDWARD-AT-THE-SHELF -0.2218
-3.8702 FIND-FORK-ON-THE-SHELF -0.2218
-3.8702 FIND-FREDDY-AT-THE-BAR-TABLE -0.2218
-3.8702 FIND-FREDDY-AT-THE-KITCHEN-TABLE -0.2218
-3.8702 FIND-FREDDY-AT-THE-SHELF -0.2218
-3.8702 FIND-FREYA-AT-THE-BAR-TABLE -0.2218
-3.8702 FIND-FREYA-AT-THE-KITCHEN-TABLE -0.2218
-3.8702 FIND-FREYA-AT-THE-SHELF -0.2218
-3.8702 FIND-GREEN-TEA-IN-THE-BAR-TABLE -0.2218
-3.8702 FIND-HAYDEN-AT-THE-BAR-TABLE -0.2218
-3.8702 FIND-HAYDEN-AT-THE-KITCHEN-TABLE -0.2218
-3.8702 FIND-HAYDEN-AT-THE-SHELF -0.2218
-3.8702 FIND-INSTANT-NOODLES-IN-THE-KITCHEN -0.2218
-3.8702 FIND-INSTANT-NOODLES-IN-THE-KITCHEN-TABLE -0.2218
-3.8702 FIND-JELLY-ON-THE-COFFEE-TABLE -0.2218
-3.8702 FIND-JOHN-AT-THE-BAR-TABLE -0.2218
-3.8702 FIND-JOHN-AT-THE-KITCHEN-TABLE -0.2218
-3.8702 FIND-JOHN-AT-THE-SHELF -0.2218
-3.8702 FIND-LILY-AT-THE-BAR-TABLE -0.2218
-3.8702 FIND-LILY-AT-THE-KITCHEN-TABLE -0.2218
-3.8702 FIND-LILY-AT-THE-SHELF -0.2218
-3.8702 FIND-LUCY-AT-THE-BAR-TABLE -0.2218
-3.8702 FIND-LUCY-AT-THE-KITCHEN-TABLE -0.2218
-3.8702 FIND-LUCY-AT-THE-SHELF -0.2218
-3.8702 FIND-MARY-AT-THE-BAR-TABLE -0.2218
-3.8702 FIND-MARY-AT-THE-KITCHEN-TABLE -0.2218
-3.8702 FIND-MARY-AT-THE-SHELF -0.2218
-3.8702 FIND-MILK-TEA-IN-THE-BAR-TABLE -0.2218
-3.8702 FIND-MIXED-NUTS-IN-THE-KITCHEN -0.2218
-3.8702 FIND-MIXED-NUTS-IN-THE-KITCHEN-TABLE -0.2218
-3.8702 FIND-ORANGE-JUICE-IN-THE-BAR-TABLE -0.2218
-3.8702 FIND-OSCAR-AT-THE-BAR-TABLE -0.2218
-3.8702 FIND-OSCAR-AT-THE-KITCHEN-TABLE -0.2218
-3.8702 FIND-OSCAR-AT-THE-SHELF -0.2218
-3.8702 FIND-PHILIP-AT-THE-BAR-TABLE -0.2218
-3.8702 FIND-PHILIP-AT-THE-KITCHEN-TABLE -0.2218
-3.8702 FIND-PHILIP-AT-THE-SHELF -0.2218
-3.8702 FIND-POTATO-CHIP-ON-THE-COFFEE-TABLE -0.2218
-3.8702 FIND-PRIGNLES-ON-THE-COFFEE-TABLE -0.2218
-3.8702 FIND-PRINCE-AT-THE-BAR-TABLE -0.2218
-3.8702 FIND-PRINCE-AT-THE-KITCHEN-TABLE -0.2218
-3.8702 FIND-PRINCE-AT-THE-SHELF -0.2218
-3.8702 FIND-ROBERT-AT-THE-BAR-TABLE -0.2218
-3.8702 FIND-ROBERT-AT-THE-KITCHEN-TABLE -0.2218
-3.8702 FIND-ROBERT-AT-THE-SHELF -0.2218
-3.8702 FIND-SAMANTHA-AT-THE-BAR-TABLE -0.2218
-3.8702 FIND-SAMANTHA-AT-THE-KITCHEN-TABLE -0.2218
-3.8702 FIND-SAMANTHA-AT-THE-SHELF -0.2218
-3.8702 FIND-SHOPPING-BAG-AT-THE-SHELF -0.2218
-3.8702 FIND-SPOON-ON-THE-SHELF -0.2218
-3.8702 FIND-STANLEY-AT-THE-BAR-TABLE -0.2218
-3.8702 FIND-STANLEY-AT-THE-KITCHEN-TABLE -0.2218
-3.8702 FIND-STANLEY-AT-THE-SHELF -0.2218
-3.8702 FIND-TRAY-AT-THE-SHELF -0.2218
-3.8702 GET-THE-APPLE-JUICE-FROM--THE-BAR-TABLE-AND-BRING-IT-TO-ME -0.2218
-3.8702 GET-THE-CEREAL-BOWL-FROM-THE-SHELF-AND-BRING-IT-TO-ME -0.2218
-3.8702 GET-THE-CEREAL-FROM-THE-KITCHEN-AND-BRING-IT-TO-ME -0.2218
-3.8702 GET-THE-CEREAL-FROM-THE-KITCHEN-TABLE-AND-BRING-IT-TO-ME -0.2218
-3.8702 GET-THE-CUP-FROM-THE-SHELF-AND-BRING-IT-TO-ME -0.2218
-3.8702 GET-THE-FORK-FROM-THE-SHELF-AND-BRING-IT-TO-ME -0.2218
-3.8702 GET-THE-GREEN-TEA-FROM--THE-BAR-TABLE-AND-BRING-IT-TO-ME -0.2218
-3.8702 GET-THE-INSTANT-NOODLES-FROM-THE-KITCHEN-AND-BRING-IT-TO-ME -0.2218
-3.8702 GET-THE-INSTANT-NOODLES-FROM-THE-KITCHEN-TABLE-AND-BRING-IT-TO-ME -0.2218
-3.8702 GET-THE-JELLY-FROM-THE-COFFEE-TABLE-AND-BRING-IT-TO-ME -0.2218
-3.8702 GET-THE-MILK-TEA-FROM--THE-BAR-TABLE-AND-BRING-IT-TO-ME -0.2218
-3.8702 GET-THE-MIXED-NUTS-FROM-THE-KITCHEN-AND-BRING-IT-TO-ME -0.2218
-3.8702 GET-THE-MIXED-NUTS-FROM-THE-KITCHEN-TABLE-AND-BRING-IT-TO-ME -0.2218
-3.8702 GET-THE-ORANGE-JUICE-FROM--THE-BAR-TABLE-AND-BRING-IT-TO-ME -0.2218
-3.8702 GET-THE-POTATO-CHIP-FROM-THE-COFFEE-TABLE-AND-BRING-IT-TO-ME -0.2218
-3.8702 GET-THE-PRIGNLES-FROM-THE-COFFEE-TABLE-AND-BRING-IT-TO-ME -0.2218
-3.8702 GET-THE-SHOPPING-BAG-FROM-THE-SHELF-AND-BRING-IT-TO-ME -0.2218
-3.8702 GET-THE-SPOON-FROM-THE-SHELF-AND-BRING-IT-TO-ME -0.2218
-3.8702 GET-THE-TRAY-FROM-THE-SHELF-AND-BRING-IT-TO-ME -0.2218
-3.8702 GIVE-ME-THE-APPLE-JUICE -0.2218
-3.8702 GIVE-ME-THE-APPLE-JUICE-FROM-THE-BAR-TABLE -0.2218
-3.8702 GIVE-ME-THE-CEREAL -0.2218
-3.8702 GIVE-ME-THE-CEREAL-BOWL -0.2218
-3.8702 GIVE-ME-THE-CEREAL-BOWL-FROM-THE-SHELF -0.2218
-3.8702 GIVE-ME-THE-CEREAL-FROM-THE-KITCHEN -0.2218
-3.8702 GIVE-ME-THE-CEREAL-FROM-THE-KITCHEN-TABLE -0.2218
-3.8702 GIVE-ME-THE-CUP -0.2218
-3.8702 GIVE-ME-THE-CUP-FROM-THE-SHELF -0.2218
-3.8702 GIVE-ME-THE-FORK -0.2218
-3.8702 GIVE-ME-THE-FORK-FROM-THE-SHELF -0.2218
-3.8702 GIVE-ME-THE-GREEN-TEA -0.2218
-3.8702 GIVE-ME-THE-GREEN-TEA-FROM-THE-BAR-TABLE -0.2218
-3.8702 GIVE-ME-THE-INSTANT-NOODLES -0.2218
-3.8702 GIVE-ME-THE-INSTANT-NOODLES-FROM-THE-KITCHEN -0.2218
-3.8702 GIVE-ME-THE-INSTANT-NOODLES-FROM-THE-KITCHEN-TABLE -0.2218
-3.8702 GIVE-ME-THE-JELLY -0.2218
-3.8702 GIVE-ME-THE-JELLY-FROM-THE-COFFEE-TABLE -0.2218
-3.8702 GIVE-ME-THE-MILK-TEA -0.2218
-3.8702 GIVE-ME-THE-MILK-TEA-FROM-THE-BAR-TABLE -0.2218
-3.8702 GIVE-ME-THE-MIXED-NUTS -0.2218
-3.8702 GIVE-ME-THE-MIXED-NUTS-FROM-THE-KITCHEN -0.2218
-3.8702 GIVE-ME-THE-MIXED-NUTS-FROM-THE-KITCHEN-TABLE -0.2218
-3.8702 GIVE-ME-THE-ORANGE-JUICE -0.2218
-3.8702 GIVE-ME-THE-ORANGE-JUICE-FROM-THE-BAR-TABLE -0.2218
-3.8702 GIVE-ME-THE-POTATO-CHIP -0.2218
-3.8702 GIVE-ME-THE-POTATO-CHIP-FROM-THE-COFFEE-TABLE -0.2218
-3.8702 GIVE-ME-THE-PRIGNLES -0.2218
-3.8702 GIVE-ME-THE-PRIGNLES-FROM-THE-COFFEE-TABLE -0.2218
-3.8702 GIVE-ME-THE-SHOPPING-BAG -0.2218
-3.8702 GIVE-ME-THE-SHOPPING-BAG-FROM-THE-SHELF -0.2218
-3.8702 GIVE-ME-THE-SPOON -0.2218
-3.8702 GIVE-ME-THE-SPOON-FROM-THE-SHELF -0.2218
-3.8702 GIVE-ME-THE-TRAY -0.2218
-3.8702 GIVE-ME-THE-TRAY-FROM-THE-SHELF -0.2218
-3.8702 GO-TO-THE-BAR-TABLE-FIND-SOMEONE-AND-ANSWER-A-QUESTION -0.2218
-3.8702 GO-TO-THE-BAR-TABLE-LOCATE-SOMEONE-AND-ANSWER-A-QUESTION -0.2218
-3.8702 GO-TO-THE-KITCHEN-TABLE-FIND-SOMEONE-AND-ANSWER-A-QUESTION -0.2218
-3.8702 GO-TO-THE-KITCHEN-TABLE-LOCATE-SOMEONE-AND-ANSWER-A-QUESTION -0.2218
-3.8702 GO-TO-THE-SHELF-FIND-SOMEONE-AND-ANSWER-A-QUESTION -0.2218
-3.8702 GO-TO-THE-SHELF-LOCATE-SOMEONE-AND-ANSWER-A-QUESTION -0.2218
-3.8702 HOW-MANY-STATIONS-ARE-THERE-IN-BTS-SKYTRAINS -0.2218
-3.8702 HOW-MANY-TEAM-IN-AT-HOME-LEAGUE -0.2218
-3.8702 HOW-MANY-TIME-ROBOCUP-HELD-IN-THAILAND -0.2218
-3.8702 HOW-MUCH-DOES-IPHONE-X-COST-IN-USA -0.2218
-3.8702 KITCHEN -0.2218
-3.8702 LIVING-ROOM -0.2218
-3.8702 LOCATE-CEREAL-BOWL-AT-THE-SHELF -0.2218
-3.8702 LOCATE-CONTAINER-ON-THE-BAR-TABLE -0.2218
-3.8702 LOCATE-CONTAINER-ON-THE-KITCHEN-TABLE -0.2218
-3.8702 LOCATE-CONTAINER-ON-THE-SHELF -0.2218
-3.8702 LOCATE-CUP-AT-THE-SHELF -0.2218
-3.8702 LOCATE-CUTLERY-ON-THE-BAR-TABLE -0.2218
-3.8702 LOCATE-CUTLERY-ON-THE-KITCHEN-TABLE -0.2218
-3.8702 LOCATE-CUTLERY-ON-THE-SHELF -0.2218
-3.8702 LOCATE-DRINK-ON-THE-BAR-TABLE -0.2218
-3.8702 LOCATE-DRINK-ON-THE-KITCHEN-TABLE -0.2218
-3.8702 LOCATE-DRINK-ON-THE-SHELF -0.2218
-3.8702 LOCATE-FOOD-ON-THE-BAR-TABLE -0.2218
-3.8702 LOCATE-FOOD-ON-THE-KITCHEN-TABLE -0.2218
-3.8702 LOCATE-FOOD-ON-THE-SHELF -0.2218
-3.8702 LOCATE-SHOPPING-BAG-AT-THE-SHELF -0.2218
-3.8702 LOCATE-SOMEONE-AT-THE-BAR-TABLE-AND-ANSWER-A-QUESTION -0.2218
-3.8702 LOCATE-SOMEONE-AT-THE-KITCHEN-TABLE-AND-ANSWER-A-QUESTION -0.2218
-3.8702 LOCATE-SOMEONE-AT-THE-SHELF-AND-ANSWER-A-QUESTION -0.2218
-3.8702 LOCATE-TRAY-AT-THE-SHELF -0.2218
-3.8702 LOCATEAPPLE-JUICE-AT-THE-BAR-TABLE -0.2218
-3.8702 LOCATECEREAL-AT-THE-KITECHEN -0.2218
-3.8702 LOCATECEREAL-AT-THE-KITECHEN-TABLE -0.2218
-3.8702 LOCATEFORK-AT-THE-SHELF -0.2218
-3.8702 LOCATEGREEN-TEA-AT-THE-BAR-TABLE -0.2218
-3.8702 LOCATEINSTANT-NOODLES-AT-THE-KITECHEN -0.2218
-3.8702 LOCATEINSTANT-NOODLES-AT-THE-KITECHEN-TABLE -0.2218
-3.8702 LOCATEJELLY-AT-THE-COFFEE-TABLE -0.2218
-3.8702 LOCATEMILK-TEA-AT-THE-BAR-TABLE -0.2218
-3.8702 LOCATEMIXED-NUTS-AT-THE-KITECHEN -0.2218
-3.8702 LOCATEMIXED-NUTS-AT-THE-KITECHEN-TABLE -0.2218
-3.8702 LOCATEORANGE-JUICE-AT-THE-BAR-TABLE -0.2218
-3.8702 LOCATEPOTATO-CHIP-AT-THE-COFFEE-TABLE -0.2218
-3.8702 LOCATEPRIGNLES-AT-THE-COFFEE-TABLE -0.2218
-3.8702 LOCATESPOON-AT-THE-SHELF -0.2218
-3.8702 LOOK-FOR-APPLE-JUICE-AT-THE-BAR-TABLE -0.2218
-3.8702 LOOK-FOR-CEREAL-AT-THE-KITCHEN-TABLE -0.2218
-3.8702 LOOK-FOR-CEREAL-BOWL-AT-THE-SHELF -0.2218
-3.8702 LOOK-FOR-CUP-AT-THE-SHELF -0.2218
-3.8702 LOOK-FOR-FORK-AT-THE-SHELF -0.2218
-3.8702 LOOK-FOR-GREEN-TEA-AT-THE-BAR-TABLE -0.2218
-3.8702 LOOK-FOR-INSTANT-NOODLES-AT-THE-KITCHEN-TABLE -0.2218
-3.8702 LOOK-FOR-JELLY-AT-THE-COFFEE-TABLE -0.2218
-3.8702 LOOK-FOR-MILK-TEA-AT-THE-BAR-TABLE -0.2218
-3.8702 LOOK-FOR-MIXED-NUTS-AT-THE-KITCHEN-TABLE -0.2218
-3.8702 LOOK-FOR-ORANGE-JUICE-AT-THE-BAR-TABLE -0.2218
-3.8702 LOOK-FOR-POTATO-CHIP-AT-THE-COFFEE-TABLE -0.2218
-3.8702 LOOK-FOR-PRIGNLES-AT-THE-COFFEE-TABLE -0.2218
-3.8702 LOOK-FOR-SHOPPING-BAG-AT-THE-SHELF -0.2218
-3.8702 LOOK-FOR-SPOON-AT-THE-SHELF -0.2218
-3.8702 LOOK-FOR-TRAY-AT-THE-SHELF -0.2218
-3.8702 NAME-ONE-OF-THE-FAMOUS-THAI-FOOD -0.2218
-3.8702 NAVIGATE-TO-BAR-TABLE-LOCATE-ALICIA-AND-ANSWER-A-QUESTION -0.2218
-3.8702 NAVIGATE-TO-BAR-TABLE-LOCATE-ANABELLE-AND-ANSWER-A-QUESTION -0.2218
-3.8702 NAVIGATE-TO-BAR-TABLE-LOCATE-ARTHUR-AND-ANSWER-A-QUESTION -0.2218
-3.8702 NAVIGATE-TO-BAR-TABLE-LOCATE-BARBARA-AND-ANSWER-A-QUESTION -0.2218
-3.8702 NAVIGATE-TO-BAR-TABLE-LOCATE-CLAIRE-AND-ANSWER-A-QUESTION -0.2218
-3.8702 NAVIGATE-TO-BAR-TABLE-LOCATE-EDWARD-AND-ANSWER-A-QUESTION -0.2218
-3.8702 NAVIGATE-TO-BAR-TABLE-LOCATE-FREDDY-AND-ANSWER-A-QUESTION -0.2218
-3.8702 NAVIGATE-TO-BAR-TABLE-LOCATE-FREYA-AND-ANSWER-A-QUESTION -0.2218
-3.8702 NAVIGATE-TO-BAR-TABLE-LOCATE-HAYDEN-AND-ANSWER-A-QUESTION -0.2218
-3.8702 NAVIGATE-TO-BAR-TABLE-LOCATE-JOHN-AND-ANSWER-A-QUESTION -0.2218
-3.8702 NAVIGATE-TO-BAR-TABLE-LOCATE-LILY-AND-ANSWER-A-QUESTION -0.2218
-3.8702 NAVIGATE-TO-BAR-TABLE-LOCATE-LUCY-AND-ANSWER-A-QUESTION -0.2218
-3.8702 NAVIGATE-TO-BAR-TABLE-LOCATE-MARY-AND-ANSWER-A-QUESTION -0.2218
-3.8702 NAVIGATE-TO-BAR-TABLE-LOCATE-OSCAR-AND-ANSWER-A-QUESTION -0.2218
-3.8702 NAVIGATE-TO-BAR-TABLE-LOCATE-PHILIP-AND-ANSWER-A-QUESTION -0.2218
-3.8702 NAVIGATE-TO-BAR-TABLE-LOCATE-PRINCE-AND-ANSWER-A-QUESTION -0.2218
-3.8702 NAVIGATE-TO-BAR-TABLE-LOCATE-ROBERT-AND-ANSWER-A-QUESTION -0.2218
-3.8702 NAVIGATE-TO-BAR-TABLE-LOCATE-SAMANTHA-AND-ANSWER-A-QUESTION -0.2218
-3.8702 NAVIGATE-TO-BAR-TABLE-LOCATE-STANLEY-AND-ANSWER-A-QUESTION -0.2218
-3.8702 NAVIGATE-TO-KITCHEN-TABLE-LOCATE-ALICIA-AND-ANSWER-A-QUESTION -0.2218
-3.8702 NAVIGATE-TO-KITCHEN-TABLE-LOCATE-ANABELLE-AND-ANSWER-A-QUESTION -0.2218
-3.8702 NAVIGATE-TO-KITCHEN-TABLE-LOCATE-ARTHUR-AND-ANSWER-A-QUESTION -0.2218
-3.8702 NAVIGATE-TO-KITCHEN-TABLE-LOCATE-BARBARA-AND-ANSWER-A-QUESTION -0.2218
-3.8702 NAVIGATE-TO-KITCHEN-TABLE-LOCATE-CLAIRE-AND-ANSWER-A-QUESTION -0.2218
-3.8702 NAVIGATE-TO-KITCHEN-TABLE-LOCATE-EDWARD-AND-ANSWER-A-QUESTION -0.2218
-3.8702 NAVIGATE-TO-KITCHEN-TABLE-LOCATE-FREDDY-AND-ANSWER-A-QUESTION -0.2218
-3.8702 NAVIGATE-TO-KITCHEN-TABLE-LOCATE-FREYA-AND-ANSWER-A-QUESTION -0.2218
-3.8702 NAVIGATE-TO-KITCHEN-TABLE-LOCATE-HAYDEN-AND-ANSWER-A-QUESTION -0.2218
-3.8702 NAVIGATE-TO-KITCHEN-TABLE-LOCATE-JOHN-AND-ANSWER-A-QUESTION -0.2218
-3.8702 NAVIGATE-TO-KITCHEN-TABLE-LOCATE-LILY-AND-ANSWER-A-QUESTION -0.2218
-3.8702 NAVIGATE-TO-KITCHEN-TABLE-LOCATE-LUCY-AND-ANSWER-A-QUESTION -0.2218
-3.8702 NAVIGATE-TO-KITCHEN-TABLE-LOCATE-MARY-AND-ANSWER-A-QUESTION -0.2218
-3.8702 NAVIGATE-TO-KITCHEN-TABLE-LOCATE-OSCAR-AND-ANSWER-A-QUESTION -0.2218
-3.8702 NAVIGATE-TO-KITCHEN-TABLE-LOCATE-PHILIP-AND-ANSWER-A-QUESTION -0.2218
-3.8702 NAVIGATE-TO-KITCHEN-TABLE-LOCATE-PRINCE-AND-ANSWER-A-QUESTION -0.2218
-3.8702 NAVIGATE-TO-KITCHEN-TABLE-LOCATE-ROBERT-AND-ANSWER-A-QUESTION -0.2218
-3.8702 NAVIGATE-TO-KITCHEN-TABLE-LOCATE-SAMANTHA-AND-ANSWER-A-QUESTION -0.2218
-3.8702 NAVIGATE-TO-KITCHEN-TABLE-LOCATE-STANLEY-AND-ANSWER-A-QUESTION -0.2218
-3.8702 NAVIGATE-TO-SHELF-LOCATE-ALICIA-AND-ANSWER-A-QUESTION -0.2218
-3.8702 NAVIGATE-TO-SHELF-LOCATE-ANABELLE-AND-ANSWER-A-QUESTION -0.2218
-3.8702 NAVIGATE-TO-SHELF-LOCATE-ARTHUR-AND-ANSWER-A-QUESTION -0.2218
-3.8702 NAVIGATE-TO-SHELF-LOCATE-BARBARA-AND-ANSWER-A-QUESTION -0.2218
-3.8702 NAVIGATE-TO-SHELF-LOCATE-CLAIRE-AND-ANSWER-A-QUESTION -0.2218
-3.8702 NAVIGATE-TO-SHELF-LOCATE-EDWARD-AND-ANSWER-A-QUESTION -0.2218
-3.8702 NAVIGATE-TO-SHELF-LOCATE-FREDDY-AND-ANSWER-A-QUESTION -0.2218
-3.8702 NAVIGATE-TO-SHELF-LOCATE-FREYA-AND-ANSWER-A-QUESTION -0.2218
-3.8702 NAVIGATE-TO-SHELF-LOCATE-HAYDEN-AND-ANSWER-A-QUESTION -0.2218
-3.8702 NAVIGATE-TO-SHELF-LOCATE-JOHN-AND-ANSWER-A-QUESTION -0.2218
-3.8702 NAVIGATE-TO-SHELF-LOCATE-LILY-AND-ANSWER-A-QUESTION -0.2218
-3.8702 NAVIGATE-TO-SHELF-LOCATE-LUCY-AND-ANSWER-A-QUESTION -0.2218
-3.8702 NAVIGATE-TO-SHELF-LOCATE-MARY-AND-ANSWER-A-QUESTION -0.2218
-3.8702 NAVIGATE-TO-SHELF-LOCATE-OSCAR-AND-ANSWER-A-QUESTION -0.2218
-3.8702 NAVIGATE-TO-SHELF-LOCATE-PHILIP-AND-ANSWER-A-QUESTION -0.2218
-3.8702 NAVIGATE-TO-SHELF-LOCATE-PRINCE-AND-ANSWER-A-QUESTION -0.2218
-3.8702 NAVIGATE-TO-SHELF-LOCATE-ROBERT-AND-ANSWER-A-QUESTION -0.2218
-3.8702 NAVIGATE-TO-SHELF-LOCATE-SAMANTHA-AND-ANSWER-A-QUESTION -0.2218
-3.8702 NAVIGATE-TO-SHELF-LOCATE-STANLEY-AND-ANSWER-A-QUESTION -0.2218
-3.8702 NAVIGATE-TO-THE-BAR-TABLE-FIND-THE-APPLE-JUICE-AND-GIVE-IT-TO-ME -0.2218
-3.8702 NAVIGATE-TO-THE-BAR-TABLE-FIND-THE-GREEN-TEA-AND-GIVE-IT-TO-ME -0.2218
-3.8702 NAVIGATE-TO-THE-BAR-TABLE-FIND-THE-MILK-TEA-AND-GIVE-IT-TO-ME -0.2218
-3.8702 NAVIGATE-TO-THE-BAR-TABLE-FIND-THE-ORANGE-JUICE-AND-GIVE-IT-TO-ME -0.2218
-3.8702 NAVIGATE-TO-THE-BAR-TABLE-LOOK-FOR-SOMEONE-AND-ANSWER-A-QUESTION -0.2218
-3.8702 NAVIGATE-TO-THE-COFFEE-TABLE-FIND-THE-JELLY-AND-GIVE-IT-TO-ME -0.2218
-3.8702 NAVIGATE-TO-THE-COFFEE-TABLE-FIND-THE-POTATO-CHIP-AND-GIVE-IT-TO-ME -0.2218
-3.8702 NAVIGATE-TO-THE-COFFEE-TABLE-FIND-THE-PRIGNLES-AND-GIVE-IT-TO-ME -0.2218
-3.8702 NAVIGATE-TO-THE-KITCHEN-TABLE-FIND-THE-CEREAL-AND-GIVE-IT-TO-ME -0.2218
-3.8702 NAVIGATE-TO-THE-KITCHEN-TABLE-FIND-THE-INSTANT-NOODLES-AND-GIVE-IT-TO-ME -0.2218
-3.8702 NAVIGATE-TO-THE-KITCHEN-TABLE-FIND-THE-MIXED-NUTS-AND-GIVE-IT-TO-ME -0.2218
-3.8702 NAVIGATE-TO-THE-KITCHEN-TABLE-LOOK-FOR-SOMEONE-AND-ANSWER-A-QUESTION -0.2218
-3.8702 NAVIGATE-TO-THE-SHELF-FIND-THE-CEREAL-BOWL-AND-GIVE-IT-TO-ME -0.2218
-3.8702 NAVIGATE-TO-THE-SHELF-FIND-THE-CUP-AND-GIVE-IT-TO-ME -0.2218
-3.8702 NAVIGATE-TO-THE-SHELF-FIND-THE-FORK-AND-GIVE-IT-TO-ME -0.2218
-3.8702 NAVIGATE-TO-THE-SHELF-FIND-THE-SHOPPING-BAG-AND-GIVE-IT-TO-ME -0.2218
-3.8702 NAVIGATE-TO-THE-SHELF-FIND-THE-SPOON-AND-GIVE-IT-TO-ME -0.2218
-3.8702 NAVIGATE-TO-THE-SHELF-FIND-THE-TRAY-AND-GIVE-IT-TO-ME -0.2218
-3.8702 NAVIGATE-TO-THE-SHELF-LOOK-FOR-SOMEONE-AND-ANSWER-A-QUESTION -0.2218
-3.8702 NO -0.2218
-3.8702 TELL-A-JOKE-TO-ALICIA-AT-THE-BAR-TABLE -0.2218
-3.8702 TELL-A-JOKE-TO-ALICIA-AT-THE-KITCHEN-TABLE -0.2218
-3.8702 TELL-A-JOKE-TO-ALICIA-AT-THE-SHELF -0.2218
-3.8702 TELL-A-JOKE-TO-ANABELLE-AT-THE-BAR-TABLE -0.2218
-3.8702 TELL-A-JOKE-TO-ANABELLE-AT-THE-KITCHEN-TABLE -0.2218
-3.8702 TELL-A-JOKE-TO-ANABELLE-AT-THE-SHELF -0.2218
-3.8702 TELL-A-JOKE-TO-ARTHUR-AT-THE-BAR-TABLE -0.2218
-3.8702 TELL-A-JOKE-TO-ARTHUR-AT-THE-KITCHEN-TABLE -0.2218
-3.8702 TELL-A-JOKE-TO-ARTHUR-AT-THE-SHELF -0.2218
-3.8702 TELL-A-JOKE-TO-BARBARA-AT-THE-BAR-TABLE -0.2218
-3.8702 TELL-A-JOKE-TO-BARBARA-AT-THE-KITCHEN-TABLE -0.2218
-3.8702 TELL-A-JOKE-TO-BARBARA-AT-THE-SHELF -0.2218
-3.8702 TELL-A-JOKE-TO-CLAIRE-AT-THE-BAR-TABLE -0.2218
-3.8702 TELL-A-JOKE-TO-CLAIRE-AT-THE-KITCHEN-TABLE -0.2218
-3.8702 TELL-A-JOKE-TO-CLAIRE-AT-THE-SHELF -0.2218
-3.8702 TELL-A-JOKE-TO-EDWARD-AT-THE-BAR-TABLE -0.2218
-3.8702 TELL-A-JOKE-TO-EDWARD-AT-THE-KITCHEN-TABLE -0.2218
-3.8702 TELL-A-JOKE-TO-EDWARD-AT-THE-SHELF -0.2218
-3.8702 TELL-A-JOKE-TO-FREDDY-AT-THE-BAR-TABLE -0.2218
-3.8702 TELL-A-JOKE-TO-FREDDY-AT-THE-KITCHEN-TABLE -0.2218
-3.8702 TELL-A-JOKE-TO-FREDDY-AT-THE-SHELF -0.2218
-3.8702 TELL-A-JOKE-TO-FREYA-AT-THE-BAR-TABLE -0.2218
-3.8702 TELL-A-JOKE-TO-FREYA-AT-THE-KITCHEN-TABLE -0.2218
-3.8702 TELL-A-JOKE-TO-FREYA-AT-THE-SHELF -0.2218
-3.8702 TELL-A-JOKE-TO-HAYDEN-AT-THE-BAR-TABLE -0.2218
-3.8702 TELL-A-JOKE-TO-HAYDEN-AT-THE-KITCHEN-TABLE -0.2218
-3.8702 TELL-A-JOKE-TO-HAYDEN-AT-THE-SHELF -0.2218
-3.8702 TELL-A-JOKE-TO-JOHN-AT-THE-BAR-TABLE -0.2218
-3.8702 TELL-A-JOKE-TO-JOHN-AT-THE-KITCHEN-TABLE -0.2218
-3.8702 TELL-A-JOKE-TO-JOHN-AT-THE-SHELF -0.2218
-3.8702 TELL-A-JOKE-TO-LILY-AT-THE-BAR-TABLE -0.2218
-3.8702 TELL-A-JOKE-TO-LILY-AT-THE-KITCHEN-TABLE -0.2218
-3.8702 TELL-A-JOKE-TO-LILY-AT-THE-SHELF -0.2218
-3.8702 TELL-A-JOKE-TO-LUCY-AT-THE-BAR-TABLE -0.2218
-3.8702 TELL-A-JOKE-TO-LUCY-AT-THE-KITCHEN-TABLE -0.2218
-3.8702 TELL-A-JOKE-TO-LUCY-AT-THE-SHELF -0.2218
-3.8702 TELL-A-JOKE-TO-MARY-AT-THE-BAR-TABLE -0.2218
-3.8702 TELL-A-JOKE-TO-MARY-AT-THE-KITCHEN-TABLE -0.2218
-3.8702 TELL-A-JOKE-TO-MARY-AT-THE-SHELF -0.2218
-3.8702 TELL-A-JOKE-TO-OSCAR-AT-THE-BAR-TABLE -0.2218
-3.8702 TELL-A-JOKE-TO-OSCAR-AT-THE-KITCHEN-TABLE -0.2218
-3.8702 TELL-A-JOKE-TO-OSCAR-AT-THE-SHELF -0.2218
-3.8702 TELL-A-JOKE-TO-PHILIP-AT-THE-BAR-TABLE -0.2218
-3.8702 TELL-A-JOKE-TO-PHILIP-AT-THE-KITCHEN-TABLE -0.2218
-3.8702 TELL-A-JOKE-TO-PHILIP-AT-THE-SHELF -0.2218
-3.8702 TELL-A-JOKE-TO-PRINCE-AT-THE-BAR-TABLE -0.2218
-3.8702 TELL-A-JOKE-TO-PRINCE-AT-THE-KITCHEN-TABLE -0.2218
-3.8702 TELL-A-JOKE-TO-PRINCE-AT-THE-SHELF -0.2218
-3.8702 TELL-A-JOKE-TO-ROBERT-AT-THE-BAR-TABLE -0.2218
-3.8702 TELL-A-JOKE-TO-ROBERT-AT-THE-KITCHEN-TABLE -0.2218
-3.8702 TELL-A-JOKE-TO-ROBERT-AT-THE-SHELF -0.2218
-3.8702 TELL-A-JOKE-TO-SAMANTHA-AT-THE-BAR-TABLE -0.2218
-3.8702 TELL-A-JOKE-TO-SAMANTHA-AT-THE-KITCHEN-TABLE -0.2218
-3.8702 TELL-A-JOKE-TO-SAMANTHA-AT-THE-SHELF -0.2218
-3.8702 TELL-A-JOKE-TO-STANLEY-AT-THE-BAR-TABLE -0.2218
-3.8702 TELL-A-JOKE-TO-STANLEY-AT-THE-KITCHEN-TABLE -0.2218
-3.8702 TELL-A-JOKE-TO-STANLEY-AT-THE-SHELF -0.2218
-3.8702 TELL-ME-HOW-MANY-APPLE-JUICE-THERE-ARE-ON-THE-BAR-TABLE -0.2218
-3.8702 TELL-ME-HOW-MANY-CEREAL-BOWL-THERE-ARE-ON-THE-SHELF -0.2218
-3.8702 TELL-ME-HOW-MANY-CEREAL-THERE-ARE-ON-THE-KITCHEN-TABLE -0.2218
-3.8702 TELL-ME-HOW-MANY-CUP-THERE-ARE-ON-THE-SHELF -0.2218
-3.8702 TELL-ME-HOW-MANY-FORK-THERE-ARE-ON-THE-SHELF -0.2218
-3.8702 TELL-ME-HOW-MANY-GREEN-TEA-THERE-ARE-ON-THE-BAR-TABLE -0.2218
-3.8702 TELL-ME-HOW-MANY-INSTANT-NOODLES-THERE-ARE-ON-THE-KITCHEN-TABLE -0.2218
-3.8702 TELL-ME-HOW-MANY-JELLY-THERE-ARE-ON-THE-COFFEE-TABLE -0.2218
-3.8702 TELL-ME-HOW-MANY-MILK-TEA-THERE-ARE-ON-THE-BAR-TABLE -0.2218
-3.8702 TELL-ME-HOW-MANY-MIXED-NUTS-THERE-ARE-ON-THE-KITCHEN-TABLE -0.2218
-3.8702 TELL-ME-HOW-MANY-ORANGE-JUICE-THERE-ARE-ON-THE-BAR-TABLE -0.2218
-3.8702 TELL-ME-HOW-MANY-POTATO-CHIP-THERE-ARE-ON-THE-COFFEE-TABLE -0.2218
-3.8702 TELL-ME-HOW-MANY-PRIGNLES-THERE-ARE-ON-THE-COFFEE-TABLE -0.2218
-3.8702 TELL-ME-HOW-MANY-SHOPPING-BAG-THERE-ARE-ON-THE-SHELF -0.2218
-3.8702 TELL-ME-HOW-MANY-SPOON-THERE-ARE-ON-THE-SHELF -0.2218
-3.8702 TELL-ME-HOW-MANY-TRAY-THERE-ARE-ON-THE-SHELF -0.2218
-3.8702 TELL-ME-THE-NAME-OF-THIS-VENUE -0.2218
-3.8702 TELL-THE-DAY-OF-THE-MONTH-TO-ALICIA-AT-THE-BAR-TABLE -0.2218
-3.8702 TELL-THE-DAY-OF-THE-MONTH-TO-ALICIA-AT-THE-KITCHEN-TABLE -0.2218
-3.8702 TELL-THE-DAY-OF-THE-MONTH-TO-ALICIA-AT-THE-SHELF -0.2218
-3.8702 TELL-THE-DAY-OF-THE-MONTH-TO-ANABELLE-AT-THE-BAR-TABLE -0.2218
-3.8702 TELL-THE-DAY-OF-THE-MONTH-TO-ANABELLE-AT-THE-KITCHEN-TABLE -0.2218
-3.8702 TELL-THE-DAY-OF-THE-MONTH-TO-ANABELLE-AT-THE-SHELF -0.2218
-3.8702 TELL-THE-DAY-OF-THE-MONTH-TO-ARTHUR-AT-THE-BAR-TABLE -0.2218
-3.8702 TELL-THE-DAY-OF-THE-MONTH-TO-ARTHUR-AT-THE-KITCHEN-TABLE -0.2218
-3.8702 TELL-THE-DAY-OF-THE-MONTH-TO-ARTHUR-AT-THE-SHELF -0.2218
-3.8702 TELL-THE-DAY-OF-THE-MONTH-TO-BARBARA-AT-THE-BAR-TABLE -0.2218
-3.8702 TELL-THE-DAY-OF-THE-MONTH-TO-BARBARA-AT-THE-KITCHEN-TABLE -0.2218
-3.8702 TELL-THE-DAY-OF-THE-MONTH-TO-BARBARA-AT-THE-SHELF -0.2218
-3.8702 TELL-THE-DAY-OF-THE-MONTH-TO-CLAIRE-AT-THE-BAR-TABLE -0.2218
-3.8702 TELL-THE-DAY-OF-THE-MONTH-TO-CLAIRE-AT-THE-KITCHEN-TABLE -0.2218
-3.8702 TELL-THE-DAY-OF-THE-MONTH-TO-CLAIRE-AT-THE-SHELF -0.2218
-3.8702 TELL-THE-DAY-OF-THE-MONTH-TO-EDWARD-AT-THE-BAR-TABLE -0.2218
-3.8702 TELL-THE-DAY-OF-THE-MONTH-TO-EDWARD-AT-THE-KITCHEN-TABLE -0.2218
-3.8702 TELL-THE-DAY-OF-THE-MONTH-TO-EDWARD-AT-THE-SHELF -0.2218
-3.8702 TELL-THE-DAY-OF-THE-MONTH-TO-FREDDY-AT-THE-BAR-TABLE -0.2218
-3.8702 TELL-THE-DAY-OF-THE-MONTH-TO-FREDDY-AT-THE-KITCHEN-TABLE -0.2218
-3.8702 TELL-THE-DAY-OF-THE-MONTH-TO-FREDDY-AT-THE-SHELF -0.2218
-3.8702 TELL-THE-DAY-OF-THE-MONTH-TO-FREYA-AT-THE-BAR-TABLE -0.2218
-3.8702 TELL-THE-DAY-OF-THE-MONTH-TO-FREYA-AT-THE-KITCHEN-TABLE -0.2218
-3.8702 TELL-THE-DAY-OF-THE-MONTH-TO-FREYA-AT-THE-SHELF -0.2218
-3.8702 TELL-THE-DAY-OF-THE-MONTH-TO-HAYDEN-AT-THE-BAR-TABLE -0.2218
-3.8702 TELL-THE-DAY-OF-THE-MONTH-TO-HAYDEN-AT-THE-KITCHEN-TABLE -0.2218
-3.8702 TELL-THE-DAY-OF-THE-MONTH-TO-HAYDEN-AT-THE-SHELF -0.2218
-3.8702 TELL-THE-DAY-OF-THE-MONTH-TO-JOHN-AT-THE-BAR-TABLE -0.2218
-3.8702 TELL-THE-DAY-OF-THE-MONTH-TO-JOHN-AT-THE-KITCHEN-TABLE -0.2218
-3.8702 TELL-THE-DAY-OF-THE-MONTH-TO-JOHN-AT-THE-SHELF -0.2218
-3.8702 TELL-THE-DAY-OF-THE-MONTH-TO-LILY-AT-THE-BAR-TABLE -0.2218
-3.8702 TELL-THE-DAY-OF-THE-MONTH-TO-LILY-AT-THE-KITCHEN-TABLE -0.2218
-3.8702 TELL-THE-DAY-OF-THE-MONTH-TO-LILY-AT-THE-SHELF -0.2218
-3.8702 TELL-THE-DAY-OF-THE-MONTH-TO-LUCY-AT-THE-BAR-TABLE -0.2218
-3.8702 TELL-THE-DAY-OF-THE-MONTH-TO-LUCY-AT-THE-KITCHEN-TABLE -0.2218
-3.8702 TELL-THE-DAY-OF-THE-MONTH-TO-LUCY-AT-THE-SHELF -0.2218
-3.8702 TELL-THE-DAY-OF-THE-MONTH-TO-MARY-AT-THE-BAR-TABLE -0.2218
-3.8702 TELL-THE-DAY-OF-THE-MONTH-TO-MARY-AT-THE-KITCHEN-TABLE -0.2218
-3.8702 TELL-THE-DAY-OF-THE-MONTH-TO-MARY-AT-THE-SHELF -0.2218
-3.8702 TELL-THE-DAY-OF-THE-MONTH-TO-OSCAR-AT-THE-BAR-TABLE -0.2218
-3.8702 TELL-THE-DAY-OF-THE-MONTH-TO-OSCAR-AT-THE-KITCHEN-TABLE -0.2218
-3.8702 TELL-THE-DAY-OF-THE-MONTH-TO-OSCAR-AT-THE-SHELF -0.2218
-3.8702 TELL-THE-DAY-OF-THE-MONTH-TO-PHILIP-AT-THE-BAR-TABLE -0.2218
-3.8702 TELL-THE-DAY-OF-THE-MONTH-TO-PHILIP-AT-THE-KITCHEN-TABLE -0.2218
-3.8702 TELL-THE-DAY-OF-THE-MONTH-TO-PHILIP-AT-THE-SHELF -0.2218
-3.8702 TELL-THE-DAY-OF-THE-MONTH-TO-PRINCE-AT-THE-BAR-TABLE -0.2218
-3.8702 TELL-THE-DAY-OF-THE-MONTH-TO-PRINCE-AT-THE-KITCHEN-TABLE -0.2218
-3.8702 TELL-THE-DAY-OF-THE-MONTH-TO-PRINCE-AT-THE-SHELF -0.2218
-3.8702 TELL-THE-DAY-OF-THE-MONTH-TO-ROBERT-AT-THE-BAR-TABLE -0.2218
-3.8702 TELL-THE-DAY-OF-THE-MONTH-TO-ROBERT-AT-THE-KITCHEN-TABLE -0.2218
-3.8702 TELL-THE-DAY-OF-THE-MONTH-TO-ROBERT-AT-THE-SHELF -0.2218
-3.8702 TELL-THE-DAY-OF-THE-MONTH-TO-SAMANTHA-AT-THE-BAR-TABLE -0.2218
-3.8702 TELL-THE-DAY-OF-THE-MONTH-TO-SAMANTHA-AT-THE-KITCHEN-TABLE -0.2218
-3.8702 TELL-THE-DAY-OF-THE-MONTH-TO-SAMANTHA-AT-THE-SHELF -0.2218
-3.8702 TELL-THE-DAY-OF-THE-MONTH-TO-STANLEY-AT-THE-BAR-TABLE -0.2218
-3.8702 TELL-THE-DAY-OF-THE-MONTH-TO-STANLEY-AT-THE-KITCHEN-TABLE -0.2218
-3.8702 TELL-THE-DAY-OF-THE-MONTH-TO-STANLEY-AT-THE-SHELF -0.2218
-3.8702 TELL-THE-TIME-TO-ALICIA-AT-THE-BAR-TABLE -0.2218
-3.8702 TELL-THE-TIME-TO-ALICIA-AT-THE-KITCHEN-TABLE -0.2218
-3.8702 TELL-THE-TIME-TO-ALICIA-AT-THE-SHELF -0.2218
-3.8702 TELL-THE-TIME-TO-ANABELLE-AT-THE-BAR-TABLE -0.2218
-3.8702 TELL-THE-TIME-TO-ANABELLE-AT-THE-KITCHEN-TABLE -0.2218
-3.8702 TELL-THE-TIME-TO-ANABELLE-AT-THE-SHELF -0.2218
-3.8702 TELL-THE-TIME-TO-ARTHUR-AT-THE-BAR-TABLE -0.2218
-3.8702 TELL-THE-TIME-TO-ARTHUR-AT-THE-KITCHEN-TABLE -0.2218
-3.8702 TELL-THE-TIME-TO-ARTHUR-AT-THE-SHELF -0.2218
-3.8702 TELL-THE-TIME-TO-BARBARA-AT-THE-BAR-TABLE -0.2218
-3.8702 TELL-THE-TIME-TO-BARBARA-AT-THE-KITCHEN-TABLE -0.2218
-3.8702 TELL-THE-TIME-TO-BARBARA-AT-THE-SHELF -0.2218
-3.8702 TELL-THE-TIME-TO-CLAIRE-AT-THE-BAR-TABLE -0.2218
-3.8702 TELL-THE-TIME-TO-CLAIRE-AT-THE-KITCHEN-TABLE -0.2218
-3.8702 TELL-THE-TIME-TO-CLAIRE-AT-THE-SHELF -0.2218
-3.8702 TELL-THE-TIME-TO-EDWARD-AT-THE-BAR-TABLE -0.2218
-3.8702 TELL-THE-TIME-TO-EDWARD-AT-THE-KITCHEN-TABLE -0.2218
-3.8702 TELL-THE-TIME-TO-EDWARD-AT-THE-SHELF -0.2218
-3.8702 TELL-THE-TIME-TO-FREDDY-AT-THE-BAR-TABLE -0.2218
-3.8702 TELL-THE-TIME-TO-FREDDY-AT-THE-KITCHEN-TABLE -0.2218
-3.8702 TELL-THE-TIME-TO-FREDDY-AT-THE-SHELF -0.2218
-3.8702 TELL-THE-TIME-TO-FREYA-AT-THE-BAR-TABLE -0.2218
-3.8702 TELL-THE-TIME-TO-FREYA-AT-THE-KITCHEN-TABLE -0.2218
-3.8702 TELL-THE-TIME-TO-FREYA-AT-THE-SHELF -0.2218
-3.8702 TELL-THE-TIME-TO-HAYDEN-AT-THE-BAR-TABLE -0.2218
-3.8702 TELL-THE-TIME-TO-HAYDEN-AT-THE-KITCHEN-TABLE -0.2218
-3.8702 TELL-THE-TIME-TO-HAYDEN-AT-THE-SHELF -0.2218
-3.8702 TELL-THE-TIME-TO-JOHN-AT-THE-BAR-TABLE -0.2218
-3.8702 TELL-THE-TIME-TO-JOHN-AT-THE-KITCHEN-TABLE -0.2218
-3.8702 TELL-THE-TIME-TO-JOHN-AT-THE-SHELF -0.2218
-3.8702 TELL-THE-TIME-TO-LILY-AT-THE-BAR-TABLE -0.2218
-3.8702 TELL-THE-TIME-TO-LILY-AT-THE-KITCHEN-TABLE -0.2218
-3.8702 TELL-THE-TIME-TO-LILY-AT-THE-SHELF -0.2218
-3.8702 TELL-THE-TIME-TO-LUCY-AT-THE-BAR-TABLE -0.2218
-3.8702 TELL-THE-TIME-TO-LUCY-AT-THE-KITCHEN-TABLE -0.2218
-3.8702 TELL-THE-TIME-TO-LUCY-AT-THE-SHELF -0.2218
-3.8702 TELL-THE-TIME-TO-MARY-AT-THE-BAR-TABLE -0.2218
-3.8702 TELL-THE-TIME-TO-MARY-AT-THE-KITCHEN-TABLE -0.2218
-3.8702 TELL-THE-TIME-TO-MARY-AT-THE-SHELF -0.2218
-3.8702 TELL-THE-TIME-TO-OSCAR-AT-THE-BAR-TABLE -0.2218
-3.8702 TELL-THE-TIME-TO-OSCAR-AT-THE-KITCHEN-TABLE -0.2218
-3.8702 TELL-THE-TIME-TO-OSCAR-AT-THE-SHELF -0.2218
-3.8702 TELL-THE-TIME-TO-PHILIP-AT-THE-BAR-TABLE -0.2218
-3.8702 TELL-THE-TIME-TO-PHILIP-AT-THE-KITCHEN-TABLE -0.2218
-3.8702 TELL-THE-TIME-TO-PHILIP-AT-THE-SHELF -0.2218
-3.8702 TELL-THE-TIME-TO-PRINCE-AT-THE-BAR-TABLE -0.2218
-3.8702 TELL-THE-TIME-TO-PRINCE-AT-THE-KITCHEN-TABLE -0.2218
-3.8702 TELL-THE-TIME-TO-PRINCE-AT-THE-SHELF -0.2218
-3.8702 TELL-THE-TIME-TO-ROBERT-AT-THE-BAR-TABLE -0.2218
-3.8702 TELL-THE-TIME-TO-ROBERT-AT-THE-KITCHEN-TABLE -0.2218
-3.8702 TELL-THE-TIME-TO-ROBERT-AT-THE-SHELF -0.2218
-3.8702 TELL-THE-TIME-TO-SAMANTHA-AT-THE-BAR-TABLE -0.2218
-3.8702 TELL-THE-TIME-TO-SAMANTHA-AT-THE-KITCHEN-TABLE -0.2218
-3.8702 TELL-THE-TIME-TO-SAMANTHA-AT-THE-SHELF -0.2218
-3.8702 TELL-THE-TIME-TO-STANLEY-AT-THE-BAR-TABLE -0.2218
-3.8702 TELL-THE-TIME-TO-STANLEY-AT-THE-KITCHEN-TABLE -0.2218
-3.8702 TELL-THE-TIME-TO-STANLEY-AT-THE-SHELF -0.2218
-3.8702 TELL-YOUR-TEAM'S-NAME-TO-ALICIA-AT-THE-BAR-TABLE -0.2218
-3.8702 TELL-YOUR-TEAM'S-NAME-TO-ALICIA-AT-THE-KITCHEN-TABLE -0.2218
-3.8702 TELL-YOUR-TEAM'S-NAME-TO-ALICIA-AT-THE-SHELF -0.2218
-3.8702 TELL-YOUR-TEAM'S-NAME-TO-ANABELLE-AT-THE-BAR-TABLE -0.2218
-3.8702 TELL-YOUR-TEAM'S-NAME-TO-ANABELLE-AT-THE-KITCHEN-TABLE -0.2218
-3.8702 TELL-YOUR-TEAM'S-NAME-TO-ANABELLE-AT-THE-SHELF -0.2218
-3.8702 TELL-YOUR-TEAM'S-NAME-TO-ARTHUR-AT-THE-BAR-TABLE -0.2218
-3.8702 TELL-YOUR-TEAM'S-NAME-TO-ARTHUR-AT-THE-KITCHEN-TABLE -0.2218
-3.8702 TELL-YOUR-TEAM'S-NAME-TO-ARTHUR-AT-THE-SHELF -0.2218
-3.8702 TELL-YOUR-TEAM'S-NAME-TO-BARBARA-AT-THE-BAR-TABLE -0.2218
-3.8702 TELL-YOUR-TEAM'S-NAME-TO-BARBARA-AT-THE-KITCHEN-TABLE -0.2218
-3.8702 TELL-YOUR-TEAM'S-NAME-TO-BARBARA-AT-THE-SHELF -0.2218
-3.8702 TELL-YOUR-TEAM'S-NAME-TO-CLAIRE-AT-THE-BAR-TABLE -0.2218
-3.8702 TELL-YOUR-TEAM'S-NAME-TO-CLAIRE-AT-THE-KITCHEN-TABLE -0.2218
-3.8702 TELL-YOUR-TEAM'S-NAME-TO-CLAIRE-AT-THE-SHELF -0.2218
-3.8702 TELL-YOUR-TEAM'S-NAME-TO-EDWARD-AT-THE-BAR-TABLE -0.2218
-3.8702 TELL-YOUR-TEAM'S-NAME-TO-EDWARD-AT-THE-KITCHEN-TABLE -0.2218
-3.8702 TELL-YOUR-TEAM'S-NAME-TO-EDWARD-AT-THE-SHELF -0.2218
-3.8702 TELL-YOUR-TEAM'S-NAME-TO-FREDDY-AT-THE-BAR-TABLE -0.2218
-3.8702 TELL-YOUR-TEAM'S-NAME-TO-FREDDY-AT-THE-KITCHEN-TABLE -0.2218
-3.8702 TELL-YOUR-TEAM'S-NAME-TO-FREDDY-AT-THE-SHELF -0.2218
-3.8702 TELL-YOUR-TEAM'S-NAME-TO-FREYA-AT-THE-BAR-TABLE -0.2218
-3.8702 TELL-YOUR-TEAM'S-NAME-TO-FREYA-AT-THE-KITCHEN-TABLE -0.2218
-3.8702 TELL-YOUR-TEAM'S-NAME-TO-FREYA-AT-THE-SHELF -0.2218
-3.8702 TELL-YOUR-TEAM'S-NAME-TO-HAYDEN-AT-THE-BAR-TABLE -0.2218
-3.8702 TELL-YOUR-TEAM'S-NAME-TO-HAYDEN-AT-THE-KITCHEN-TABLE -0.2218
-3.8702 TELL-YOUR-TEAM'S-NAME-TO-HAYDEN-AT-THE-SHELF -0.2218
-3.8702 TELL-YOUR-TEAM'S-NAME-TO-JOHN-AT-THE-BAR-TABLE -0.2218
-3.8702 TELL-YOUR-TEAM'S-NAME-TO-JOHN-AT-THE-KITCHEN-TABLE -0.2218
-3.8702 TELL-YOUR-TEAM'S-NAME-TO-JOHN-AT-THE-SHELF -0.2218
-3.8702 TELL-YOUR-TEAM'S-NAME-TO-LILY-AT-THE-BAR-TABLE -0.2218
-3.8702 TELL-YOUR-TEAM'S-NAME-TO-LILY-AT-THE-KITCHEN-TABLE -0.2218
-3.8702 TELL-YOUR-TEAM'S-NAME-TO-LILY-AT-THE-SHELF -0.2218
-3.8702 TELL-YOUR-TEAM'S-NAME-TO-LUCY-AT-THE-BAR-TABLE -0.2218
-3.8702 TELL-YOUR-TEAM'S-NAME-TO-LUCY-AT-THE-KITCHEN-TABLE -0.2218
-3.8702 TELL-YOUR-TEAM'S-NAME-TO-LUCY-AT-THE-SHELF -0.2218
-3.8702 TELL-YOUR-TEAM'S-NAME-TO-MARY-AT-THE-BAR-TABLE -0.2218
-3.8702 TELL-YOUR-TEAM'S-NAME-TO-MARY-AT-THE-KITCHEN-TABLE -0.2218
-3.8702 TELL-YOUR-TEAM'S-NAME-TO-MARY-AT-THE-SHELF -0.2218
-3.8702 TELL-YOUR-TEAM'S-NAME-TO-OSCAR-AT-THE-BAR-TABLE -0.2218
-3.8702 TELL-YOUR-TEAM'S-NAME-TO-OSCAR-AT-THE-KITCHEN-TABLE -0.2218
-3.8702 TELL-YOUR-TEAM'S-NAME-TO-OSCAR-AT-THE-SHELF -0.2218
-3.8702 TELL-YOUR-TEAM'S-NAME-TO-PHILIP-AT-THE-BAR-TABLE -0.2218
-3.8702 TELL-YOUR-TEAM'S-NAME-TO-PHILIP-AT-THE-KITCHEN-TABLE -0.2218
-3.8702 TELL-YOUR-TEAM'S-NAME-TO-PHILIP-AT-THE-SHELF -0.2218
-3.8702 TELL-YOUR-TEAM'S-NAME-TO-PRINCE-AT-THE-BAR-TABLE -0.2218
-3.8702 TELL-YOUR-TEAM'S-NAME-TO-PRINCE-AT-THE-KITCHEN-TABLE -0.2218
-3.8702 TELL-YOUR-TEAM'S-NAME-TO-PRINCE-AT-THE-SHELF -0.2218
-3.8702 TELL-YOUR-TEAM'S-NAME-TO-ROBERT-AT-THE-BAR-TABLE -0.2218
-3.8702 TELL-YOUR-TEAM'S-NAME-TO-ROBERT-AT-THE-KITCHEN-TABLE -0.2218
-3.8702 TELL-YOUR-TEAM'S-NAME-TO-ROBERT-AT-THE-SHELF -0.2218
-3.8702 TELL-YOUR-TEAM'S-NAME-TO-SAMANTHA-AT-THE-BAR-TABLE -0.2218
-3.8702 TELL-YOUR-TEAM'S-NAME-TO-SAMANTHA-AT-THE-KITCHEN-TABLE -0.2218
-3.8702 TELL-YOUR-TEAM'S-NAME-TO-SAMANTHA-AT-THE-SHELF -0.2218
-3.8702 TELL-YOUR-TEAM'S-NAME-TO-STANLEY-AT-THE-BAR-TABLE -0.2218
-3.8702 TELL-YOUR-TEAM'S-NAME-TO-STANLEY-AT-THE-KITCHEN-TABLE -0.2218
-3.8702 TELL-YOUR-TEAM'S-NAME-TO-STANLEY-AT-THE-SHELF -0.2218
-3.8702 WHAT-IS-A-NAME-OF-PUR-GALAXY -0.2218
-3.8702 WHAT-IS-THE-BATMAN-SUPER-POWER -0.2218
-3.8702 WHAT-IS-THE-BIGGEST-AIRPORT-IN-THAILAND -0.2218
-3.8702 WHAT-IS-THE-SYMBOLIC-ANIMAL-OF-THAILAND -0.2218
-3.8702 WHAT-IS-THE-TALLEST-BUILDING-IN-THE-WORLD -0.2218
-3.8702 WHERE-ARE-YOU-FROM -0.2218
-3.8702 WHERE-WILL-NEXT-WORD-ROBOCUP-BE-HELD -0.2218
-3.8702 WHICH-OPERATING-SYSTEM-ARE-YOU-USING -0.2218
-3.8702 WHICH-ROBOT-PLATFORM-IS-USED-IS-USED-FOR-EDUCATION-LEAGUE -0.2218
-3.8702 WHO-IS-CURRENT-US-PRESIDENT -0.2218
-3.8702 WHO-IS-THE-LEAD-ACTRESS-OF-WONDER-WOMAN -0.2218
-3.8702 WHO-IS-THE-RICHEST-MAN-IN-THE-WORLD -0.2218
-3.8702 WHO-IS-THE-SINGER-OF-THE-SONG-GRENADE -0.2218
-3.8702 YES -0.2218

\2-grams:
-3.3930 <s> ANSWER-A-QUESTION-TOALICIA-AT-THE-BAR-TABLE 0.0000
-3.3930 <s> ANSWER-A-QUESTION-TOALICIA-AT-THE-KITCHEN-TABLE 0.0000
-3.3930 <s> ANSWER-A-QUESTION-TOALICIA-AT-THE-SHELF 0.0000
-3.3930 <s> ANSWER-A-QUESTION-TOANABELLE-AT-THE-BAR-TABLE 0.0000
-3.3930 <s> ANSWER-A-QUESTION-TOANABELLE-AT-THE-KITCHEN-TABLE 0.0000
-3.3930 <s> ANSWER-A-QUESTION-TOANABELLE-AT-THE-SHELF 0.0000
-3.3930 <s> ANSWER-A-QUESTION-TOARTHUR-AT-THE-BAR-TABLE 0.0000
-3.3930 <s> ANSWER-A-QUESTION-TOARTHUR-AT-THE-KITCHEN-TABLE 0.0000
-3.3930 <s> ANSWER-A-QUESTION-TOARTHUR-AT-THE-SHELF 0.0000
-3.3930 <s> ANSWER-A-QUESTION-TOBARBARA-AT-THE-BAR-TABLE 0.0000
-3.3930 <s> ANSWER-A-QUESTION-TOBARBARA-AT-THE-KITCHEN-TABLE 0.0000
-3.3930 <s> ANSWER-A-QUESTION-TOBARBARA-AT-THE-SHELF 0.0000
-3.3930 <s> ANSWER-A-QUESTION-TOCLAIRE-AT-THE-BAR-TABLE 0.0000
-3.3930 <s> ANSWER-A-QUESTION-TOCLAIRE-AT-THE-KITCHEN-TABLE 0.0000
-3.3930 <s> ANSWER-A-QUESTION-TOCLAIRE-AT-THE-SHELF 0.0000
-3.3930 <s> ANSWER-A-QUESTION-TOEDWARD-AT-THE-BAR-TABLE 0.0000
-3.3930 <s> ANSWER-A-QUESTION-TOEDWARD-AT-THE-KITCHEN-TABLE 0.0000
-3.3930 <s> ANSWER-A-QUESTION-TOEDWARD-AT-THE-SHELF 0.0000
-3.3930 <s> ANSWER-A-QUESTION-TOFREDDY-AT-THE-BAR-TABLE 0.0000
-3.3930 <s> ANSWER-A-QUESTION-TOFREDDY-AT-THE-KITCHEN-TABLE 0.0000
-3.3930 <s> ANSWER-A-QUESTION-TOFREDDY-AT-THE-SHELF 0.0000
-3.3930 <s> ANSWER-A-QUESTION-TOFREYA-AT-THE-BAR-TABLE 0.0000
-3.3930 <s> ANSWER-A-QUESTION-TOFREYA-AT-THE-KITCHEN-TABLE 0.0000
-3.3930 <s> ANSWER-A-QUESTION-TOFREYA-AT-THE-SHELF 0.0000
-3.3930 <s> ANSWER-A-QUESTION-TOHAYDEN-AT-THE-BAR-TABLE 0.0000
-3.3930 <s> ANSWER-A-QUESTION-TOHAYDEN-AT-THE-KITCHEN-TABLE 0.0000
-3.3930 <s> ANSWER-A-QUESTION-TOHAYDEN-AT-THE-SHELF 0.0000
-3.3930 <s> ANSWER-A-QUESTION-TOJOHN-AT-THE-BAR-TABLE 0.0000
-3.3930 <s> ANSWER-A-QUESTION-TOJOHN-AT-THE-KITCHEN-TABLE 0.0000
-3.3930 <s> ANSWER-A-QUESTION-TOJOHN-AT-THE-SHELF 0.0000
-3.3930 <s> ANSWER-A-QUESTION-TOLILY-AT-THE-BAR-TABLE 0.0000
-3.3930 <s> ANSWER-A-QUESTION-TOLILY-AT-THE-KITCHEN-TABLE 0.0000
-3.3930 <s> ANSWER-A-QUESTION-TOLILY-AT-THE-SHELF 0.0000
-3.3930 <s> ANSWER-A-QUESTION-TOLUCY-AT-THE-BAR-TABLE 0.0000
-3.3930 <s> ANSWER-A-QUESTION-TOLUCY-AT-THE-KITCHEN-TABLE 0.0000
-3.3930 <s> ANSWER-A-QUESTION-TOLUCY-AT-THE-SHELF 0.0000
-3.3930 <s> ANSWER-A-QUESTION-TOMARY-AT-THE-BAR-TABLE 0.0000
-3.3930 <s> ANSWER-A-QUESTION-TOMARY-AT-THE-KITCHEN-TABLE 0.0000
-3.3930 <s> ANSWER-A-QUESTION-TOMARY-AT-THE-SHELF 0.0000
-3.3930 <s> ANSWER-A-QUESTION-TOOSCAR-AT-THE-BAR-TABLE 0.0000
-3.3930 <s> ANSWER-A-QUESTION-TOOSCAR-AT-THE-KITCHEN-TABLE 0.0000
-3.3930 <s> ANSWER-A-QUESTION-TOOSCAR-AT-THE-SHELF 0.0000
-3.3930 <s> ANSWER-A-QUESTION-TOPHILIP-AT-THE-BAR-TABLE 0.0000
-3.3930 <s> ANSWER-A-QUESTION-TOPHILIP-AT-THE-KITCHEN-TABLE 0.0000
-3.3930 <s> ANSWER-A-QUESTION-TOPHILIP-AT-THE-SHELF 0.0000
-3.3930 <s> ANSWER-A-QUESTION-TOPRINCE-AT-THE-BAR-TABLE 0.0000
-3.3930 <s> ANSWER-A-QUESTION-TOPRINCE-AT-THE-KITCHEN-TABLE 0.0000
-3.3930 <s> ANSWER-A-QUESTION-TOPRINCE-AT-THE-SHELF 0.0000
-3.3930 <s> ANSWER-A-QUESTION-TOROBERT-AT-THE-BAR-TABLE 0.0000
-3.3930 <s> ANSWER-A-QUESTION-TOROBERT-AT-THE-KITCHEN-TABLE 0.0000
-3.3930 <s> ANSWER-A-QUESTION-TOROBERT-AT-THE-SHELF 0.0000
-3.3930 <s> ANSWER-A-QUESTION-TOSAMANTHA-AT-THE-BAR-TABLE 0.0000
-3.3930 <s> ANSWER-A-QUESTION-TOSAMANTHA-AT-THE-KITCHEN-TABLE 0.0000
-3.3930 <s> ANSWER-A-QUESTION-TOSAMANTHA-AT-THE-SHELF 0.0000
-3.3930 <s> ANSWER-A-QUESTION-TOSTANLEY-AT-THE-BAR-TABLE 0.0000
-3.3930 <s> ANSWER-A-QUESTION-TOSTANLEY-AT-THE-KITCHEN-TABLE 0.0000
-3.3930 <s> ANSWER-A-QUESTION-TOSTANLEY-AT-THE-SHELF 0.0000
-3.3930 <s> BEDROOM 0.0000
-3.3930 <s> BRING-ME-THE-APPLE-JUICE 0.0000
-3.3930 <s> BRING-ME-THE-APPLE-JUICE-FROM-THE-BAR-TABLE 0.0000
-3.3930 <s> BRING-ME-THE-CANNED-FISH 0.0000
-3.3930 <s> BRING-ME-THE-CEREAL 0.0000
-3.3930 <s> BRING-ME-THE-CEREAL-BOWL 0.0000
-3.3930 <s> BRING-ME-THE-CEREAL-BOWL-FROM-THE-SHELF 0.0000
-3.3930 <s> BRING-ME-THE-CEREAL-FROM-THE-KITCHEN-TABLE 0.0000
-3.3930 <s> BRING-ME-THE-CUP 0.0000
-3.3930 <s> BRING-ME-THE-CUP-FROM-THE-SHELF 0.0000
-3.3930 <s> BRING-ME-THE-DISK 0.0000
-3.3930 <s> BRING-ME-THE-FORK 0.0000
-3.3930 <s> BRING-ME-THE-FORK-FROM-THE-SHELF 0.0000
-3.3930 <s> BRING-ME-THE-GREEN-TEA 0.0000
-3.3930 <s> BRING-ME-THE-GREEN-TEA-FROM-THE-BAR-TABLE 0.0000
-3.3930 <s> BRING-ME-THE-INSTANT-NOODLES 0.0000
-3.3930 <s> BRING-ME-THE-INSTANT-NOODLES-FROM-THE-KITCHEN-TABLE 0.0000
-3.3930 <s> BRING-ME-THE-JELLY 0.0000
-3.3930 <s> BRING-ME-THE-JELLY-FROM-THE-COFFEE-TABLE 0.0000
-3.3930 <s> BRING-ME-THE-KNIFE 0.0000
-3.3930 <s> BRING-ME-THE-MILK-TEA 0.0000
-3.3930 <s> BRING-ME-THE-MILK-TEA-FROM-THE-BAR-TABLE 0.0000
-3.3930 <s> BRING-ME-THE-MIXED-NUTS 0.0000
-3.3930 <s> BRING-ME-THE-ORANGE-JUICE 0.0000
-3.3930 <s> BRING-ME-THE-ORANGE-JUICE-FROM-THE-BAR-TABLE 0.0000
-3.3930 <s> BRING-ME-THE-POTATO-CHIP 0.0000
-3.3930 <s> BRING-ME-THE-POTATO-CHIP-FROM-THE-COFFEE-TABLE 0.0000
-3.3930 <s> BRING-ME-THE-PRIGNLES 0.0000
-3.3930 <s> BRING-ME-THE-PRIGNLES-FROM-THE-COFFEE-TABLE 0.0000
-3.3930 <s> BRING-ME-THE-ROOT-BEER 0.0000
-3.3930 <s> BRING-ME-THE-SHOPPING-BAG 0.0000
-3.3930 <s> BRING-ME-THE-SHOPPING-BAG-FROM-THE-SHELF 0.0000
-3.3930 <s> BRING-ME-THE-SPOON 0.0000
-3.3930 <s> BRING-ME-THE-SPOON-FROM-THE-SHELF 0.0000
-3.3930 <s> BRING-ME-THE-TRAY 0.0000
-3.3930 <s> BRING-ME-THE-TRAY-FROM-THE-SHELF 0.0000
-3.3930 <s> BRING-THE-APPLE-JUICE-TO-ALICIA-AT-THE-BAR-TABLE 0.0000
-3.3930 <s> BRING-THE-APPLE-JUICE-TO-ANABELLE-AT-THE-BAR-TABLE 0.0000
-3.3930 <s> BRING-THE-APPLE-JUICE-TO-ARTHUR-AT-THE-BAR-TABLE 0.0000
-3.3930 <s> BRING-THE-APPLE-JUICE-TO-BARBARA-AT-THE-BAR-TABLE 0.0000
-3.3930 <s> BRING-THE-APPLE-JUICE-TO-CLAIRE-AT-THE-BAR-TABLE 0.0000
-3.3930 <s> BRING-THE-APPLE-JUICE-TO-EDWARD-AT-THE-BAR-TABLE 0.0000
-3.3930 <s> BRING-THE-APPLE-JUICE-TO-FREDDY-AT-THE-BAR-TABLE 0.0000
-3.3930 <s> BRING-THE-APPLE-JUICE-TO-FREYA-AT-THE-BAR-TABLE 0.0000
-3.3930 <s> BRING-THE-APPLE-JUICE-TO-HAYDEN-AT-THE-BAR-TABLE 0.0000
-3.3930 <s> BRING-THE-APPLE-JUICE-TO-JOHN-AT-THE-BAR-TABLE 0.0000
-3.3930 <s> BRING-THE-APPLE-JUICE-TO-LILY-AT-THE-BAR-TABLE 0.0000
-3.3930 <s> BRING-THE-APPLE-JUICE-TO-LUCY-AT-THE-BAR-TABLE 0.0000
-3.3930 <s> BRING-THE-APPLE-JUICE-TO-MARY-AT-THE-BAR-TABLE 0.0000
-3.3930 <s> BRING-THE-APPLE-JUICE-TO-ME 0.0000
-3.3930 <s> BRING-THE-APPLE-JUICE-TO-OSCAR-AT-THE-BAR-TABLE 0.0000
-3.3930 <s> BRING-THE-APPLE-JUICE-TO-PHILIP-AT-THE-BAR-TABLE 0.0000
-3.3930 <s> BRING-THE-APPLE-JUICE-TO-PRINCE-AT-THE-BAR-TABLE 0.0000
-3.3930 <s> BRING-THE-APPLE-JUICE-TO-ROBERT-AT-THE-BAR-TABLE 0.0000
-3.3930 <s> BRING-THE-APPLE-JUICE-TO-SAMANTHA-AT-THE-BAR-TABLE 0.0000
-3.3930 <s> BRING-THE-APPLE-JUICE-TO-STANLEY-AT-THE-BAR-TABLE 0.0000
-3.3930 <s> BRING-THE-CANNED-FISH-TO-ME 0.0000
-3.3930 <s> BRING-THE-CEREAL-BOWL-TO-ALICIA-ON-THE-SHELF 0.0000
-3.3930 <s> BRING-THE-CEREAL-BOWL-TO-ANABELLE-ON-THE-SHELF 0.0000
-3.3930 <s> BRING-THE-CEREAL-BOWL-TO-ARTHUR-ON-THE-SHELF 0.0000
-3.3930 <s> BRING-THE-CEREAL-BOWL-TO-BARBARA-ON-THE-SHELF 0.0000
-3.3930 <s> BRING-THE-CEREAL-BOWL-TO-CLAIRE-ON-THE-SHELF 0.0000
-3.3930 <s> BRING-THE-CEREAL-BOWL-TO-EDWARD-ON-THE-SHELF 0.0000
-3.3930 <s> BRING-THE-CEREAL-BOWL-TO-FREDDY-ON-THE-SHELF 0.0000
-3.3930 <s> BRING-THE-CEREAL-BOWL-TO-FREYA-ON-THE-SHELF 0.0000
-3.3930 <s> BRING-THE-CEREAL-BOWL-TO-HAYDEN-ON-THE-SHELF 0.0000
-3.3930 <s> BRING-THE-CEREAL-BOWL-TO-JOHN-ON-THE-SHELF 0.0000
-3.3930 <s> BRING-THE-CEREAL-BOWL-TO-LILY-ON-THE-SHELF 0.0000
-3.3930 <s> BRING-THE-CEREAL-BOWL-TO-LUCY-ON-THE-SHELF 0.0000
-3.3930 <s> BRING-THE-CEREAL-BOWL-TO-MARY-ON-THE-SHELF 0.0000
-3.3930 <s> BRING-THE-CEREAL-BOWL-TO-ME 0.0000
-3.3930 <s> BRING-THE-CEREAL-BOWL-TO-OSCAR-ON-THE-SHELF 0.0000
-3.3930 <s> BRING-THE-CEREAL-BOWL-TO-PHILIP-ON-THE-SHELF 0.0000
-3.3930 <s> BRING-THE-CEREAL-BOWL-TO-PRINCE-ON-THE-SHELF 0.0000
-3.3930 <s> BRING-THE-CEREAL-BOWL-TO-ROBERT-ON-THE-SHELF 0.0000
-3.3930 <s> BRING-THE-CEREAL-BOWL-TO-SAMANTHA-ON-THE-SHELF 0.0000
-3.3930 <s> BRING-THE-CEREAL-BOWL-TO-STANLEY-ON-THE-SHELF 0.0000
-3.3930 <s> BRING-THE-CEREAL-TO-ALICIA-AT-THE-KITCHEN-TABLE 0.0000
-3.3930 <s> BRING-THE-CEREAL-TO-ANABELLE-AT-THE-KITCHEN-TABLE 0.0000
-3.3930 <s> BRING-THE-CEREAL-TO-ARTHUR-AT-THE-KITCHEN-TABLE 0.0000
-3.3930 <s> BRING-THE-CEREAL-TO-BARBARA-AT-THE-KITCHEN-TABLE 0.0000
-3.3930 <s> BRING-THE-CEREAL-TO-CLAIRE-AT-THE-KITCHEN-TABLE 0.0000
-3.3930 <s> BRING-THE-CEREAL-TO-EDWARD-AT-THE-KITCHEN-TABLE 0.0000
-3.3930 <s> BRING-THE-CEREAL-TO-FREDDY-AT-THE-KITCHEN-TABLE 0.0000
-3.3930 <s> BRING-THE-CEREAL-TO-FREYA-AT-THE-KITCHEN-TABLE 0.0000
-3.3930 <s> BRING-THE-CEREAL-TO-HAYDEN-AT-THE-KITCHEN-TABLE 0.0000
-3.3930 <s> BRING-THE-CEREAL-TO-JOHN-AT-THE-KITCHEN-TABLE 0.0000
-3.3930 <s> BRING-THE-CEREAL-TO-LILY-AT-THE-KITCHEN-TABLE 0.0000
-3.3930 <s> BRING-THE-CEREAL-TO-LUCY-AT-THE-KITCHEN-TABLE 0.0000
-3.3930 <s> BRING-THE-CEREAL-TO-MARY-AT-THE-KITCHEN-TABLE 0.0000
-3.3930 <s> BRING-THE-CEREAL-TO-ME 0.0000
-3.3930 <s> BRING-THE-CEREAL-TO-OSCAR-AT-THE-KITCHEN-TABLE 0.0000
-3.3930 <s> BRING-THE-CEREAL-TO-PHILIP-AT-THE-KITCHEN-TABLE 0.0000
-3.3930 <s> BRING-THE-CEREAL-TO-PRINCE-AT-THE-KITCHEN-TABLE 0.0000
-3.3930 <s> BRING-THE-CEREAL-TO-ROBERT-AT-THE-KITCHEN-TABLE 0.0000
-3.3930 <s> BRING-THE-CEREAL-TO-SAMANTHA-AT-THE-KITCHEN-TABLE 0.0000
-3.3930 <s> BRING-THE-CEREAL-TO-STANLEY-AT-THE-KITCHEN-TABLE 0.0000
-3.3930 <s> BRING-THE-CUP-TO-ALICIA-ON-THE-SHELF 0.0000
-3.3930 <s> BRING-THE-CUP-TO-ANABELLE-ON-THE-SHELF 0.0000
-3.3930 <s> BRING-THE-CUP-TO-ARTHUR-ON-THE-SHELF 0.0000
-3.3930 <s> BRING-THE-CUP-TO-BARBARA-ON-THE-SHELF 0.0000
-3.3930 <s> BRING-THE-CUP-TO-CLAIRE-ON-THE-SHELF 0.0000
-3.3930 <s> BRING-THE-CUP-TO-EDWARD-ON-THE-SHELF 0.0000
-3.3930 <s> BRING-THE-CUP-TO-FREDDY-ON-THE-SHELF 0.0000
-3.3930 <s> BRING-THE-CUP-TO-FREYA-ON-THE-SHELF 0.0000
-3.3930 <s> BRING-THE-CUP-TO-HAYDEN-ON-THE-SHELF 0.0000
-3.3930 <s> BRING-THE-CUP-TO-JOHN-ON-THE-SHELF 0.0000
-3.3930 <s> BRING-THE-CUP-TO-LILY-ON-THE-SHELF 0.0000
-3.3930 <s> BRING-THE-CUP-TO-LUCY-ON-THE-SHELF 0.0000
-3.3930 <s> BRING-THE-CUP-TO-MARY-ON-THE-SHELF 0.0000
-3.3930 <s> BRING-THE-CUP-TO-ME 0.0000
-3.3930 <s> BRING-THE-CUP-TO-OSCAR-ON-THE-SHELF 0.0000
-3.3930 <s> BRING-THE-CUP-TO-PHILIP-ON-THE-SHELF 0.0000
-3.3930 <s> BRING-THE-CUP-TO-PRINCE-ON-THE-SHELF 0.0000
-3.3930 <s> BRING-THE-CUP-TO-ROBERT-ON-THE-SHELF 0.0000
-3.3930 <s> BRING-THE-CUP-TO-SAMANTHA-ON-THE-SHELF 0.0000
-3.3930 <s> BRING-THE-CUP-TO-STANLEY-ON-THE-SHELF 0.0000
-3.3930 <s> BRING-THE-DISK-TO-ME 0.0000
-3.3930 <s> BRING-THE-FORK-TO-ALICIA-ON-THE-SHELF 0.0000
-3.3930 <s> BRING-THE-FORK-TO-ANABELLE-ON-THE-SHELF 0.0000
-3.3930 <s> BRING-THE-FORK-TO-ARTHUR-ON-THE-SHELF 0.0000
-3.3930 <s> BRING-THE-FORK-TO-BARBARA-ON-THE-SHELF 0.0000
-3.3930 <s> BRING-THE-FORK-TO-CLAIRE-ON-THE-SHELF 0.0000
-3.3930 <s> BRING-THE-FORK-TO-EDWARD-ON-THE-SHELF 0.0000
-3.3930 <s> BRING-THE-FORK-TO-FREDDY-ON-THE-SHELF 0.0000
-3.3930 <s> BRING-THE-FORK-TO-FREYA-ON-THE-SHELF 0.0000
-3.3930 <s> BRING-THE-FORK-TO-HAYDEN-ON-THE-SHELF 0.0000
-3.3930 <s> BRING-THE-FORK-TO-JOHN-ON-THE-SHELF 0.0000
-3.3930 <s> BRING-THE-FORK-TO-LILY-ON-THE-SHELF 0.0000
-3.3930 <s> BRING-THE-FORK-TO-LUCY-ON-THE-SHELF 0.0000
-3.3930 <s> BRING-THE-FORK-TO-MARY-ON-THE-SHELF 0.0000
-3.3930 <s> BRING-THE-FORK-TO-ME 0.0000
-3.3930 <s> BRING-THE-FORK-TO-OSCAR-ON-THE-SHELF 0.0000
-3.3930 <s> BRING-THE-FORK-TO-PHILIP-ON-THE-SHELF 0.0000
-3.3930 <s> BRING-THE-FORK-TO-PRINCE-ON-THE-SHELF 0.0000
-3.3930 <s> BRING-THE-FORK-TO-ROBERT-ON-THE-SHELF 0.0000
-3.3930 <s> BRING-THE-FORK-TO-SAMANTHA-ON-THE-SHELF 0.0000
-3.3930 <s> BRING-THE-FORK-TO-STANLEY-ON-THE-SHELF 0.0000
-3.3930 <s> BRING-THE-GREEN-TEA-TO-ALICIA-AT-THE-BAR-TABLE 0.0000
-3.3930 <s> BRING-THE-GREEN-TEA-TO-ANABELLE-AT-THE-BAR-TABLE 0.0000
-3.3930 <s> BRING-THE-GREEN-TEA-TO-ARTHUR-AT-THE-BAR-TABLE 0.0000
-3.3930 <s> BRING-THE-GREEN-TEA-TO-BARBARA-AT-THE-BAR-TABLE 0.0000
-3.3930 <s> BRING-THE-GREEN-TEA-TO-CLAIRE-AT-THE-BAR-TABLE 0.0000
-3.3930 <s> BRING-THE-GREEN-TEA-TO-EDWARD-AT-THE-BAR-TABLE 0.0000
-3.3930 <s> BRING-THE-GREEN-TEA-TO-FREDDY-AT-THE-BAR-TABLE 0.0000
-3.3930 <s> BRING-THE-GREEN-TEA-TO-FREYA-AT-THE-BAR-TABLE 0.0000
-3.3930 <s> BRING-THE-GREEN-TEA-TO-HAYDEN-AT-THE-BAR-TABLE 0.0000
-3.3930 <s> BRING-THE-GREEN-TEA-TO-JOHN-AT-THE-BAR-TABLE 0.0000
-3.3930 <s> BRING-THE-GREEN-TEA-TO-LILY-AT-THE-BAR-TABLE 0.0000
-3.3930 <s> BRING-THE-GREEN-TEA-TO-LUCY-AT-THE-BAR-TABLE 0.0000
-3.3930 <s> BRING-THE-GREEN-TEA-TO-MARY-AT-THE-BAR-TABLE 0.0000
-3.3930 <s> BRING-THE-GREEN-TEA-TO-ME 0.0000
-3.3930 <s> BRING-THE-GREEN-TEA-TO-OSCAR-AT-THE-BAR-TABLE 0.0000
-3.3930 <s> BRING-THE-GREEN-TEA-TO-PHILIP-AT-THE-BAR-TABLE 0.0000
-3.3930 <s> BRING-THE-GREEN-TEA-TO-PRINCE-AT-THE-BAR-TABLE 0.0000
-3.3930 <s> BRING-THE-GREEN-TEA-TO-ROBERT-AT-THE-BAR-TABLE 0.0000
-3.3930 <s> BRING-THE-GREEN-TEA-TO-SAMANTHA-AT-THE-BAR-TABLE 0.0000
-3.3930 <s> BRING-THE-GREEN-TEA-TO-STANLEY-AT-THE-BAR-TABLE 0.0000
-3.3930 <s> BRING-THE-INSTANT-NOODLES-TO-ALICIA-AT-THE-KITCHEN-TABLE 0.0000
-3.3930 <s> BRING-THE-INSTANT-NOODLES-TO-ANABELLE-AT-THE-KITCHEN-TABLE 0.0000
-3.3930 <s> BRING-THE-INSTANT-NOODLES-TO-ARTHUR-AT-THE-KITCHEN-TABLE 0.0000
-3.3930 <s> BRING-THE-INSTANT-NOODLES-TO-BARBARA-AT-THE-KITCHEN-TABLE 0.0000
-3.3930 <s> BRING-THE-INSTANT-NOODLES-TO-CLAIRE-AT-THE-KITCHEN-TABLE 0.0000
-3.3930 <s> BRING-THE-INSTANT-NOODLES-TO-EDWARD-AT-THE-KITCHEN-TABLE 0.0000
-3.3930 <s> BRING-THE-INSTANT-NOODLES-TO-FREDDY-AT-THE-KITCHEN-TABLE 0.0000
-3.3930 <s> BRING-THE-INSTANT-NOODLES-TO-FREYA-AT-THE-KITCHEN-TABLE 0.0000
-3.3930 <s> BRING-THE-INSTANT-NOODLES-TO-HAYDEN-AT-THE-KITCHEN-TABLE 0.0000
-3.3930 <s> BRING-THE-INSTANT-NOODLES-TO-JOHN-AT-THE-KITCHEN-TABLE 0.0000
-3.3930 <s> BRING-THE-INSTANT-NOODLES-TO-LILY-AT-THE-KITCHEN-TABLE 0.0000
-3.3930 <s> BRING-THE-INSTANT-NOODLES-TO-LUCY-AT-THE-KITCHEN-TABLE 0.0000
-3.3930 <s> BRING-THE-INSTANT-NOODLES-TO-MARY-AT-THE-KITCHEN-TABLE 0.0000
-3.3930 <s> BRING-THE-INSTANT-NOODLES-TO-ME 0.0000
-3.3930 <s> BRING-THE-INSTANT-NOODLES-TO-OSCAR-AT-THE-KITCHEN-TABLE 0.0000
-3.3930 <s> BRING-THE-INSTANT-NOODLES-TO-PHILIP-AT-THE-KITCHEN-TABLE 0.0000
-3.3930 <s> BRING-THE-INSTANT-NOODLES-TO-PRINCE-AT-THE-KITCHEN-TABLE 0.0000
-3.3930 <s> BRING-THE-INSTANT-NOODLES-TO-ROBERT-AT-THE-KITCHEN-TABLE 0.0000
-3.3930 <s> BRING-THE-INSTANT-NOODLES-TO-SAMANTHA-AT-THE-KITCHEN-TABLE 0.0000
-3.3930 <s> BRING-THE-INSTANT-NOODLES-TO-STANLEY-AT-THE-KITCHEN-TABLE 0.0000
-3.3930 <s> BRING-THE-JELLY-TO-ALICIA-AT-THE-COFFEE-TABLE 0.0000
-3.3930 <s> BRING-THE-JELLY-TO-ANABELLE-AT-THE-COFFEE-TABLE 0.0000
-3.3930 <s> BRING-THE-JELLY-TO-ARTHUR-AT-THE-COFFEE-TABLE 0.0000
-3.3930 <s> BRING-THE-JELLY-TO-BARBARA-AT-THE-COFFEE-TABLE 0.0000
-3.3930 <s> BRING-THE-JELLY-TO-CLAIRE-AT-THE-COFFEE-TABLE 0.0000
-3.3930 <s> BRING-THE-JELLY-TO-EDWARD-AT-THE-COFFEE-TABLE 0.0000
-3.3930 <s> BRING-THE-JELLY-TO-FREDDY-AT-THE-COFFEE-TABLE 0.0000
-3.3930 <s> BRING-THE-JELLY-TO-FREYA-AT-THE-COFFEE-TABLE 0.0000
-3.3930 <s> BRING-THE-JELLY-TO-HAYDEN-AT-THE-COFFEE-TABLE 0.0000
-3.3930 <s> BRING-THE-JELLY-TO-JOHN-AT-THE-COFFEE-TABLE 0.0000
-3.3930 <s> BRING-THE-JELLY-TO-LILY-AT-THE-COFFEE-TABLE 0.0000
-3.3930 <s> BRING-THE-JELLY-TO-LUCY-AT-THE-COFFEE-TABLE 0.0000
-3.3930 <s> BRING-THE-JELLY-TO-MARY-AT-THE-COFFEE-TABLE 0.0000
-3.3930 <s> BRING-THE-JELLY-TO-ME 0.0000
-3.3930 <s> BRING-THE-JELLY-TO-OSCAR-AT-THE-COFFEE-TABLE 0.0000
-3.3930 <s> BRING-THE-JELLY-TO-PHILIP-AT-THE-COFFEE-TABLE 0.0000
-3.3930 <s> BRING-THE-JELLY-TO-PRINCE-AT-THE-COFFEE-TABLE 0.0000
-3.3930 <s> BRING-THE-JELLY-TO-ROBERT-AT-THE-COFFEE-TABLE 0.0000
-3.3930 <s> BRING-THE-JELLY-TO-SAMANTHA-AT-THE-COFFEE-TABLE 0.0000
-3.3930 <s> BRING-THE-JELLY-TO-STANLEY-AT-THE-COFFEE-TABLE 0.0000
-3.3930 <s> BRING-THE-KNIFE-TO-ME 0.0000
-3.3930 <s> BRING-THE-MILK-TEA-TO-ALICIA-AT-THE-BAR-TABLE 0.0000
-3.3930 <s> BRING-THE-MILK-TEA-TO-ANABELLE-AT-THE-BAR-TABLE 0.0000
-3.3930 <s> BRING-THE-MILK-TEA-TO-ARTHUR-AT-THE-BAR-TABLE 0.0000
-3.3930 <s> BRING-THE-MILK-TEA-TO-BARBARA-AT-THE-BAR-TABLE 0.0000
-3.3930 <s> BRING-THE-MILK-TEA-TO-CLAIRE-AT-THE-BAR-TABLE 0.0000
-3.3930 <s> BRING-THE-MILK-TEA-TO-EDWARD-AT-THE-BAR-TABLE 0.0000
-3.3930 <s> BRING-THE-MILK-TEA-TO-FREDDY-AT-THE-BAR-TABLE 0.0000
-3.3930 <s> BRING-THE-MILK-TEA-TO-FREYA-AT-THE-BAR-TABLE 0.0000
-3.3930 <s> BRING-THE-MILK-TEA-TO-HAYDEN-AT-THE-BAR-TABLE 0.0000
-3.3930 <s> BRING-THE-MILK-TEA-TO-JOHN-AT-THE-BAR-TABLE 0.0000
-3.3930 <s> BRING-THE-MILK-TEA-TO-LILY-AT-THE-BAR-TABLE 0.0000
-3.3930 <s> BRING-THE-MILK-TEA-TO-LUCY-AT-THE-BAR-TABLE 0.0000
-3.3930 <s> BRING-THE-MILK-TEA-TO-MARY-AT-THE-BAR-TABLE 0.0000
-3.3930 <s> BRING-THE-MILK-TEA-TO-ME 0.0000
-3.3930 <s> BRING-THE-MILK-TEA-TO-OSCAR-AT-THE-BAR-TABLE 0.0000
-3.3930 <s> BRING-THE-MILK-TEA-TO-PHILIP-AT-THE-BAR-TABLE 0.0000
-3.3930 <s> BRING-THE-MILK-TEA-TO-PRINCE-AT-THE-BAR-TABLE 0.0000
-3.3930 <s> BRING-THE-MILK-TEA-TO-ROBERT-AT-THE-BAR-TABLE 0.0000
-3.3930 <s> BRING-THE-MILK-TEA-TO-SAMANTHA-AT-THE-BAR-TABLE 0.0000
-3.3930 <s> BRING-THE-MILK-TEA-TO-STANLEY-AT-THE-BAR-TABLE 0.0000
-3.3930 <s> BRING-THE-MIXED-NUTS-TO-ALICIA-AT-THE-KITCHEN-TABLE 0.0000
-3.3930 <s> BRING-THE-MIXED-NUTS-TO-ANABELLE-AT-THE-KITCHEN-TABLE 0.0000
-3.3930 <s> BRING-THE-MIXED-NUTS-TO-ARTHUR-AT-THE-KITCHEN-TABLE 0.0000
-3.3930 <s> BRING-THE-MIXED-NUTS-TO-BARBARA-AT-THE-KITCHEN-TABLE 0.0000
-3.3930 <s> BRING-THE-MIXED-NUTS-TO-CLAIRE-AT-THE-KITCHEN-TABLE 0.0000
-3.3930 <s> BRING-THE-MIXED-NUTS-TO-EDWARD-AT-THE-KITCHEN-TABLE 0.0000
-3.3930 <s> BRING-THE-MIXED-NUTS-TO-FREDDY-AT-THE-KITCHEN-TABLE 0.0000
-3.3930 <s> BRING-THE-MIXED-NUTS-TO-FREYA-AT-THE-KITCHEN-TABLE 0.0000
-3.3930 <s> BRING-THE-MIXED-NUTS-TO-HAYDEN-AT-THE-KITCHEN-TABLE 0.0000
-3.3930 <s> BRING-THE-MIXED-NUTS-TO-JOHN-AT-THE-KITCHEN-TABLE 0.0000
-3.3930 <s> BRING-THE-MIXED-NUTS-TO-LILY-AT-THE-KITCHEN-TABLE 0.0000
-3.3930 <s> BRING-THE-MIXED-NUTS-TO-LUCY-AT-THE-KITCHEN-TABLE 0.0000
-3.3930 <s> BRING-THE-MIXED-NUTS-TO-MARY-AT-THE-KITCHEN-TABLE 0.0000
-3.3930 <s> BRING-THE-MIXED-NUTS-TO-ME 0.0000
-3.3930 <s> BRING-THE-MIXED-NUTS-TO-OSCAR-AT-THE-KITCHEN-TABLE 0.0000
-3.3930 <s> BRING-THE-MIXED-NUTS-TO-PHILIP-AT-THE-KITCHEN-TABLE 0.0000
-3.3930 <s> BRING-THE-MIXED-NUTS-TO-PRINCE-AT-THE-KITCHEN-TABLE 0.0000
-3.3930 <s> BRING-THE-MIXED-NUTS-TO-ROBERT-AT-THE-KITCHEN-TABLE 0.0000
-3.3930 <s> BRING-THE-MIXED-NUTS-TO-SAMANTHA-AT-THE-KITCHEN-TABLE 0.0000
-3.3930 <s> BRING-THE-MIXED-NUTS-TO-STANLEY-AT-THE-KITCHEN-TABLE 0.0000
-3.3930 <s> BRING-THE-ORANGE-JUICE-TO-ALICIA-AT-THE-BAR-TABLE 0.0000
-3.3930 <s> BRING-THE-ORANGE-JUICE-TO-ANABELLE-AT-THE-BAR-TABLE 0.0000
-3.3930 <s> BRING-THE-ORANGE-JUICE-TO-ARTHUR-AT-THE-BAR-TABLE 0.0000
-3.3930 <s> BRING-THE-ORANGE-JUICE-TO-BARBARA-AT-THE-BAR-TABLE 0.0000
-3.3930 <s> BRING-THE-ORANGE-JUICE-TO-CLAIRE-AT-THE-BAR-TABLE 0.0000
-3.3930 <s> BRING-THE-ORANGE-JUICE-TO-EDWARD-AT-THE-BAR-TABLE 0.0000
-3.3930 <s> BRING-THE-ORANGE-JUICE-TO-FREDDY-AT-THE-BAR-TABLE 0.0000
-3.3930 <s> BRING-THE-ORANGE-JUICE-TO-FREYA-AT-THE-BAR-TABLE 0.0000
-3.3930 <s> BRING-THE-ORANGE-JUICE-TO-HAYDEN-AT-THE-BAR-TABLE 0.0000
-3.3930 <s> BRING-THE-ORANGE-JUICE-TO-JOHN-AT-THE-BAR-TABLE 0.0000
-3.3930 <s> BRING-THE-ORANGE-JUICE-TO-LILY-AT-THE-BAR-TABLE 0.0000
-3.3930 <s> BRING-THE-ORANGE-JUICE-TO-LUCY-AT-THE-BAR-TABLE 0.0000
-3.3930 <s> BRING-THE-ORANGE-JUICE-TO-MARY-AT-THE-BAR-TABLE 0.0000
-3.3930 <s> BRING-THE-ORANGE-JUICE-TO-ME 0.0000
-3.3930 <s> BRING-THE-ORANGE-JUICE-TO-OSCAR-AT-THE-BAR-TABLE 0.0000
-3.3930 <s> BRING-THE-ORANGE-JUICE-TO-PHILIP-AT-THE-BAR-TABLE 0.0000
-3.3930 <s> BRING-THE-ORANGE-JUICE-TO-PRINCE-AT-THE-BAR-TABLE 0.0000
-3.3930 <s> BRING-THE-ORANGE-JUICE-TO-ROBERT-AT-THE-BAR-TABLE 0.0000
-3.3930 <s> BRING-THE-ORANGE-JUICE-TO-SAMANTHA-AT-THE-BAR-TABLE 0.0000
-3.3930 <s> BRING-THE-ORANGE-JUICE-TO-STANLEY-AT-THE-BAR-TABLE 0.0000
-3.3930 <s> BRING-THE-POTATO-CHIP-TO-ALICIA-AT-THE-COFFEE-TABLE 0.0000
-3.3930 <s> BRING-THE-POTATO-CHIP-TO-ANABELLE-AT-THE-COFFEE-TABLE 0.0000
-3.3930 <s> BRING-THE-POTATO-CHIP-TO-ARTHUR-AT-THE-COFFEE-TABLE 0.0000
-3.3930 <s> BRING-THE-POTATO-CHIP-TO-BARBARA-AT-THE-COFFEE-TABLE 0.0000
-3.3930 <s> BRING-THE-POTATO-CHIP-TO-CLAIRE-AT-THE-COFFEE-TABLE 0.0000
-3.3930 <s> BRING-THE-POTATO-CHIP-TO-EDWARD-AT-THE-COFFEE-TABLE 0.0000
-3.3930 <s> BRING-THE-POTATO-CHIP-TO-FREDDY-AT-THE-COFFEE-TABLE 0.0000
-3.3930 <s> BRING-THE-POTATO-CHIP-TO-FREYA-AT-THE-COFFEE-TABLE 0.0000
-3.3930 <s> BRING-THE-POTATO-CHIP-TO-HAYDEN-AT-THE-COFFEE-TABLE 0.0000
-3.3930 <s> BRING-THE-POTATO-CHIP-TO-JOHN-AT-THE-COFFEE-TABLE 0.0000
-3.3930 <s> BRING-THE-POTATO-CHIP-TO-LILY-AT-THE-COFFEE-TABLE 0.0000
-3.3930 <s> BRING-THE-POTATO-CHIP-TO-LUCY-AT-THE-COFFEE-TABLE 0.0000
-3.3930 <s> BRING-THE-POTATO-CHIP-TO-MARY-AT-THE-COFFEE-TABLE 0.0000
-3.3930 <s> BRING-THE-POTATO-CHIP-TO-ME 0.0000
-3.3930 <s> BRING-THE-POTATO-CHIP-TO-OSCAR-AT-THE-COFFEE-TABLE 0.0000
-3.3930 <s> BRING-THE-POTATO-CHIP-TO-PHILIP-AT-THE-COFFEE-TABLE 0.0000
-3.3930 <s> BRING-THE-POTATO-CHIP-TO-PRINCE-AT-THE-COFFEE-TABLE 0.0000
-3.3930 <s> BRING-THE-POTATO-CHIP-TO-ROBERT-AT-THE-COFFEE-TABLE 0.0000
-3.3930 <s> BRING-THE-POTATO-CHIP-TO-SAMANTHA-AT-THE-COFFEE-TABLE 0.0000
-3.3930 <s> BRING-THE-POTATO-CHIP-TO-STANLEY-AT-THE-COFFEE-TABLE 0.0000
-3.3930 <s> BRING-THE-PRIGNLES-TO-ALICIA-AT-THE-COFFEE-TABLE 0.0000
-3.3930 <s> BRING-THE-PRIGNLES-TO-ANABELLE-AT-THE-COFFEE-TABLE 0.0000
-3.3930 <s> BRING-THE-PRIGNLES-TO-ARTHUR-AT-THE-COFFEE-TABLE 0.0000
-3.3930 <s> BRING-THE-PRIGNLES-TO-BARBARA-AT-THE-COFFEE-TABLE 0.0000
-3.3930 <s> BRING-THE-PRIGNLES-TO-CLAIRE-AT-THE-COFFEE-TABLE 0.0000
-3.3930 <s> BRING-THE-PRIGNLES-TO-EDWARD-AT-THE-COFFEE-TABLE 0.0000
-3.3930 <s> BRING-THE-PRIGNLES-TO-FREDDY-AT-THE-COFFEE-TABLE 0.0000
-3.3930 <s> BRING-THE-PRIGNLES-TO-FREYA-AT-THE-COFFEE-TABLE 0.0000
-3.3930 <s> BRING-THE-PRIGNLES-TO-HAYDEN-AT-THE-COFFEE-TABLE 0.0000
-3.3930 <s> BRING-THE-PRIGNLES-TO-JOHN-AT-THE-COFFEE-TABLE 0.0000
-3.3930 <s> BRING-THE-PRIGNLES-TO-LILY-AT-THE-COFFEE-TABLE 0.0000
-3.3930 <s> BRING-THE-PRIGNLES-TO-LUCY-AT-THE-COFFEE-TABLE 0.0000
-3.3930 <s> BRING-THE-PRIGNLES-TO-MARY-AT-THE-COFFEE-TABLE 0.0000
-3.3930 <s> BRING-THE-PRIGNLES-TO-ME 0.0000
-3.3930 <s> BRING-THE-PRIGNLES-TO-OSCAR-AT-THE-COFFEE-TABLE 0.0000
-3.3930 <s> BRING-THE-PRIGNLES-TO-PHILIP-AT-THE-COFFEE-TABLE 0.0000
-3.3930 <s> BRING-THE-PRIGNLES-TO-PRINCE-AT-THE-COFFEE-TABLE 0.0000
-3.3930 <s> BRING-THE-PRIGNLES-TO-ROBERT-AT-THE-COFFEE-TABLE 0.0000
-3.3930 <s> BRING-THE-PRIGNLES-TO-SAMANTHA-AT-THE-COFFEE-TABLE 0.0000
-3.3930 <s> BRING-THE-PRIGNLES-TO-STANLEY-AT-THE-COFFEE-TABLE 0.0000
-3.3930 <s> BRING-THE-ROOT-BEER-TO-ME 0.0000
-3.3930 <s> BRING-THE-SHOPPING-BAG-TO-ME 0.0000
-3.3930 <s> BRING-THE-SPOON-TO-ALICIA-ON-THE-SHELF 0.0000
-3.3930 <s> BRING-THE-SPOON-TO-ANABELLE-ON-THE-SHELF 0.0000
-3.3930 <s> BRING-THE-SPOON-TO-ARTHUR-ON-THE-SHELF 0.0000
-3.3930 <s> BRING-THE-SPOON-TO-BARBARA-ON-THE-SHELF 0.0000
-3.3930 <s> BRING-THE-SPOON-TO-CLAIRE-ON-THE-SHELF 0.0000
-3.3930 <s> BRING-THE-SPOON-TO-EDWARD-ON-THE-SHELF 0.0000
-3.3930 <s> BRING-THE-SPOON-TO-FREDDY-ON-THE-SHELF 0.0000
-3.3930 <s> BRING-THE-SPOON-TO-FREYA-ON-THE-SHELF 0.0000
-3.3930 <s> BRING-THE-SPOON-TO-HAYDEN-ON-THE-SHELF 0.0000
-3.3930 <s> BRING-THE-SPOON-TO-JOHN-ON-THE-SHELF 0.0000
-3.3930 <s> BRING-THE-SPOON-TO-LILY-ON-THE-SHELF 0.0000
-3.3930 <s> BRING-THE-SPOON-TO-LUCY-ON-THE-SHELF 0.0000
-3.3930 <s> BRING-THE-SPOON-TO-MARY-ON-THE-SHELF 0.0000
-3.3930 <s> BRING-THE-SPOON-TO-ME 0.0000
-3.3930 <s> BRING-THE-SPOON-TO-OSCAR-ON-THE-SHELF 0.0000
-3.3930 <s> BRING-THE-SPOON-TO-PHILIP-ON-THE-SHELF 0.0000
-3.3930 <s> BRING-THE-SPOON-TO-PRINCE-ON-THE-SHELF 0.0000
-3.3930 <s> BRING-THE-SPOON-TO-ROBERT-ON-THE-SHELF 0.0000
-3.3930 <s> BRING-THE-SPOON-TO-SAMANTHA-ON-THE-SHELF 0.0000
-3.3930 <s> BRING-THE-SPOON-TO-STANLEY-ON-THE-SHELF 0.0000
-3.3930 <s> BRING-THE-TRAY-TO-ALICIA-ON-THE-SHELF 0.0000
-3.3930 <s> BRING-THE-TRAY-TO-ANABELLE-ON-THE-SHELF 0.0000
-3.3930 <s> BRING-THE-TRAY-TO-ARTHUR-ON-THE-SHELF 0.0000
-3.3930 <s> BRING-THE-TRAY-TO-BARBARA-ON-THE-SHELF 0.0000
-3.3930 <s> BRING-THE-TRAY-TO-CLAIRE-ON-THE-SHELF 0.0000
-3.3930 <s> BRING-THE-TRAY-TO-EDWARD-ON-THE-SHELF 0.0000
-3.3930 <s> BRING-THE-TRAY-TO-FREDDY-ON-THE-SHELF 0.0000
-3.3930 <s> BRING-THE-TRAY-TO-FREYA-ON-THE-SHELF 0.0000
-3.3930 <s> BRING-THE-TRAY-TO-HAYDEN-ON-THE-SHELF 0.0000
-3.3930 <s> BRING-THE-TRAY-TO-JOHN-ON-THE-SHELF 0.0000
-3.3930 <s> BRING-THE-TRAY-TO-LILY-ON-THE-SHELF 0.0000
-3.3930 <s> BRING-THE-TRAY-TO-LUCY-ON-THE-SHELF 0.0000
-3.3930 <s> BRING-THE-TRAY-TO-MARY-ON-THE-SHELF 0.0000
-3.3930 <s> BRING-THE-TRAY-TO-ME 0.0000
-3.3930 <s> BRING-THE-TRAY-TO-OSCAR-ON-THE-SHELF 0.0000
-3.3930 <s> BRING-THE-TRAY-TO-PHILIP-ON-THE-SHELF 0.0000
-3.3930 <s> BRING-THE-TRAY-TO-PRINCE-ON-THE-SHELF 0.0000
-3.3930 <s> BRING-THE-TRAY-TO-ROBERT-ON-THE-SHELF 0.0000
-3.3930 <s> BRING-THE-TRAY-TO-SAMANTHA-ON-THE-SHELF 0.0000
-3.3930 <s> BRING-THE-TRAY-TO-STANLEY-ON-THE-SHELF 0.0000
-3.3930 <s> BRINGWHICH-COUNTRY-IS-THE-HOST-OF-ROBOCUP-AP 0.0000
-3.3930 <s> DELIVER-THE-APPLE-JUICE-TO-ALICIA-AT-THE-BAR-TABLE 0.0000
-3.3930 <s> DELIVER-THE-APPLE-JUICE-TO-ANABELLE-AT-THE-BAR-TABLE 0.0000
-3.3930 <s> DELIVER-THE-APPLE-JUICE-TO-ARTHUR-AT-THE-BAR-TABLE 0.0000
-3.3930 <s> DELIVER-THE-APPLE-JUICE-TO-BARBARA-AT-THE-BAR-TABLE 0.0000
-3.3930 <s> DELIVER-THE-APPLE-JUICE-TO-CLAIRE-AT-THE-BAR-TABLE 0.0000
-3.3930 <s> DELIVER-THE-APPLE-JUICE-TO-EDWARD-AT-THE-BAR-TABLE 0.0000
-3.3930 <s> DELIVER-THE-APPLE-JUICE-TO-FREDDY-AT-THE-BAR-TABLE 0.0000
-3.3930 <s> DELIVER-THE-APPLE-JUICE-TO-FREYA-AT-THE-BAR-TABLE 0.0000
-3.3930 <s> DELIVER-THE-APPLE-JUICE-TO-HAYDEN-AT-THE-BAR-TABLE 0.0000
