Language model created by QuickLM on Thu Dec 14 09:03:41 EST 2017
Copyright (c) 1996-2010 Carnegie Mellon University and Alexander I. Rudnicky

The model is in standard ARPA format, designed by Doug Paul while he was at MITRE.

The code that was used to produce this language model is available in Open Source.
Please visit http://www.speech.cs.cmu.edu/tools/ for more information

The (fixed) discount mass is 0.5. The backoffs are computed using the ratio method.
This model based on a corpus of 44 sentences and 46 words

\data\
ngram 1=46
ngram 2=88
ngram 3=44

\1-grams:
-0.7782 </s> -0.3010
-0.7782 <s> -0.2218
-2.4216 ARM-CHAIR -0.2218
-2.4216 BAR-TABLE -0.2218
-2.4216 BRING -0.2218
-2.4216 COFFEE-TABLE -0.2218
-2.4216 DINING-ROOM -0.2218
-2.4216 DINING-TABLE-A -0.2218
-2.4216 DINING-TABLE-B -0.2218
-2.4216 FOLLOW-ME -0.2218
-2.4216 HALLWAY -0.2218
-2.4216 JACK -0.2218
-2.4216 KITCHEN -0.2218
-2.4216 KITCHEN-TABLE -0.2218
-2.4216 LITTLE-TABLE -0.2218
-2.4216 LIVING-ROOM -0.2218
-2.4216 SOFA -0.2218
-2.4216 STOP -0.2218
-2.4216 TAKE -0.2218
-2.4216 THE-BEDROOM -0.2218
-2.4216 THE-LIVING-ROOM -0.2218
-2.4216 TO-ARM-CHAIR -0.2218
-2.4216 TO-BAR-TABLE -0.2218
-2.4216 TO-COFFEE-TABLE -0.2218
-2.4216 TO-DINING-ROOM -0.2218
-2.4216 TO-DINING-TABLE-A -0.2218
-2.4216 TO-DINING-TABLE-B -0.2218
-2.4216 TO-HALLWAY -0.2218
-2.4216 TO-KITCHEN -0.2218
-2.4216 TO-KITCHEN-TABLE -0.2218
-2.4216 TO-LITTLE-TABLE -0.2218
-2.4216 TO-LIVING-ROOM -0.2218
-2.4216 TO-SOFA -0.2218
-2.4216 TO-THE-ARM-CHAIR -0.2218
-2.4216 TO-THE-BAR-TABLE -0.2218
-2.4216 TO-THE-BEDROOM -0.2218
-2.4216 TO-THE-COFFEE-TABLE -0.2218
-2.4216 TO-THE-DINING-ROOM -0.2218
-2.4216 TO-THE-DINING-TABLE-A -0.2218
-2.4216 TO-THE-DINING-TABLE-B -0.2218
-2.4216 TO-THE-HALLWAY -0.2218
-2.4216 TO-THE-KITCHEN -0.2218
-2.4216 TO-THE-KITCHEN-TABLE -0.2218
-2.4216 TO-THE-LITTLE-TABLE -0.2218
-2.4216 TO-THE-LIVING-ROOM -0.2218
-2.4216 TO-THE-SOFA -0.2218

\2-grams:
-1.9445 <s> ARM-CHAIR 0.0000
-1.9445 <s> BAR-TABLE 0.0000
-1.9445 <s> BRING 0.0000
-1.9445 <s> COFFEE-TABLE 0.0000
-1.9445 <s> DINING-ROOM 0.0000
-1.9445 <s> DINING-TABLE-A 0.0000
-1.9445 <s> DINING-TABLE-B 0.0000
-1.9445 <s> FOLLOW-ME 0.0000
-1.9445 <s> HALLWAY 0.0000
-1.9445 <s> JACK 0.0000
-1.9445 <s> KITCHEN 0.0000
-1.9445 <s> KITCHEN-TABLE 0.0000
-1.9445 <s> LITTLE-TABLE 0.0000
-1.9445 <s> LIVING-ROOM 0.0000
-1.9445 <s> SOFA 0.0000
-1.9445 <s> STOP 0.0000
-1.9445 <s> TAKE 0.0000
-1.9445 <s> THE-BEDROOM 0.0000
-1.9445 <s> THE-LIVING-ROOM 0.0000
-1.9445 <s> TO-ARM-CHAIR 0.0000
-1.9445 <s> TO-BAR-TABLE 0.0000
-1.9445 <s> TO-COFFEE-TABLE 0.0000
-1.9445 <s> TO-DINING-ROOM 0.0000
-1.9445 <s> TO-DINING-TABLE-A 0.0000
-1.9445 <s> TO-DINING-TABLE-B 0.0000
-1.9445 <s> TO-HALLWAY 0.0000
-1.9445 <s> TO-KITCHEN 0.0000
-1.9445 <s> TO-KITCHEN-TABLE 0.0000
-1.9445 <s> TO-LITTLE-TABLE 0.0000
-1.9445 <s> TO-LIVING-ROOM 0.0000
-1.9445 <s> TO-SOFA 0.0000
-1.9445 <s> TO-THE-ARM-CHAIR 0.0000
-1.9445 <s> TO-THE-BAR-TABLE 0.0000
-1.9445 <s> TO-THE-BEDROOM 0.0000
-1.9445 <s> TO-THE-COFFEE-TABLE 0.0000
-1.9445 <s> TO-THE-DINING-ROOM 0.0000
-1.9445 <s> TO-THE-DINING-TABLE-A 0.0000
-1.9445 <s> TO-THE-DINING-TABLE-B 0.0000
-1.9445 <s> TO-THE-HALLWAY 0.0000
-1.9445 <s> TO-THE-KITCHEN 0.0000
-1.9445 <s> TO-THE-KITCHEN-TABLE 0.0000
-1.9445 <s> TO-THE-LITTLE-TABLE 0.0000
-1.9445 <s> TO-THE-LIVING-ROOM 0.0000
-1.9445 <s> TO-THE-SOFA 0.0000
-0.3010 ARM-CHAIR </s> -0.3010
-0.3010 BAR-TABLE </s> -0.3010
-0.3010 BRING </s> -0.3010
-0.3010 COFFEE-TABLE </s> -0.3010
-0.3010 DINING-ROOM </s> -0.3010
-0.3010 DINING-TABLE-A </s> -0.3010
-0.3010 DINING-TABLE-B </s> -0.3010
-0.3010 FOLLOW-ME </s> -0.3010
-0.3010 HALLWAY </s> -0.3010
-0.3010 JACK </s> -0.3010
-0.3010 KITCHEN </s> -0.3010
-0.3010 KITCHEN-TABLE </s> -0.3010
-0.3010 LITTLE-TABLE </s> -0.3010
-0.3010 LIVING-ROOM </s> -0.3010
-0.3010 SOFA </s> -0.3010
-0.3010 STOP </s> -0.3010
-0.3010 TAKE </s> -0.3010
-0.3010 THE-BEDROOM </s> -0.3010
-0.3010 THE-LIVING-ROOM </s> -0.3010
-0.3010 TO-ARM-CHAIR </s> -0.3010
-0.3010 TO-BAR-TABLE </s> -0.3010
-0.3010 TO-COFFEE-TABLE </s> -0.3010
-0.3010 TO-DINING-ROOM </s> -0.3010
-0.3010 TO-DINING-TABLE-A </s> -0.3010
-0.3010 TO-DINING-TABLE-B </s> -0.3010
-0.3010 TO-HALLWAY </s> -0.3010
-0.3010 TO-KITCHEN </s> -0.3010
-0.3010 TO-KITCHEN-TABLE </s> -0.3010
-0.3010 TO-LITTLE-TABLE </s> -0.3010
-0.3010 TO-LIVING-ROOM </s> -0.3010
-0.3010 TO-SOFA </s> -0.3010
-0.3010 TO-THE-ARM-CHAIR </s> -0.3010
-0.3010 TO-THE-BAR-TABLE </s> -0.3010
-0.3010 TO-THE-BEDROOM </s> -0.3010
-0.3010 TO-THE-COFFEE-TABLE </s> -0.3010
-0.3010 TO-THE-DINING-ROOM </s> -0.3010
-0.3010 TO-THE-DINING-TABLE-A </s> -0.3010
-0.3010 TO-THE-DINING-TABLE-B </s> -0.3010
-0.3010 TO-THE-HALLWAY </s> -0.3010
-0.3010 TO-THE-KITCHEN </s> -0.3010
-0.3010 TO-THE-KITCHEN-TABLE </s> -0.3010
-0.3010 TO-THE-LITTLE-TABLE </s> -0.3010
-0.3010 TO-THE-LIVING-ROOM </s> -0.3010
-0.3010 TO-THE-SOFA </s> -0.3010

\3-grams:
-0.3010 <s> ARM-CHAIR </s>
-0.3010 <s> BAR-TABLE </s>
-0.3010 <s> BRING </s>
-0.3010 <s> COFFEE-TABLE </s>
-0.3010 <s> DINING-ROOM </s>
-0.3010 <s> DINING-TABLE-A </s>
-0.3010 <s> DINING-TABLE-B </s>
-0.3010 <s> FOLLOW-ME </s>
-0.3010 <s> HALLWAY </s>
-0.3010 <s> JACK </s>
-0.3010 <s> KITCHEN </s>
-0.3010 <s> KITCHEN-TABLE </s>
-0.3010 <s> LITTLE-TABLE </s>
-0.3010 <s> LIVING-ROOM </s>
-0.3010 <s> SOFA </s>
-0.3010 <s> STOP </s>
-0.3010 <s> TAKE </s>
-0.3010 <s> THE-BEDROOM </s>
-0.3010 <s> THE-LIVING-ROOM </s>
-0.3010 <s> TO-ARM-CHAIR </s>
-0.3010 <s> TO-BAR-TABLE </s>
-0.3010 <s> TO-COFFEE-TABLE </s>
-0.3010 <s> TO-DINING-ROOM </s>
-0.3010 <s> TO-DINING-TABLE-A </s>
-0.3010 <s> TO-DINING-TABLE-B </s>
-0.3010 <s> TO-HALLWAY </s>
-0.3010 <s> TO-KITCHEN </s>
-0.3010 <s> TO-KITCHEN-TABLE </s>
-0.3010 <s> TO-LITTLE-TABLE </s>
-0.3010 <s> TO-LIVING-ROOM </s>
-0.3010 <s> TO-SOFA </s>
-0.3010 <s> TO-THE-ARM-CHAIR </s>
-0.3010 <s> TO-THE-BAR-TABLE </s>
-0.3010 <s> TO-THE-BEDROOM </s>
-0.3010 <s> TO-THE-COFFEE-TABLE </s>
-0.3010 <s> TO-THE-DINING-ROOM </s>
-0.3010 <s> TO-THE-DINING-TABLE-A </s>
-0.3010 <s> TO-THE-DINING-TABLE-B </s>
-0.3010 <s> TO-THE-HALLWAY </s>
-0.3010 <s> TO-THE-KITCHEN </s>
-0.3010 <s> TO-THE-KITCHEN-TABLE </s>
-0.3010 <s> TO-THE-LITTLE-TABLE </s>
-0.3010 <s> TO-THE-LIVING-ROOM </s>
-0.3010 <s> TO-THE-SOFA </s>

\end\
